[[0.0, 0.0, 0.0, 0.0, 0.0, 0.0, 0.0, 0.0, 0.0, 0.0], [0.0, 0.0, 0.0, 0.0, 0.0, 0.0, 0.0, 0.0, 0.0, 0.0], [0.0, 0.0, 0.0, 0.0, 0.0, 0.0, 0.0, 0.0, 0.0, 0.0], [0.0, 0.0, 0.0, 0.0, 0.0, 0.0, 0.0, 0.0, 0.0, 0.0], [0.0, 0.0, 0.0, 0.0, 0.0, 0.0, 0.0, 0.0, 0.0, 0.0], [0.0, 0.0, 0.0, 0.0, 0.0, 0.0, 0.0, 0.0, 0.0, 0.0], [0.0, 0.0, 0.0, 0.0, 0.0, 0.0, 0.0, 0.0, 0.0, 0.0], [0.0, 0.0, 0.0, 0.0, 0.0, 0.0, 0.0, 0.0, 0.0, 0.0], [0.0, 0.0, 0.0, 0.0, 0.0, 0.0, 0.0, 0.0, 0.0, 0.0], [0.0, 0.0, 0.0, 0.0, 0.0, 0.0, 0.0, 0.0, 0.0, 0.0], [0.0, 0.0, 0.0, 0.0, 0.0, 0.0, 0.0, 0.0, 0.0, 0.0], [0.0, 0.0, 0.0, 0.0, 0.0, 0.0, 0.0, 0.0, 0.0, 0.0], [-2.809386387525592e-06, -5.301712917571422e-06, -0.00029025503317825496, -2.4075732653727755e-05, -0.0010052764555439353, -2.7890200726687908e-05, 0.001706127543002367, -5.943374617345398e-06, -6.632631993852556e-05, -0.0002782490337267518], [-1.1976094356214162e-05, -1.2479079487093259e-05, -0.0004176587099209428, -5.7085770095000044e-05, -0.0022849589586257935, -6.139516335679218e-05, 0.003657425520941615, -1.706758666841779e-05, -0.00015118658484425396, -0.0006436163675971329], [-6.481561285909265e-06, -9.6831638529693e-07, 0.00024248070258181542, -4.860987701249542e-06, -9.319812670582905e-05, -3.6193983987686806e-07, -8.725025691092014e-05, -4.510930921242107e-06, -6.626568392675836e-06, -3.8221543945837766e-05], [-2.700650441056496e-07, -4.034651723827665e-08, 1.0103362001245841e-05, -2.0254114474482776e-07, -3.883254976244643e-06, -1.5080825477298276e-08, -3.635427219705889e-06, -1.8795543610394816e-07, -2.761069879397837e-07, -1.5925642173897359e-06], [0.0, 0.0, 0.0, 0.0, 0.0, 0.0, 0.0, 0.0, 0.0, 0.0], [0.0, 0.0, 0.0, 0.0, 0.0, 0.0, 0.0, 0.0, 0.0, 0.0], [0.0, 0.0, 0.0, 0.0, 0.0, 0.0, 0.0, 0.0, 0.0, 0.0], [0.0, 0.0, 0.0, 0.0, 0.0, 0.0, 0.0, 0.0, 0.0, 0.0], [0.0, 0.0, 0.0, 0.0, 0.0, 0.0, 0.0, 0.0, 0.0, 0.0], [0.0, 0.0, 0.0, 0.0, 0.0, 0.0, 0.0, 0.0, 0.0, 0.0], [0.0, 0.0, 0.0, 0.0, 0.0, 0.0, 0.0, 0.0, 0.0, 0.0], [0.0, 0.0, 0.0, 0.0, 0.0, 0.0, 0.0, 0.0, 0.0, 0.0], [0.0, 0.0, 0.0, 0.0, 0.0, 0.0, 0.0, 0.0, 0.0, 0.0], [0.0, 0.0, 0.0, 0.0, 0.0, 0.0, 0.0, 0.0, 0.0, 0.0], [0.0, 0.0, 0.0, 0.0, 0.0, 0.0, 0.0, 0.0, 0.0, 0.0], [0.0, 0.0, 0.0, 0.0, 0.0, 0.0, 0.0, 0.0, 0.0, 0.0], [0.0, 0.0, 0.0, 0.0, 0.0, 0.0, 0.0, 0.0, 0.0, 0.0], [0.0, 0.0, 0.0, 0.0, 0.0, 0.0, 0.0, 0.0, 0.0, 0.0], [0.0, 0.0, 0.0, 0.0, 0.0, 0.0, 0.0, 0.0, 0.0, 0.0], [0.0, 0.0, 0.0, 0.0, 0.0, 0.0, 0.0, 0.0, 0.0, 0.0], [-3.5985729951448775e-09, -1.6856361639838724e-08, -2.76740229310235e-06, -3.25715543425531e-09, -1.1694222848745994e-05, -3.83319544994265e-08, 1.5481557056773454e-05, -1.886390066374588e-08, -3.274472817338392e-07, -6.115638484516239e-07], [-7.878295349428299e-08, -4.988798707472597e-08, -9.207940820488147e-06, -2.044534319622926e-08, -5.528813926503062e-05, -1.1728776172503785e-07, 6.871232471894473e-05, -3.467649776212056e-07, -9.732050330057973e-07, -2.629834170875256e-06], [-1.408946900482988e-05, -9.95978552964516e-08, -0.00011997503315797076, -3.270044771852554e-06, -0.004887285176664591, -9.96485414361814e-06, 0.005155280232429504, -2.653271621966269e-05, -3.3308831461908994e-06, -9.073371620615944e-05], [-2.8748689146596007e-05, -3.091031976509839e-05, -0.00028770428616553545, -8.936650374380406e-06, -0.012809201143682003, -1.9154767869622447e-05, 0.013550852425396442, -0.00011683211050694808, -2.4784596462268382e-05, -0.0002245809737360105], [-3.9592570828972384e-05, -0.0014674774138256907, -0.0002670966787263751, -6.642637890763581e-05, -0.014373301528394222, -4.65719640487805e-05, 0.017571963369846344, -0.0005408954457379878, -0.0003346485900692642, -0.0004359528247732669], [-4.693959635915235e-05, -0.00123660359531641, -0.0008295299485325813, -9.396331734023988e-05, -0.006024360191076994, -3.98741576645989e-05, 0.009364218451082706, -0.0004308966745156795, -0.00037453664117492735, -0.00028751377249136567], [-0.00029624003218486905, -0.000820952991489321, -0.001768672140315175, -9.43085688049905e-05, -0.010743164457380772, -0.00012044880713801831, 0.014819757081568241, -0.0002970003697555512, -0.0003110631660092622, -0.00036790937883779407], [0.0039213583804667, -0.00048197241267189384, -0.004851185251027346, -0.0001604714198037982, -0.017590176314115524, -0.000202189723495394, 0.022818036377429962, -0.0014735100558027625, -0.0004219334223307669, -0.0015579668106511235], [0.008628400973975658, -0.0004682021390181035, -0.0063286894001066685, -0.000330383307300508, -0.03474877402186394, -0.0012298165820538998, 0.04212508723139763, -0.003690598998218775, -0.0005905713769607246, -0.0033664535731077194], [0.0035933556500822306, -0.00026934256311506033, -0.004389260429888964, -0.00020715693244710565, -0.02342875488102436, -0.0013380292803049088, 0.029980629682540894, -0.0010695275850594044, -0.0006805289885960519, -0.002191391307860613], [-0.0003824515442829579, 0.005497063510119915, 0.0009424081072211266, -0.000652529823128134, -0.011418167501688004, -0.0007904781959950924, 0.00909304991364479, -0.00019595662888605148, -0.0010131635935977101, -0.0010797615395858884], [0.0011270871618762612, 0.007882793433964252, 0.0037587278056889772, -0.0008418807410635054, -0.0201998483389616, -0.0008920029504224658, 0.01262302603572607, -0.00036200889735482633, -0.0011368864215910435, -0.001959002809599042], [0.0034719447139650583, -0.001837721443735063, 0.014494684524834156, -0.00034532221616245806, -0.015532946214079857, -0.0008885410497896373, 0.0064114355482161045, -0.0007457169122062624, -0.001197956153191626, -0.003829867346212268], [0.0007825585780665278, -0.0010574761545285583, 0.0022726980969309807, -0.00019048633112106472, -0.0066809020936489105, -0.000549039279576391, 0.008659541606903076, -0.00035903567913919687, -0.0007602209225296974, -0.0021176438312977552], [-0.0010703057050704956, -0.00010404812928754836, -0.005324535071849823, -0.00010824183118529618, -0.004000830464065075, -0.0006586608942598104, 0.012494603171944618, -9.375718218507245e-05, -0.0005888919113203883, -0.0005453273188322783], [-0.0005095140659250319, -6.754682544851676e-05, -0.004405622370541096, -6.023699097568169e-05, -0.003960161004215479, -0.0006278422079049051, 0.011070936918258667, -0.00011621308658504859, -0.0006444162572734058, -0.0006793807842768729], [-0.00021498389833141118, -0.0001017744216369465, -0.0025856061838567257, -5.3411607950692996e-05, -0.003438584040850401, -0.00032774973078630865, 0.0077294399961829185, -6.062836473574862e-05, -0.000386520114261657, -0.0005601807497441769], [-8.291551057482138e-05, -0.0002561442961450666, -0.0024632522836327553, -9.194124868372455e-05, -0.003308030078187585, -0.0001028388796839863, 0.006978229153901339, -7.212091531982878e-06, -0.0005012978799641132, -0.00016459697508253157], [-9.982134542951826e-06, -2.2217445803107694e-05, -0.00025015018763951957, -7.987337085069157e-06, -0.0037849240470677614, -8.7714133769623e-06, 0.004217520356178284, -1.3021371159993578e-05, -5.8618770708562806e-05, -6.18475241935812e-05], [-3.6127744351688307e-06, -1.6654330465826206e-06, -6.782262062188238e-05, -7.869336968724383e-07, -0.0015763589181005955, -7.005715815466829e-06, 0.001750705298036337, -1.7835818653111346e-05, -2.0384548406582326e-05, -5.523261279449798e-05], [0.0, 0.0, 0.0, 0.0, 0.0, 0.0, 0.0, 0.0, 0.0, 0.0], [0.0, 0.0, 0.0, 0.0, 0.0, 0.0, 0.0, 0.0, 0.0, 0.0], [0.0, 0.0, 0.0, 0.0, 0.0, 0.0, 0.0, 0.0, 0.0, 0.0], [0.0, 0.0, 0.0, 0.0, 0.0, 0.0, 0.0, 0.0, 0.0, 0.0], [0.0, 0.0, 0.0, 0.0, 0.0, 0.0, 0.0, 0.0, 0.0, 0.0], [0.0, 0.0, 0.0, 0.0, 0.0, 0.0, 0.0, 0.0, 0.0, 0.0], [-2.5502293610202287e-08, -4.876440362622247e-10, -1.8700526993598032e-07, -9.785752208557597e-10, -1.7042202671291307e-06, -5.165354082237172e-07, 3.079273483308498e-06, -8.788281734284364e-12, -3.556719434527622e-07, -2.890075165851158e-07], [0.0003793614450842142, -4.847396373186541e-10, -9.018795026349835e-06, -2.8074560987079167e-07, -0.00033665058435872197, -3.629472485044971e-05, 8.264038478955626e-05, -3.619611379690468e-05, -3.2274838304147124e-06, -4.0332877688342705e-05], [0.00015204990631900728, -1.1695805142153404e-06, -0.00034740162664093077, -4.955433041686774e-07, -0.00021901716536376625, -7.245609140227316e-06, 0.000473852880531922, -1.3714655324292835e-05, -1.6552075976505876e-05, -2.030731047852896e-05], [-6.416881660697982e-05, -1.3997578207636252e-06, -8.960363629739732e-05, -9.139667781710159e-06, -0.00011460336827440187, -9.328659302809683e-07, 0.00029691329109482467, -1.7057361674233107e-06, -9.427846634935122e-06, -5.931228315603221e-06], [-0.001671048579737544, -1.1678941518766806e-05, -0.0007965861586853862, -7.724745955783874e-05, -0.005893968977034092, -3.115229628747329e-05, 0.008892202749848366, -0.00020952711929567158, -8.693294512340799e-05, -0.00011405828990973532], [-0.0019279377302154899, -0.000807219825219363, -0.0016959098866209388, -0.0004912607255391777, -0.021131716668605804, -0.0004850489494856447, 0.02802629955112934, -0.0006090631941333413, -0.00042865375871770084, -0.0004494850290939212], [-0.0027345851995050907, -0.00597082544118166, 0.000817751104477793, -0.001851227949373424, -0.03160598501563072, -0.0009054834954440594, 0.04587029665708542, -0.0014498427044600248, -0.0012157994788140059, -0.0009542760672047734], [-0.007952255196869373, -0.010258310474455357, 0.01324274018406868, -0.003929965663701296, -0.029666196554899216, -0.0036906455643475056, 0.05135520547628403, -0.0027564733754843473, -0.004266684874892235, -0.002077400451526046], [-0.00929314736276865, -0.010194670408964157, 0.01025816798210144, -0.0024581977631896734, -0.05562742054462433, -0.008267381228506565, 0.09206890314817429, -0.005693825427442789, -0.006905590649694204, -0.003886828199028969], [-0.01225370541214943, -0.010039071552455425, 0.02422337606549263, 0.0028133250307291746, -0.07264590263366699, -0.016982538625597954, 0.11414911597967148, -0.010651731863617897, -0.010851137340068817, -0.0077617112547159195], [-0.012530743144452572, 0.00029598388937301934, 0.017037339508533478, 0.004695598967373371, -0.10934248566627502, -0.02178936079144478, 0.1617092788219452, -0.00970112532377243, -0.01723865047097206, -0.013135752640664577], [-0.01811576634645462, 0.024460140615701675, 0.01468847319483757, -0.0032630625646561384, -0.10411788523197174, -0.025202559307217598, 0.15171146392822266, -0.005732942838221788, -0.020849911496043205, -0.013577660545706749], [-0.026452571153640747, 0.03268829733133316, 0.027353815734386444, -0.002232395112514496, -0.0859966054558754, -0.027371026575565338, 0.12267987430095673, -0.006059858947992325, -0.020563554018735886, -0.014045880176126957], [-0.03329502046108246, 0.05436781793832779, 0.03327805921435356, -0.0057241106405854225, -0.08545060455799103, -0.02106430009007454, 0.10347001999616623, -0.007194646168500185, -0.022534456104040146, -0.01585276611149311], [-0.0331866480410099, 0.031064124777913094, 0.018171822652220726, -0.004013609606772661, -0.074173703789711, -0.008965570479631424, 0.11796457320451736, -0.006625302601605654, -0.022448815405368805, -0.01778688281774521], [-0.029926788061857224, 0.003817089134827256, -0.0034391451627016068, -0.004351434763520956, -0.0456538088619709, 0.004125490318983793, 0.11038286238908768, -0.00495934346690774, -0.01643640361726284, -0.013558484613895416], [-0.022927159443497658, -0.0037531801499426365, -0.015875855460762978, -0.007733373902738094, -0.03158576786518097, 0.007479635067284107, 0.09403786808252335, -0.0028620839584618807, -0.0076314834877848625, -0.009148560464382172], [-0.018254585564136505, -0.0003413786762394011, -0.03171631321310997, -0.006828321609646082, -0.013191372156143188, 0.0024271109141409397, 0.08743099123239517, -0.0018289476865902543, -0.011457935906946659, -0.006239194888621569], [-0.01133074052631855, -0.005380857270210981, -0.020090362057089806, -0.0035453373566269875, -0.006681421771645546, -0.008750365115702152, 0.0650213211774826, -0.0008190007647499442, -0.0059683602303266525, -0.002454829402267933], [-0.006167275831103325, -0.004388037137687206, -0.019971713423728943, -0.003146363189443946, -0.004646768793463707, -0.00877714715898037, 0.054815471172332764, -0.00039265351369977, -0.005423275288194418, -0.0019022857304662466], [-0.002770117949694395, -0.0027619071770459414, -0.015911754220724106, -0.002210638951510191, -0.0038944275584071875, -0.0046200924552977085, 0.037118833512067795, -0.00028326152823865414, -0.00363323581404984, -0.0010333892423659563], [-0.001271379878744483, -0.0016818239819258451, -0.005860073491930962, -0.0007822663756087422, -0.00398518331348896, -0.005260405596345663, 0.02053719572722912, -5.0917977205244824e-05, -0.0014550641644746065, -0.00019008119124919176], [-0.00039776405901648104, -0.0005344683886505663, 0.002331690862774849, -0.00010376999853178859, -0.0008893325575627387, -0.0027108383364975452, 0.0029091595206409693, -2.171921732951887e-05, -0.00055106938816607, -3.188919436070137e-05], [-6.627592938457383e-06, -1.3989696526550688e-05, 0.0028835267294198275, -7.173853759923077e-07, -0.0001485086395405233, -8.728530519874766e-05, -0.0024926208425313234, -2.985582980841173e-08, -0.0001327080826740712, -1.0399372740721446e-06], [0.0, 0.0, 0.0, 0.0, 0.0, 0.0, 0.0, 0.0, 0.0, 0.0], [0.0, 0.0, 0.0, 0.0, 0.0, 0.0, 0.0, 0.0, 0.0, 0.0], [0.0, 0.0, 0.0, 0.0, 0.0, 0.0, 0.0, 0.0, 0.0, 0.0], [0.0, 0.0, 0.0, 0.0, 0.0, 0.0, 0.0, 0.0, 0.0, 0.0], [-5.757839005582355e-08, 0.0001213823416037485, -2.4726439733058214e-05, -2.2869769509270554e-06, -3.768308033613721e-06, -1.8363227809459204e-06, -6.140524783404544e-05, -6.8758212456998535e-09, -2.6602156140143052e-05, -6.928232778591337e-07], [0.0006144263898022473, 2.8788454073946923e-05, -6.781262345612049e-05, -1.4268051927501801e-05, -0.0010833223350346088, -0.0001947615237440914, 0.0011412710882723331, -0.00010925260721705854, -0.00015441617870237678, -0.00016065206727944314], [-0.002447712467983365, -3.40407423209399e-05, -0.0008032363839447498, -0.0005576907424256206, -0.0006687472923658788, 0.0019066024105995893, 0.003053543623536825, -0.0002530085912439972, -8.617358980700374e-05, -0.00010953559831250459], [-0.01031421311199665, -0.000721049087587744, 0.0029450480360537767, 0.011324486695230007, -0.0016232458874583244, -0.0033833016641438007, 0.0046635284088552, -0.0009049313375726342, -0.0015793370548635721, -0.0004069838032592088], [-0.01267063058912754, -0.0015865947352722287, 0.008343351073563099, 0.009388324804604053, -0.011515790596604347, -0.00390199339017272, 0.017611097544431686, -0.0014116977108642459, -0.003469425020739436, -0.0007866325322538614], [-0.016416950151324272, -0.007153211161494255, 0.01734531857073307, 0.023464756086468697, -0.023406360298395157, -0.013009331189095974, 0.03332166373729706, -0.004119381308555603, -0.00769426766782999, -0.002332195872440934], [-0.013372773304581642, -0.020522424951195717, 0.03851950168609619, 0.032305557280778885, -0.05303892120718956, -0.01578643172979355, 0.058507293462753296, -0.010498986579477787, -0.011144889518618584, -0.004967963322997093], [-0.029224056750535965, -0.03252865746617317, 0.1102306991815567, 0.02636217325925827, -0.07929054647684097, -0.029574790969491005, 0.07904759794473648, -0.014707754366099834, -0.020031776279211044, -0.01028260588645935], [-0.030636310577392578, -0.0494399257004261, 0.13062883913516998, 0.049454789608716965, -0.10392718762159348, -0.028206277638673782, 0.10358225554227829, -0.024959413334727287, -0.029836656525731087, -0.016659997403621674], [-0.030965114012360573, -0.07080847769975662, 0.17073626816272736, 0.10479015111923218, -0.13763295114040375, -0.05242893099784851, 0.1260136067867279, -0.03578348830342293, -0.04717152193188667, -0.02674989029765129], [-0.04072518274188042, -0.05416806787252426, 0.20069484412670135, 0.14218062162399292, -0.20097748935222626, -0.054168835282325745, 0.13951778411865234, -0.034516848623752594, -0.06109030544757843, -0.03674682602286339], [-0.02985246479511261, -0.026861784979701042, 0.20627978444099426, 0.13210906088352203, -0.2294982671737671, -0.05572452396154404, 0.16560573875904083, -0.03514779731631279, -0.07796578109264374, -0.048944227397441864], [-0.037667155265808105, -0.009420881979167461, 0.14491106569766998, 0.1803157925605774, -0.20631757378578186, -0.045675043016672134, 0.17095397412776947, -0.0373506024479866, -0.10080374032258987, -0.05894598364830017], [-0.05116736888885498, 0.021411152556538582, 0.1137906014919281, 0.1612311452627182, -0.19277337193489075, -0.008615665137767792, 0.16531060636043549, -0.04110059514641762, -0.09887213259935379, -0.06921412795782089], [-0.05079679191112518, 0.018193695694208145, 0.1028878390789032, 0.12902627885341644, -0.15310078859329224, -0.003839953802525997, 0.1565212607383728, -0.03832529857754707, -0.0933552011847496, -0.06721099466085434], [-0.0657336488366127, -0.030863497406244278, 0.04061717540025711, 0.10543990880250931, -0.10896049439907074, 0.0412624329328537, 0.18244260549545288, -0.031078126281499863, -0.08102932572364807, -0.05209704488515854], [-0.09005960822105408, -0.054070424288511276, -0.04935804381966591, 0.08163750916719437, -0.07232512533664703, 0.10115429759025574, 0.18332822620868683, -0.023479100316762924, -0.046855729073286057, -0.02997216396033764], [-0.09628090262413025, -0.0466967448592186, -0.08152096718549728, 0.05612852796912193, -0.025446239858865738, 0.09052043408155441, 0.1945706605911255, -0.013968265615403652, -0.05439671874046326, -0.022909697145223618], [-0.07391608506441116, -0.04775083810091019, -0.0942610502243042, 0.046125467866659164, -0.0008377288468182087, 0.07495806366205215, 0.1615135669708252, -0.010420997627079487, -0.03885696828365326, -0.01655338704586029], [-0.058856986463069916, -0.03197113424539566, -0.07540375739336014, -0.01852329634130001, 0.0014653753023594618, 0.04454214498400688, 0.1733551174402237, -0.006060445215553045, -0.01974651962518692, -0.008800439536571503], [-0.03573182225227356, -0.023188723251223564, -0.06276401877403259, -0.025539111346006393, -0.0023117735981941223, 0.01739293895661831, 0.13943789899349213, -0.002567542716860771, -0.00128328672144562, -0.0034444876946508884], [-0.015858164057135582, -0.015725446864962578, -0.04441789537668228, -0.012017765082418919, -0.0015554085839539766, -0.012316961772739887, 0.09776049852371216, -0.0008766270475462079, 0.006414445582777262, -0.0014067074516788125], [-0.007742320653051138, -0.011220471002161503, -0.014276082627475262, -0.004292906261980534, -0.002957025310024619, -0.014165273867547512, 0.05525675788521767, -0.0004061657818965614, 0.00021495275723282248, -0.0004114693438168615], [-0.0027157801669090986, -0.0022525049280375242, 0.0014368221163749695, -0.00015855040692258626, -0.00013796635903418064, 0.003972695209085941, -0.00022471227566711605, -3.6840774555457756e-06, 0.00011450219608377665, -3.082073089899495e-05], [-0.0005712975398637354, -0.002916658530011773, -0.00025665966677479446, -1.7906211724039167e-05, -8.497225644532591e-05, 0.0012943584006279707, 0.003620775416493416, -1.669120592850959e-07, -0.0010653858771547675, -2.086466338369064e-06], [0.0, 0.0, 0.0, 0.0, 0.0, 0.0, 0.0, 0.0, 0.0, 0.0], [0.0, 0.0, 0.0, 0.0, 0.0, 0.0, 0.0, 0.0, 0.0, 0.0], [-2.0953637047682605e-08, -2.663894527188404e-08, -1.4642018868471496e-06, 3.5253196983831003e-06, -1.5270993003468902e-07, -1.6919040035645594e-06, -3.039732376919346e-08, -5.7664437669302515e-09, -1.2472449384404172e-07, -7.920784028669914e-09], [-1.126306779042352e-05, 0.00041355841676704586, -0.000324825057759881, 0.00025145302060991526, -2.7410146685724612e-06, -0.0001939290959853679, -0.00024591319379396737, -3.921457647493298e-08, 0.00011437450302764773, -6.754247579010553e-07], [-0.0001725966139929369, -2.6897048883256502e-05, -0.000727639882825315, 0.0034969181288033724, -0.00019502549548633397, -0.00170232227537781, -0.0002629256632644683, 6.633320299442858e-05, -0.0003695048508234322, -0.0001063391609932296], [-0.002722677309066057, 0.0007013280410319567, -0.007458322681486607, 0.01566469296813011, 0.0035495907068252563, -0.010625151917338371, 0.0037665520794689655, -0.0006664393586106598, -0.0017632783856242895, -0.00044629626790992916], [-0.019125662744045258, 0.00596687151119113, 0.01451799925416708, 0.04852193593978882, 0.0047686900943517685, -0.03408721089363098, -0.001464352710172534, -0.0055782366544008255, -0.009792000986635685, -0.003728054463863373], [-0.022346455603837967, -0.0014846649719402194, 0.04369335621595383, 0.07946766167879105, -0.004429317079484463, -0.05772985890507698, -0.0037995658349245787, -0.007657073438167572, -0.018449025228619576, -0.007264991756528616], [-0.019121939316391945, -0.024434762075543404, 0.060250017791986465, 0.12552839517593384, -0.01859254576265812, -0.07119479030370712, 0.00982264056801796, -0.01912996731698513, -0.030320724472403526, -0.012806444428861141], [-0.020890817046165466, -0.042776383459568024, 0.11232016235589981, 0.1715908944606781, -0.060747597366571426, -0.11987680941820145, 0.03885270282626152, -0.031789328902959824, -0.022700235247612, -0.02398267388343811], [-0.027665216475725174, -0.048431646078825, 0.20206300914287567, 0.19710254669189453, -0.10657799988985062, -0.12825345993041992, 0.034066542983055115, -0.05022900924086571, -0.02732182666659355, -0.04475278779864311], [-0.033155374228954315, -0.04575405269861221, 0.23090887069702148, 0.22911562025547028, -0.1645960509777069, -0.09270565211772919, 0.04627546668052673, -0.07650408148765564, -0.03429234400391579, -0.059292759746313095], [-0.02969633974134922, -0.05681109428405762, 0.2829187214374542, 0.2654391825199127, -0.1894514411687851, -0.06793996691703796, -0.0013432868290692568, -0.10225860029459, -0.011970029212534428, -0.08888693153858185], [-0.04450790211558342, 0.006696987897157669, 0.28915607929229736, 0.26518696546554565, -0.21656185388565063, -0.09570164233446121, -0.004618769511580467, -0.1250799149274826, 0.05308595672249794, -0.12765605747699738], [-0.0349918007850647, 0.10065054148435593, 0.22011782228946686, 0.27653220295906067, -0.20280025899410248, -0.13913850486278534, -0.011686752550303936, -0.14038316905498505, 0.07956189662218094, -0.14786173403263092], [-0.04220232740044594, 0.14328007400035858, 0.16444137692451477, 0.2272505909204483, -0.21271659433841705, -0.05636391416192055, -0.02036956138908863, -0.1605076789855957, 0.1486503928899765, -0.19146257638931274], [-0.0047896853648126125, 0.12656806409358978, 0.10366281867027283, 0.18592393398284912, -0.19511152803897858, 0.06524447351694107, -0.03113708458840847, -0.1615651696920395, 0.1369921863079071, -0.22578838467597961], [-0.03653275594115257, 0.07941906154155731, 0.12252885103225708, 0.15279893577098846, -0.15073157846927643, 0.09486517310142517, 0.04003139212727547, -0.1512533575296402, 0.07370738685131073, -0.22483348846435547], [-0.014424069784581661, 0.019151391461491585, 0.08478908240795135, 0.06738696992397308, -0.11297690868377686, 0.11912297457456589, 0.13277316093444824, -0.12473859637975693, 0.001992210978642106, -0.17307673394680023], [-0.058648962527513504, 0.0006546472432091832, 0.007529850583523512, 0.08687470108270645, -0.07840026915073395, 0.15410053730010986, 0.1721356064081192, -0.09858179837465286, -0.05174313858151436, -0.13392134010791779], [-0.06822459399700165, 0.08272566646337509, -0.07309990376234055, 0.017644448205828667, -0.009609544649720192, 0.07214755564928055, 0.2226499766111374, -0.07241105288267136, -0.06219358742237091, -0.10962900519371033], [-0.06185857579112053, 0.10097376257181168, -0.10835826396942139, -0.039939768612384796, 0.039955124258995056, 0.002052058931440115, 0.2326887845993042, -0.055279556661844254, -0.033541806042194366, -0.07669202983379364], [-0.06988237798213959, 0.09847759455442429, -0.13556307554244995, -0.08879110217094421, 0.03811703994870186, 0.08673623949289322, 0.23541080951690674, -0.03219597414135933, -0.07640919089317322, -0.05590016022324562], [-0.053589120507240295, 0.056368637830019, -0.12433993816375732, -0.08009457588195801, 0.057934172451496124, 0.06768994778394699, 0.20932503044605255, -0.02298959344625473, -0.07595768570899963, -0.03434687852859497], [-0.05427912622690201, 0.017249802127480507, -0.09601504355669022, -0.07845881581306458, 0.06067027896642685, 0.10100691765546799, 0.13203005492687225, -0.010547333396971226, -0.054876528680324554, -0.01678023487329483], [-0.045792434364557266, -0.027975020930171013, -0.050527650862932205, -0.019975263625383377, 0.034454345703125, 0.0795188918709755, 0.03773181140422821, -0.003564567305147648, 0.0022951664868742228, -0.0061651901341974735], [-0.013847491703927517, -0.017458872869610786, -0.009019536897540092, -0.0032464354299008846, 0.002954157767817378, 0.0240755844861269, 0.0084382900968194, -0.0008103334112092853, 0.010281491093337536, -0.0013668343890458345], [-0.0012144189095124602, -0.0016708987532183528, -0.0009235964971594512, -6.325422873487696e-05, -0.0018523719627410173, 0.0012707458809018135, 0.0006917404243722558, -0.0001860755728557706, 0.004406589083373547, -0.00045845887507312], [-2.9722714316449128e-05, -0.0008190900553017855, -0.0006660787621513009, -1.7366524843964726e-05, -0.0004857860039919615, -0.00048730618436820805, 0.0023544083815068007, -7.892818757682107e-06, 0.00018449441995471716, -2.5660039682406932e-05], [0.0, 0.0, 0.0, 0.0, 0.0, 0.0, 0.0, 0.0, 0.0, 0.0], [0.0, 0.0, 0.0, 0.0, 0.0, 0.0, 0.0, 0.0, 0.0, 0.0], [-9.058063733391464e-05, 3.841723810182884e-05, 8.203060133382678e-05, 0.0009974729036912322, -3.456259219092317e-05, -0.0009123120689764619, 2.8309399567660876e-05, -5.559216333494987e-06, -0.00010096958430949599, -2.2456961232819594e-06], [-0.001241429359652102, 0.0004274300008546561, 0.0021086123306304216, 0.018064547330141068, 0.0007407402736134827, -0.009680160321295261, -0.0049878680147230625, -0.0002366939006606117, -0.004121206700801849, -0.0010739751160144806], [-0.009258817881345749, 0.001025562989525497, 0.005615753121674061, 0.056469306349754333, 0.0059450650587677956, -0.041267573833465576, 0.00076770328450948, -0.0010435249423608184, -0.013484958559274673, -0.004768529441207647], [-0.03009747713804245, 0.013460910879075527, 0.027514833956956863, 0.1281442940235138, 0.01983441784977913, -0.08293424546718597, -0.036877430975437164, 0.011864987201988697, -0.033408910036087036, -0.017501220107078552], [-0.03408869355916977, -0.012388346716761589, 0.0730823501944542, 0.17875562608242035, 0.018285686150193214, -0.11573612689971924, -0.03304425999522209, 0.011156291700899601, -0.04627757519483566, -0.039745040237903595], [-0.045526549220085144, -0.0640219897031784, 0.13733583688735962, 0.20559526979923248, 0.008670681156218052, -0.08606448024511337, -0.03544434905052185, -0.0047692423686385155, -0.05395025759935379, -0.06182492524385452], [-0.05033980682492256, -0.12287049740552902, 0.20171990990638733, 0.20178714394569397, -0.015170966275036335, -0.08712989091873169, 0.015623408369719982, -0.007381643634289503, -0.047018084675073624, -0.0892191156744957], [-0.050417933613061905, -0.12694169580936432, 0.23036766052246094, 0.2058452069759369, -0.029782090336084366, -0.017310690134763718, 0.003241561120375991, -0.04927188158035278, -0.03798984736204147, -0.12774083018302917], [-0.007201571948826313, -0.07922077924013138, 0.25715553760528564, 0.19180139899253845, -0.11187467724084854, 0.02036547288298607, -0.005215938203036785, -0.11058260500431061, -0.056964803487062454, -0.0982624813914299], [-0.004969220608472824, -0.06009605526924133, 0.28311076760292053, 0.1390332281589508, -0.13928842544555664, 0.04356788843870163, -0.13213205337524414, -0.16604596376419067, 0.09070595353841782, -0.05388603359460831], [0.02985680289566517, 0.0029004989191889763, 0.25558122992515564, 0.09353914111852646, -0.16544534265995026, -0.018686654046177864, -0.12417963147163391, -0.20587854087352753, 0.18532529473304749, -0.053013041615486145], [0.11775612086057663, 0.08637342602014542, 0.23616860806941986, 0.09189289808273315, -0.19423672556877136, -0.08400557935237885, -0.1668483018875122, -0.2678755521774292, 0.17927587032318115, 0.001498587429523468], [0.13965357840061188, 0.1260058432817459, 0.20676623284816742, 0.05406959354877472, -0.12355981022119522, -0.06814170628786087, -0.0952688604593277, -0.3207952678203583, 0.17158342897891998, -0.0903129130601883], [0.14682556688785553, 0.12448591738939285, 0.21580827236175537, 0.09506408125162125, -0.07745717465877533, -0.010827559977769852, -0.10637258738279343, -0.32912957668304443, 0.1345893293619156, -0.1929868906736374], [0.14322960376739502, -0.013323744758963585, 0.2480156123638153, 0.14702539145946503, -0.019968612119555473, 0.06350893527269363, -0.06677814573049545, -0.29981571435928345, 0.13372445106506348, -0.3356180191040039], [0.1751638799905777, -0.06699375063180923, 0.21490849554538727, 0.0028043491765856743, -0.017433853819966316, 0.109219029545784, 0.015284971334040165, -0.27324122190475464, 0.18249307572841644, -0.34220582246780396], [0.12924641370773315, -0.011979387141764164, 0.12435828894376755, -0.02629159949719906, 0.05112482234835625, 0.09608501940965652, 0.12759053707122803, -0.24547132849693298, 0.05110377445816994, -0.2957671284675598], [0.03517446294426918, 0.052065737545490265, 0.005081836599856615, -0.02755521610379219, 0.08897407352924347, 0.028618313372135162, 0.2040073275566101, -0.21316692233085632, 0.06899931281805038, -0.24219954013824463], [-0.009212899021804333, 0.14287196099758148, -0.047357503324747086, -0.08925928920507431, 0.06831063330173492, 0.10916347056627274, 0.179329514503479, -0.16984955966472626, 0.011893711052834988, -0.19588980078697205], [-0.0023124658036977053, 0.20000703632831573, -0.0726705864071846, -0.15090368688106537, 0.09980551898479462, 0.11246668547391891, 0.13028641045093536, -0.11615771800279617, -0.03243013843894005, -0.1680915355682373], [-0.02616298198699951, 0.1576106697320938, -0.09575488418340683, -0.15874873101711273, 0.15698584914207458, 0.1791449338197708, 0.10104265809059143, -0.08458881825208664, -0.0835849717259407, -0.14594365656375885], [-0.08065563440322876, 0.07210329920053482, -0.11328355967998505, -0.1478957235813141, 0.18616743385791779, 0.20763224363327026, 0.09695864468812943, -0.04759193956851959, -0.0771288126707077, -0.09630581736564636], [-0.08032132685184479, 0.006683104671537876, -0.07758739590644836, -0.05457314848899841, 0.07121942937374115, 0.18391452729701996, 0.041195910423994064, -0.018048657104372978, -0.028522474691271782, -0.043959829956293106], [-0.032169848680496216, -0.030162593349814415, -0.020475776866078377, -0.011717529967427254, 0.004458937793970108, 0.09520988166332245, -0.004490761552006006, -0.005603266879916191, 0.01893175020813942, -0.013980825431644917], [-0.009518307633697987, -0.003911010455340147, -0.004084211308509111, -0.0010862445924431086, -0.004188543651252985, 0.0219559445977211, 0.004637620877474546, -0.0020417917985469103, 0.0003249037836212665, -0.0020883565302938223], [-0.00149851618334651, -0.0010802963515743613, -0.000973166839685291, -4.4393040298018605e-05, -8.067089947871864e-05, 0.0011886077700182796, 0.0035066816490143538, -4.749322761199437e-05, -0.0009399356204085052, -3.081711838603951e-05], [0.0, 0.0, 0.0, 0.0, 0.0, 0.0, 0.0, 0.0, 0.0, 0.0], [-5.375914042815566e-07, -3.2567962193752464e-07, -1.4365491551870946e-06, 2.86025351670105e-05, -1.7087566561713174e-07, -2.382561206104583e-06, -7.549656544370009e-08, -7.450634029737557e-07, -3.0748374229006004e-06, -1.985387825698126e-05], [-0.00023668671201448888, -0.0018261424265801907, -0.001257347292266786, 0.0032444840762764215, -0.0013735421234741807, -0.0005848111468367279, -0.0003212500596418977, 0.00463856803253293, -0.0009126819204539061, -0.0013705893652513623], [-0.0015913001261651516, -0.001828786451369524, 0.007381525821983814, 0.04399971291422844, -0.002774502383545041, -0.02942078374326229, -0.0100810332223773, 0.012500361539423466, -0.011708378791809082, -0.0064768060110509396], [-0.014498031698167324, -0.004131235182285309, 0.019888250157237053, 0.10638584941625595, 0.015235934406518936, -0.07886135578155518, -0.007277877535670996, 0.01510915718972683, -0.02428167313337326, -0.027568917721509933], [-0.027535980567336082, -0.017044924199581146, 0.05247879400849342, 0.182219460606575, 0.04750216007232666, -0.10469815135002136, -0.04629494249820709, 0.03367003798484802, -0.04426693916320801, -0.07602974772453308], [-0.041176389902830124, -0.050941333174705505, 0.1222328394651413, 0.2167615443468094, 0.05290381982922554, -0.1006922498345375, -0.07383161038160324, 0.05990121141076088, -0.06484654545783997, -0.12031113356351852], [-0.053376998752355576, -0.10789244621992111, 0.16622760891914368, 0.15280233323574066, 0.0533340722322464, -0.03865731135010719, -0.04301811009645462, 0.07553011178970337, -0.03496163710951805, -0.16998745501041412], [-0.07015479356050491, -0.17797325551509857, 0.16989529132843018, 0.17180511355400085, 0.004895092453807592, -0.005505471955984831, -0.028410986065864563, 0.11881891638040543, 0.007137569598853588, -0.19050785899162292], [-0.08690667897462845, -0.21358154714107513, 0.19624294340610504, 0.1825314462184906, -0.02812753990292549, 0.033466637134552, -0.06342192739248276, 0.10038470476865768, 0.010341193526983261, -0.13092941045761108], [-0.001467189285904169, -0.14951305091381073, 0.16687479615211487, 0.1656418740749359, -0.1013697162270546, 0.068724624812603, -0.1348835527896881, 0.09767268598079681, -0.03569863364100456, -0.0759817510843277], [0.02702302858233452, -0.08616036176681519, 0.09226355701684952, 0.08734254539012909, -0.20083998143672943, 0.057904671877622604, -0.1465742439031601, 0.08569425344467163, 0.046528588980436325, 0.03681745007634163], [0.034340884536504745, -0.07054874300956726, 0.08479476720094681, 0.0887465849518776, -0.2083006501197815, 0.030118493363261223, -0.13568629324436188, -0.0058801015838980675, 0.10081437230110168, 0.08160042017698288], [0.11367646604776382, -0.07157335430383682, 0.1309974640607834, 0.14084582030773163, -0.23862718045711517, 0.008391650393605232, -0.20073077082633972, -0.12576252222061157, 0.034477464854717255, 0.20830512046813965], [0.12225397676229477, -0.06973733007907867, 0.11779700219631195, 0.13155794143676758, -0.286504864692688, 0.053506989032030106, -0.17181290686130524, -0.16012601554393768, 0.04821978136897087, 0.21484433114528656], [0.11354056000709534, -0.1343773603439331, 0.12370730191469193, 0.1315964311361313, -0.2753734290599823, -0.0371776781976223, -0.1203521266579628, -0.1260804533958435, 0.17866399884223938, 0.1458519846200943], [0.17427270114421844, -0.17451965808868408, 0.11966689676046371, 0.15588894486427307, -0.23693932592868805, -0.03653249144554138, -0.13330964744091034, -0.12204661965370178, 0.11098096519708633, 0.14253702759742737], [0.22044745087623596, -0.19907672703266144, 0.0688236802816391, 0.12054914981126785, -0.1618221551179886, 0.007189584895968437, -0.10479540377855301, -0.11081518232822418, 0.06095418334007263, 0.09854444861412048], [0.21468867361545563, -0.09895271062850952, 0.04181744530797005, 0.12662772834300995, -0.1620146930217743, 0.038676727563142776, -0.0864325538277626, -0.14365065097808838, -0.018201356753706932, 0.08744106441736221], [0.10762061178684235, -0.02516445331275463, -0.015890194103121758, -0.04250839725136757, -0.05513130873441696, 0.06982021033763885, -0.015380386263132095, -0.12675859034061432, 0.12324164807796478, -0.019849371165037155], [0.0721668004989624, 0.092291921377182, -0.06846949458122253, -0.010988043621182442, -0.0227922722697258, 0.07428958266973495, -0.007778172381222248, -0.11188755929470062, 0.07293616980314255, -0.08976919203996658], [0.12260151654481888, 0.11805520206689835, -0.07545015215873718, -0.0548785999417305, 0.09900335222482681, 0.07505611330270767, -0.04160522669553757, -0.07234261929988861, 0.0069390940479934216, -0.17737849056720734], [0.08780568838119507, 0.08940153568983078, -0.10938546061515808, -0.1500774621963501, 0.2358829379081726, 0.17642712593078613, -0.032997000962495804, -0.08290025591850281, 0.008159290999174118, -0.22231629490852356], [-0.043185632675886154, 0.025467973202466965, -0.15296189486980438, -0.16318456828594208, 0.2595230042934418, 0.29841598868370056, -0.024053137749433517, -0.07879190891981125, 0.06760811805725098, -0.1888379454612732], [-0.12115692347288132, -0.019724469631910324, -0.08527005463838577, -0.0844535380601883, 0.10145356506109238, 0.3708735406398773, -0.020587123930454254, -0.044008683413267136, 0.009190641343593597, -0.10631681233644485], [-0.07294536381959915, -0.03269478306174278, -0.02602142095565796, -0.022165894508361816, 0.008917375467717648, 0.2070743441581726, -0.017991002649068832, -0.01967509649693966, 0.017657481133937836, -0.04215584322810173], [-0.029233982786536217, -0.0033846062142401934, -0.0034927099477499723, -0.0026788555551320314, 0.00975143350660801, 0.0653427392244339, -0.009776845574378967, -0.0066515193320810795, -0.00907407607883215, -0.010801564902067184], [-0.005361123476177454, -0.0002331074356334284, -0.0002929769398178905, -0.00030041192076168954, -0.0006517054280266166, 0.009891555644571781, -0.0008403287502005696, -0.00048270932165905833, -0.0012647429248318076, -0.00046444914187304676], [0.0, 0.0, 0.0, 0.0, 0.0, 0.0, 0.0, 0.0, 0.0, 0.0], [-9.053463145392016e-05, -0.00017553684301674366, -0.00017109871259890497, 0.0007759275613352656, -0.00018554019334260374, -0.0003132218262180686, -3.4653738111956045e-05, 0.0019174085464328527, -0.000781769456807524, -0.000940979749429971], [-0.0004826343501918018, -0.001575199537910521, 0.0021893258672207594, 0.0025602872483432293, -0.0021006630267947912, -0.007692056708037853, -0.0011496796505525708, 0.01575273461639881, -0.0022834124974906445, -0.005218704231083393], [-0.0031886000651866198, -0.0035928571596741676, 0.010497240349650383, 0.044966474175453186, -0.0016538661438971758, -0.04034927114844322, -0.01489504799246788, 0.043483179062604904, -0.012073361314833164, -0.02319389395415783], [-0.02411576732993126, -0.006685459986329079, 0.04883003979921341, 0.17294780910015106, 0.02244570292532444, -0.14600032567977905, -0.015264209359884262, 0.03915300965309143, -0.019429268315434456, -0.07188138365745544], [-0.029488664120435715, -0.04017878323793411, 0.07435396313667297, 0.23916934430599213, 0.06833739578723907, -0.15336449444293976, -0.05811349302530289, 0.07038047164678574, -0.019373511895537376, -0.15172210335731506], [-0.04171445965766907, -0.08982497453689575, 0.17130503058433533, 0.18465928733348846, 0.053118277341127396, -0.10314767062664032, -0.09487563371658325, 0.13579170405864716, -0.01306995190680027, -0.20224153995513916], [-0.07486283034086227, -0.13454481959342957, 0.12783518433570862, 0.11597445607185364, 0.0442219115793705, -0.0056372531689703465, -0.03656861186027527, 0.15595273673534393, 0.03138229623436928, -0.22375266253948212], [-0.09936046600341797, -0.22383856773376465, 0.11113099008798599, 0.06827195733785629, -0.013166205026209354, 0.08150328695774078, -0.0270976759493351, 0.18017876148223877, 0.062208641320466995, -0.13983054459095], [-0.02422315999865532, -0.23421339690685272, 0.06838508695363998, 0.061310216784477234, -0.05874834582209587, 0.07762917876243591, -0.07930076867341995, 0.2163011133670807, 0.02031668834388256, -0.047456465661525726], [0.024738499894738197, -0.2012987583875656, 0.017576444894075394, 0.05927139148116112, -0.15147928893566132, 0.13024131953716278, -0.14437441527843475, 0.2639440894126892, 0.015287859365344048, -0.013907193206250668], [0.05480359494686127, -0.17662663757801056, 0.032990261912345886, 0.054163917899131775, -0.24924860894680023, 0.13157781958580017, -0.13567104935646057, 0.23858457803726196, -0.030893756076693535, 0.08031994104385376], [0.07882162928581238, -0.11450081318616867, -0.003800078295171261, 0.12398426979780197, -0.3326016664505005, 0.045823339372873306, -0.17183373868465424, 0.19094882905483246, -0.038222525268793106, 0.22137995064258575], [0.08267322182655334, -0.1477127969264984, 0.09167159348726273, 0.15353576838970184, -0.3216301500797272, -0.04609418660402298, -0.1974327117204666, 0.09587423503398895, -0.05109074339270592, 0.34020525217056274], [0.07741856575012207, -0.1410803347826004, 0.07537491619586945, 0.19106990098953247, -0.40395498275756836, 0.008351697586476803, -0.15997250378131866, -0.0037104375660419464, -0.13012297451496124, 0.486625611782074], [0.09056290239095688, -0.2230132818222046, 0.015518411993980408, 0.17228884994983673, -0.4195888042449951, -0.10590074956417084, -0.10901917517185211, 0.021557603031396866, 0.035054922103881836, 0.522538423538208], [0.14982196688652039, -0.19334957003593445, -0.01771732047200203, 0.0734846293926239, -0.37661105394363403, -0.0059616961516439915, -0.20045527815818787, 0.10440915822982788, 0.020118841901421547, 0.4462600350379944], [0.22817668318748474, -0.16627028584480286, -0.09873989224433899, 0.12041352689266205, -0.2630242109298706, 0.050882432609796524, -0.20684650540351868, 0.15871810913085938, -0.07582637667655945, 0.2525160014629364], [0.20441773533821106, -0.14194625616073608, -0.05203608423471451, 0.06525716930627823, -0.241935133934021, 0.05737478286027908, -0.23954282701015472, 0.14817176759243011, 0.049009621143341064, 0.15122850239276886], [0.12693628668785095, -0.02675548568367958, -0.004526294302195311, 0.043582070618867874, -0.16226516664028168, 0.08116815984249115, -0.23951666057109833, 0.10152831673622131, 0.004171029664576054, 0.07567717134952545], [0.05179634690284729, 0.02880401350557804, -0.054232582449913025, 0.03390159830451012, -0.09937019646167755, 0.08981903642416, -0.21033672988414764, 0.08518797159194946, 0.04213105887174606, 0.03229914605617523], [0.07308048009872437, 0.002579108811914921, -0.0268500205129385, -0.03219528868794441, 0.03600795194506645, 0.1054232269525528, -0.1949002593755722, 0.03238704428076744, 0.06161757931113243, -0.05715025216341019], [0.10475682467222214, -0.02351410686969757, -0.040197040885686874, -0.12110128998756409, 0.19306878745555878, 0.18120412528514862, -0.18941348791122437, 0.005269860383123159, 0.10828813165426254, -0.21836227178573608], [0.04848092794418335, -0.06548544019460678, -0.17103685438632965, -0.17742817103862762, 0.21518158912658691, 0.37727147340774536, -0.14562387764453888, -0.041676655411720276, 0.20063959062099457, -0.24032270908355713], [-0.0883701965212822, -0.09876619279384613, -0.1211998239159584, -0.11912278085947037, 0.07272272557020187, 0.4983673095703125, -0.06011423096060753, -0.057627853006124496, 0.12721049785614014, -0.15309937298297882], [-0.09213662892580032, -0.05281062051653862, -0.03442445024847984, -0.030677445232868195, 0.0016393315745517612, 0.348914235830307, -0.045817870646715164, -0.03417380899190903, 0.004993559792637825, -0.06550614535808563], [-0.03337112069129944, -0.003172901226207614, -0.004069909919053316, -0.0025216175708919764, 0.008488447405397892, 0.08402854949235916, -0.012072207406163216, -0.007529049646109343, -0.014755507931113243, -0.015024658292531967], [-0.0026390994898974895, -0.0011895279167219996, -0.0002504945150576532, -0.00011357822950230911, -0.0006060625892132521, 0.00757503230124712, -0.0018835726659744978, -0.00036377404467202723, -4.0411421650787815e-05, -0.0004885114030912519], [0.0020537744276225567, -1.8446486649281724e-07, -5.7099627156276256e-05, -2.8324058121143025e-07, -7.554090552730486e-05, -1.517390501248883e-06, -5.187929673411418e-06, -0.0012040851870551705, -8.665536370244808e-06, -0.0007012103451415896], [-0.0002011502510868013, -0.00019539002096280456, 0.00012894241081085056, -0.002294640988111496, -0.0033425341825932264, -0.0005550229689106345, -0.00010404407657915726, 0.01383176539093256, -0.000990192755125463, -0.00627773255109787], [-0.0009069564403034747, -0.0006911590462550521, 0.0017970474436879158, -0.0027194872964173555, -0.003164158668369055, -0.008256964385509491, -0.001447738497518003, 0.036092083901166916, -0.003958466928452253, -0.0167442187666893], [-0.004385089967399836, -0.0018981394823640585, 0.011634016409516335, 0.038493622094392776, -0.00919490959495306, -0.043045688420534134, -0.01531555037945509, 0.08752910792827606, -0.005953848361968994, -0.05786347761750221], [-0.03989921510219574, -0.010481005534529686, 0.05248238146305084, 0.19264431297779083, 0.008243255317211151, -0.18363982439041138, -0.02482704073190689, 0.10850708186626434, 0.008172348141670227, -0.11120244860649109], [-0.048841170966625214, -0.03789198771119118, 0.0809725895524025, 0.2027127742767334, 0.0597526878118515, -0.18050669133663177, -0.07534854859113693, 0.11915302276611328, 0.03547895699739456, -0.15548154711723328], [-0.05865466594696045, -0.09556777030229568, 0.10394347459077835, 0.15233726799488068, 0.0177330169826746, -0.11279454827308655, -0.09788861870765686, 0.15084098279476166, 0.08238189667463303, -0.14233078062534332], [-0.07904588431119919, -0.1418599784374237, 0.07837052643299103, 0.07091493159532547, -0.006914311554282904, -0.03159919008612633, -0.055023133754730225, 0.22099804878234863, 0.11730170994997025, -0.17314249277114868], [-0.06241177022457123, -0.22320738434791565, 0.06557096540927887, 0.014640341512858868, -0.08498586714267731, 0.09270767867565155, -0.049473050981760025, 0.19097578525543213, 0.08641243726015091, -0.0302289929240942], [0.022051701322197914, -0.2591819167137146, 0.06270115822553635, 0.002962051425129175, -0.03832143172621727, 0.05942841246724129, -0.09596181660890579, 0.16650943458080292, 0.13163699209690094, -0.05182425677776337], [0.03599852696061134, -0.24620597064495087, 0.14602719247341156, 0.017115380614995956, -0.1416667103767395, 0.10141085088253021, -0.1492975652217865, 0.17736327648162842, 0.09058325737714767, -0.03132855147123337], [0.04703265056014061, -0.19367189705371857, 0.11270684748888016, -0.014876026660203934, -0.18059232831001282, 0.1352134644985199, -0.13835394382476807, 0.2466253787279129, 0.027350427582859993, -0.041434768587350845], [0.0841221734881401, -0.11299955099821091, 0.04600946232676506, 0.01272672601044178, -0.2415158450603485, 0.022603128105401993, -0.15404058992862701, 0.24195778369903564, 0.12494087964296341, -0.02380421757698059], [0.03447935730218887, -0.07385440170764923, 0.051184918731451035, 0.06558120995759964, -0.23551231622695923, -0.07612748444080353, -0.2004251480102539, 0.13696280121803284, 0.09521476179361343, 0.20249585807323456], [0.09570805728435516, -0.029368817806243896, 0.10793042927980423, 0.17567694187164307, -0.41159817576408386, -0.1356699913740158, -0.20475924015045166, 0.1662539839744568, -0.08131447434425354, 0.3171412944793701], [0.15562233328819275, 0.013503517024219036, 0.08945930749177933, 0.1644895374774933, -0.4139420688152313, -0.20057442784309387, -0.22520150244235992, 0.22948284447193146, -0.08254651725292206, 0.26970672607421875], [0.27299201488494873, -0.08315400779247284, -0.0006440561264753342, 0.10908792167901993, -0.33530914783477783, -0.13306324183940887, -0.30639928579330444, 0.28520673513412476, 0.021474268287420273, 0.16980880498886108], [0.24353396892547607, 0.0019899944309145212, -0.02949312888085842, 0.10852475464344025, -0.18357881903648376, -0.07603565603494644, -0.3558295667171478, 0.2763124108314514, -0.00728193111717701, 0.02185698226094246], [0.17056314647197723, -0.06491047888994217, -0.04756149649620056, 0.1401173621416092, -0.10709785670042038, -0.032692428678274155, -0.4380755126476288, 0.2692207992076874, 0.08539445698261261, 0.02504192665219307], [0.11100195348262787, -0.06548256427049637, 0.06071930006146431, 0.10176072269678116, -0.10118244588375092, 0.03237001597881317, -0.4123246967792511, 0.17126081883907318, 0.11291971057653427, -0.011043316684663296], [0.0738157257437706, -0.09920843690633774, 0.01044916920363903, 0.11673644930124283, -0.06722967326641083, 0.12265392392873764, -0.3221801817417145, 0.14406345784664154, 0.06688547879457474, -0.04598540440201759], [0.04679786041378975, -0.13133177161216736, -0.02819080278277397, 0.07492262870073318, -0.013461396098136902, 0.14940275251865387, -0.2695811092853546, 0.048487164080142975, 0.08800889551639557, 0.03494582325220108], [0.13582615554332733, -0.16593529284000397, -0.04177700728178024, 0.011325356550514698, 0.0604441873729229, 0.20036612451076508, -0.27483245730400085, 0.04191874712705612, 0.1698145717382431, -0.1371505707502365], [0.17505009472370148, -0.18989385664463043, -0.10609706491231918, -0.20876294374465942, 0.0801449567079544, 0.47794580459594727, -0.22435051202774048, -0.018371380865573883, 0.22143623232841492, -0.20710137486457825], [-0.0211495291441679, -0.15492486953735352, -0.14106088876724243, -0.15227110683918, 0.0052258325740695, 0.6604480147361755, -0.13102149963378906, -0.08024966716766357, 0.15542708337306976, -0.14042332768440247], [-0.092924565076828, -0.0667756050825119, -0.04889433830976486, -0.042133450508117676, -0.017831433564424515, 0.43687352538108826, -0.06676904112100601, -0.04857846349477768, 0.016670383512973785, -0.06963672488927841], [-0.027360498905181885, -0.006460565607994795, -0.005891637410968542, -0.0031024133786559105, -0.01570914313197136, 0.10376791656017303, -0.028901906684041023, -0.010753611102700233, 0.007803155109286308, -0.013391304761171341], [-0.0017253524856641889, -0.0008780935313552618, -0.00046244714758358896, -3.044208642677404e-05, -0.0006386506138369441, 0.006695424672216177, -0.00213601253926754, -0.0026478050276637077, 0.002410539425909519, -0.0005871614557690918], [-2.3345378394878935e-06, -1.900972961266234e-06, -2.9750881367363036e-06, -6.128494715085253e-05, -0.00022243746207095683, -2.1584573914879e-05, -2.5685196760605322e-06, 0.0007926547550596297, -1.6082485672086477e-05, -0.00046148651745170355], [-0.00031564198434352875, -5.143188172951341e-05, -0.00025861701578833163, -0.0021213756408542395, -0.004046998452395201, -0.000637327553704381, -6.739372474839911e-05, 0.017286494374275208, -0.0007249132031574845, -0.009062796831130981], [-0.0005661198520101607, -0.0007538712816312909, 0.00197791401296854, 0.005442345514893532, -0.007063812576234341, -0.0045314631424844265, -0.002086942084133625, 0.04396842420101166, -0.008428685367107391, -0.027957787737250328], [-0.004954568576067686, -0.0021213737782090902, 0.014467122033238411, 0.040313586592674255, -0.03555437549948692, -0.04446609690785408, -0.019229888916015625, 0.12933342158794403, -0.007551569025963545, -0.07023628056049347], [-0.03889790549874306, -0.013949724845588207, 0.041604697704315186, 0.1635563224554062, -0.033062372356653214, -0.14949588477611542, -0.02766541577875614, 0.17128920555114746, 0.030156606808304787, -0.14353564381599426], [-0.047229330986738205, -0.05566127970814705, 0.10369644314050674, 0.11639093607664108, -0.004379532765597105, -0.15437781810760498, -0.09287111461162567, 0.15698151290416718, 0.08219783753156662, -0.10474760830402374], [-0.06382092833518982, -0.09416691958904266, 0.0666636973619461, 0.06903466582298279, -0.04954482614994049, -0.07015202194452286, -0.08979405462741852, 0.11895063519477844, 0.11904555559158325, -0.006215709261596203], [-0.07838643342256546, -0.11320354789495468, -0.0030328668653964996, 0.003132955636829138, -0.050710029900074005, 0.05204762890934944, -0.019568827003240585, 0.08974570780992508, 0.14864836633205414, -0.02867310494184494], [-0.034564971923828125, -0.17466649413108826, -0.029842181131243706, -0.07011119276285172, -0.06196350231766701, 0.16429737210273743, -0.029210876673460007, 0.062435176223516464, 0.1636127382516861, 0.01001388393342495], [0.024098724126815796, -0.2279340624809265, 0.057645153254270554, -0.1114249974489212, -0.031792402267456055, 0.13593566417694092, -0.10997646301984787, 0.0704229474067688, 0.1904756724834442, 0.0025494485162198544], [0.06009553000330925, -0.20908403396606445, 0.14282234013080597, -0.1913706213235855, -0.10423965752124786, 0.16255943477153778, -0.14144904911518097, 0.04072773456573486, 0.1826193481683731, 0.057318754494190216], [0.0011386149562895298, -0.13519595563411713, 0.08281593024730682, -0.29870015382766724, -0.10390383005142212, 0.2463637739419937, -0.10362157970666885, 0.10756531357765198, 0.14015507698059082, 0.06338293105363846], [0.009999127127230167, -0.08546182513237, 0.02539599873125553, -0.25400102138519287, -0.06796649843454361, 0.1605200469493866, -0.15155565738677979, 0.17607752978801727, 0.1088777557015419, 0.07811389863491058], [0.08750207722187042, 0.04352672025561333, 0.05506174638867378, -0.08305034786462784, -0.15683268010616302, 0.004332659766077995, -0.1883358210325241, 0.18097050487995148, 0.012852529995143414, 0.04397242143750191], [0.046013180166482925, 0.2032472938299179, 0.12873955070972443, 0.16157452762126923, -0.4730338454246521, -0.14715047180652618, -0.14110155403614044, 0.30009177327156067, -0.18724848330020905, 0.10886818915605545], [0.037320464849472046, 0.30347830057144165, 0.14552965760231018, 0.26464274525642395, -0.38112765550613403, -0.2814539968967438, -0.2552797198295593, 0.34864428639411926, -0.298400342464447, 0.11664635688066483], [0.13818390667438507, 0.12788797914981842, 0.11544423550367355, 0.2257167249917984, -0.10297737270593643, -0.319817453622818, -0.38565000891685486, 0.3553687334060669, -0.14410218596458435, -0.010054945945739746], [0.2344636172056198, 0.03390233591198921, 0.03511190041899681, 0.15383553504943848, -0.019235365092754364, -0.2460070103406906, -0.4838661551475525, 0.3301246762275696, -0.013066750019788742, -0.02526262030005455], [0.21367773413658142, -0.07170093804597855, 0.05020511522889137, 0.11417140066623688, -0.025212667882442474, -0.15354473888874054, -0.48710528016090393, 0.27793431282043457, 0.08289679884910583, -0.0013224638532847166], [0.18416160345077515, -0.14609867334365845, 0.03219178318977356, 0.12439931184053421, -0.04566662386059761, -0.07734835147857666, -0.4259428381919861, 0.24286040663719177, 0.13445359468460083, -0.023010708391666412], [0.10102557390928268, -0.20137330889701843, 0.0031051472760736942, 0.21183417737483978, -0.06898782402276993, 0.024425935000181198, -0.3125622868537903, 0.15083633363246918, 0.09833308309316635, -0.006637485232204199], [0.016847161576151848, -0.23490354418754578, -0.054134439677000046, 0.1720505952835083, -0.052291568368673325, 0.1639903038740158, -0.24745206534862518, 0.14638595283031464, 0.12243720144033432, -0.032929543405771255], [0.11462541669607162, -0.24324767291545868, -0.01597052998840809, 0.050784073770046234, -0.023821907117962837, 0.24942441284656525, -0.2697898745536804, 0.07056739181280136, 0.17818251252174377, -0.11075414717197418], [0.2454451322555542, -0.217426136136055, -0.10021050274372101, -0.13576415181159973, -0.06585948169231415, 0.5105660557746887, -0.20251724123954773, -0.04778575897216797, 0.187674880027771, -0.17412316799163818], [0.06039101257920265, -0.1368497759103775, -0.13188979029655457, -0.12053131312131882, -0.12728314101696014, 0.7380577325820923, -0.15394127368927002, -0.07567200809717178, 0.08312111347913742, -0.13540209829807281], [-0.08630236238241196, -0.05464845150709152, -0.04329439625144005, -0.02805550955235958, -0.08860543370246887, 0.4962663948535919, -0.10466713458299637, -0.033079709857702255, 0.004883777350187302, -0.06249707564711571], [-0.026023773476481438, -0.006922398693859577, -0.0044927760027348995, -0.0031141838990151882, -0.026197509840130806, 0.107713483273983, -0.03665661811828613, -0.003121701767668128, 0.016413407400250435, -0.017597876489162445], [-0.000646353408228606, -0.0012356220977380872, -0.0005529531044885516, -0.0001979613007279113, -0.0022385730408132076, 0.007533733267337084, -0.002628838876262307, 0.0071253664791584015, -0.005516261328011751, -0.001642538351006806], [-3.6708411244035233e-06, -2.24937207349285e-06, -5.9800904637086205e-06, -9.344627324026078e-05, -0.00026101095136255026, -2.7795598725788295e-05, -3.0384428555407794e-06, 0.0010910534765571356, -2.147166924260091e-05, -0.0006723906262777746], [-0.0003275144554208964, -2.174778637709096e-05, -9.789189789444208e-05, -0.0019004731439054012, -0.0036228939425200224, -0.0006467271596193314, -3.4437183785485104e-05, 0.017012834548950195, -0.0004409975081216544, -0.00992015190422535], [0.0031950343400239944, -0.0007997938664630055, 0.0022651783656328917, 0.003598353825509548, -0.01352836936712265, -0.004481506068259478, -0.005539790261536837, 0.06029919162392616, -0.007924393750727177, -0.037083860486745834], [-0.012260913848876953, -0.005471745505928993, 0.017596792429685593, 0.05134491249918938, -0.04315643757581711, -0.03656370937824249, -0.019170967862010002, 0.13971853256225586, -0.01884954795241356, -0.07318687438964844], [-0.03792721405625343, -0.012017976492643356, -0.008699096739292145, 0.06713082641363144, -0.037353817373514175, -0.0752411037683487, -0.03954746201634407, 0.19960859417915344, 0.05985817685723305, -0.11581090092658997], [-0.04212974011898041, -0.055733468383550644, 0.03440010920166969, -0.011387075297534466, -0.04836006090044975, -0.07076874375343323, -0.08073029667139053, 0.18046534061431885, 0.09850230813026428, -0.004258542321622372], [-0.04965747892856598, -0.10497507452964783, 0.024637583643198013, -0.08717276901006699, -0.07841521501541138, 0.008711181581020355, -0.05149158835411072, 0.06299913674592972, 0.17229314148426056, 0.10307112336158752], [-0.050472646951675415, -0.11706379801034927, -0.11959926038980484, -0.16759057343006134, -0.04513642191886902, 0.13124693930149078, 0.02691021002829075, 0.045668791979551315, 0.2331146001815796, 0.06292209029197693], [-0.013910315930843353, -0.14590300619602203, -0.12313064932823181, -0.282213419675827, -0.014138939790427685, 0.2255871444940567, 0.013953940011560917, -0.029048150405287743, 0.23229937255382538, 0.13650408387184143], [0.020322849974036217, -0.1951708197593689, -0.12910878658294678, -0.3540642261505127, 0.09246572852134705, 0.25010091066360474, -0.07643424719572067, 0.04037940129637718, 0.2508389949798584, 0.10067036747932434], [-0.038180284202098846, -0.14440381526947021, -0.10700815171003342, -0.40605103969573975, 0.051786355674266815, 0.23456168174743652, -0.035748496651649475, 0.04094061255455017, 0.22127161920070648, 0.18283165991306305], [-0.020612740889191628, -0.09433314204216003, -0.13021308183670044, -0.4248042404651642, 0.04256436228752136, 0.25825807452201843, -0.04900043085217476, -0.012926985509693623, 0.19882097840309143, 0.23224680125713348], [-0.01043962687253952, -0.005114010535180569, -0.20707635581493378, -0.34436872601509094, 0.14248037338256836, 0.27752193808555603, -0.09630341082811356, -0.009662460535764694, 0.1616753190755844, 0.09128612279891968], [0.020579421892762184, 0.16967535018920898, -0.23581728339195251, -0.01396351307630539, -0.1758679896593094, 0.18715956807136536, -0.03870300576090813, 0.14943765103816986, 0.04692063108086586, -0.10942112654447556], [-0.052078697830438614, 0.4113338589668274, -0.09177953004837036, 0.19883759319782257, -0.5287045836448669, 0.04528878256678581, -0.13876189291477203, 0.29198533296585083, -0.08590379357337952, -0.05021646246314049], [-0.10166383534669876, 0.47809457778930664, -0.08931604027748108, 0.24088075757026672, -0.21830563247203827, -0.09574754536151886, -0.33185893297195435, 0.4248732030391693, -0.2238720804452896, -0.08308420330286026], [-0.05144771188497543, 0.21592436730861664, -0.01120760291814804, 0.22748160362243652, 0.03067823499441147, -0.19758236408233643, -0.40429845452308655, 0.48596709966659546, -0.25367069244384766, -0.041845060884952545], [0.1251932978630066, 0.01763387769460678, 0.031884338706731796, 0.15744799375534058, 0.08915108442306519, -0.27952906489372253, -0.4114614725112915, 0.34160706400871277, -0.12825363874435425, 0.056326139718294144], [0.17739136517047882, -0.13752587139606476, 0.041250936686992645, 0.15520134568214417, -0.03198935464024544, -0.27905887365341187, -0.37271711230278015, 0.3175762891769409, 0.09627470374107361, 0.03359648585319519], [0.1514153778553009, -0.1661517173051834, 0.028289509937167168, 0.1896062195301056, -0.019359925761818886, -0.25295358896255493, -0.3369470238685608, 0.2692905366420746, 0.1341038942337036, 0.0027063535526394844], [0.1415197104215622, -0.24042090773582458, -0.022061605006456375, 0.24394914507865906, -0.12792398035526276, -0.1400643140077591, -0.2341964691877365, 0.22479866445064545, 0.08554945886135101, 0.0688508078455925], [0.08959321677684784, -0.22740769386291504, -0.04148294776678085, 0.1270836591720581, -0.10599001497030258, -0.04287782311439514, -0.16767364740371704, 0.20750631392002106, 0.12088999897241592, 0.04035874456167221], [0.19503143429756165, -0.196110337972641, -0.039817146956920624, -0.01656336896121502, -0.0962580069899559, 0.04220619797706604, -0.13744062185287476, 0.09003601968288422, 0.18898533284664154, -0.030069589614868164], [0.3037179112434387, -0.15649737417697906, -0.07853788882493973, -0.0905592143535614, -0.18172059953212738, 0.2679799199104309, -0.09182693064212799, -0.06580037623643875, 0.17613530158996582, -0.08289100974798203], [0.12813203036785126, -0.10323916375637054, -0.09239397197961807, -0.07327279448509216, -0.15033377707004547, 0.5249910950660706, -0.11307104676961899, -0.06746449321508408, 0.06456765532493591, -0.11791583150625229], [-0.07461623102426529, -0.03796284273266792, -0.03151741996407509, -0.016235891729593277, -0.09687529504299164, 0.4525284469127655, -0.1047840565443039, -0.02498007006943226, -0.003851109417155385, -0.0617053359746933], [-0.026174260303378105, -0.009094086475670338, 0.0005307517712935805, -0.002135935705155134, -0.027609270066022873, 0.11488404124975204, -0.03487122431397438, -0.0034094122238457203, 0.00621330551803112, -0.018333900719881058], [-0.00047485195682384074, -2.459076131344773e-05, -0.0002635705750435591, -6.0883554397150874e-05, -0.0004645726003218442, 0.004559082444757223, -0.005492781288921833, 0.0011883290717378259, 0.003752535441890359, -0.0027186977677047253], [-3.389724952285178e-05, -2.715461050684098e-06, -9.995894288294949e-06, -8.475934009766206e-05, -5.947034151176922e-05, -5.451831020764075e-05, -5.051454536442179e-06, 0.0007593238260596991, -3.0470235287793912e-05, -0.0004784456396009773], [0.0010965627152472734, 0.0001633017382118851, -0.00021772981563117355, -0.0012627642136067152, -0.004824177827686071, -0.002193618565797806, -5.796838740934618e-05, 0.020429817959666252, -0.0006202785298228264, -0.012513142079114914], [-0.0030674487352371216, -0.0003063766343984753, -0.001574528170749545, 0.00195686356164515, -0.030892610549926758, -0.005871776025742292, -0.0011851773597300053, 0.09792071580886841, -0.006180517841130495, -0.05079915374517441], [-0.017029838636517525, -0.0034593308810144663, -0.011091242544353008, 0.03608915954828262, -0.03813889995217323, -0.029905956238508224, -0.019076969474554062, 0.16336123645305634, -0.014705097302794456, -0.0660429522395134], [-0.07552952319383621, -0.005535674747079611, -0.056917231529951096, 0.008818443864583969, -0.053958795964717865, -0.026045972481369972, -0.0347796231508255, 0.228712260723114, 0.037856604903936386, -0.02262061834335327], [-0.06274333596229553, -0.03544407710433006, -0.09891408681869507, -0.11621753871440887, -0.050096917897462845, 0.003586499486118555, -0.02858647145330906, 0.1370035707950592, 0.11906301230192184, 0.13234971463680267], [-0.016467567533254623, -0.08606743812561035, -0.21994709968566895, -0.23179186880588531, -0.022913619875907898, 0.11917690187692642, 0.011438162066042423, 0.047268327325582504, 0.19696718454360962, 0.20233672857284546], [0.004535745829343796, -0.11419074237346649, -0.3338901102542877, -0.35651105642318726, 0.0059404075145721436, 0.15228813886642456, 0.09290969371795654, 0.06948402523994446, 0.3074570596218109, 0.17197681963443756], [0.017728282138705254, -0.13738398253917694, -0.34930628538131714, -0.3958485722541809, 0.11261355131864548, 0.1620693951845169, 0.043906714767217636, 0.009220890700817108, 0.2905195653438568, 0.24648040533065796], [-0.031796857714653015, -0.18806709349155426, -0.3444134593009949, -0.36451295018196106, 0.20733365416526794, 0.1567082554101944, 0.03351276367902756, 0.10017058253288269, 0.27469682693481445, 0.15636761486530304], [-0.055764082819223404, -0.1832268387079239, -0.44035232067108154, -0.2991478443145752, 0.2545637786388397, 0.17451582849025726, 0.05008324608206749, 0.08896685391664505, 0.16179844737052917, 0.24856239557266235], [-0.03996550291776657, -0.17054319381713867, -0.49138519167900085, -0.19726411998271942, 0.2522123157978058, 0.21997509896755219, 0.014487357810139656, 0.04986701160669327, 0.15361854434013367, 0.20899778604507446], [-0.03711147978901863, -0.06843244284391403, -0.5702382326126099, -0.09465212374925613, 0.2528035044670105, 0.29186055064201355, 0.08868620544672012, -0.042567748576402664, 0.2019762545824051, -0.022324468940496445], [-0.0482867993414402, 0.200311541557312, -0.5464020371437073, 0.11324703693389893, -0.2893120050430298, 0.33814936876296997, 0.07387438416481018, 0.03218434751033783, 0.23031871020793915, -0.1040843054652214], [-0.24032112956047058, 0.5599780678749084, -0.41227585077285767, 0.17265397310256958, -0.45805442333221436, 0.13119488954544067, -0.18498168885707855, 0.18710078299045563, 0.2450665384531021, -0.00036158348666504025], [-0.39521676301956177, 0.5635751485824585, -0.3012973964214325, 0.18645477294921875, -0.008240245282649994, -0.07987479865550995, -0.37603598833084106, 0.34897005558013916, -0.0374535396695137, 0.09911907464265823], [-0.36473000049591064, 0.19483806192874908, -0.1461104154586792, 0.1142805889248848, 0.26730141043663025, -0.16486653685569763, -0.2922660708427429, 0.3898252546787262, -0.16364163160324097, 0.16536907851696014], [-0.12844373285770416, -0.03514625504612923, -0.16564659774303436, 0.16617822647094727, 0.12876206636428833, -0.21832256019115448, -0.2539578974246979, 0.32370802760124207, -0.07689915597438812, 0.2597670257091522], [-0.019079167395830154, -0.08865118771791458, -0.060656942427158356, 0.13502958416938782, -0.0214642696082592, -0.2619059681892395, -0.2016221135854721, 0.3231835961341858, 0.00885218195617199, 0.1863139271736145], [0.08540627360343933, -0.16699381172657013, 0.0559053048491478, 0.15645650029182434, -0.06594518572092056, -0.35381001234054565, -0.17472976446151733, 0.18368478119373322, 0.05648374930024147, 0.22354190051555634], [0.1316060572862625, -0.16992686688899994, -0.018519021570682526, 0.15412689745426178, -0.1400405317544937, -0.4315948188304901, -0.11299726366996765, 0.19450771808624268, 0.058113981038331985, 0.3347233533859253], [0.15767547488212585, -0.13459284603595734, -0.014208371751010418, -0.04955315217375755, -0.11754587292671204, -0.38769882917404175, -0.01197813544422388, 0.1723233163356781, 0.1506371796131134, 0.2349410057067871], [0.2532201409339905, -0.09911750257015228, -0.06830309331417084, -0.10346665978431702, -0.13950206339359283, -0.3524206876754761, 0.06118898466229439, 0.07529642432928085, 0.2410949170589447, 0.13200907409191132], [0.31924399733543396, -0.07369790226221085, -0.08762797713279724, -0.09815988689661026, -0.1695435643196106, -0.14196667075157166, 0.11097400635480881, -0.05756029859185219, 0.2240832895040512, -0.025745220482349396], [0.1821347177028656, -0.050672292709350586, -0.0513455793261528, -0.054048702120780945, -0.12892043590545654, 0.08610450476408005, -0.003290716325864196, -0.05715445429086685, 0.15919636189937592, -0.08200321346521378], [-0.03759032487869263, -0.02412625029683113, 0.0033276681788265705, -0.007051839958876371, -0.059623878449201584, 0.2101675271987915, -0.06549784541130066, -0.02277664840221405, 0.04747183248400688, -0.04430026933550835], [-0.017033956944942474, -0.006367681547999382, 0.0032568073365837336, -0.0012687843991443515, -0.01051684096455574, 0.06273242831230164, -0.034184813499450684, -0.006604320369660854, 0.02355608344078064, -0.013568948954343796], [-0.000339681952027604, 0.0005562300211749971, -7.10857639205642e-05, -1.5247244846250396e-05, -0.0003661771770566702, 0.0030975225381553173, -0.003017106093466282, -0.0003869482025038451, 0.002082276390865445, -0.0015397833194583654], [-1.0171364692723728e-06, -2.5162929517819066e-08, -1.9041018504140084e-06, -1.1772042853408493e-05, -1.693019839876797e-06, -3.2140605981112458e-06, -1.595280352262307e-08, 0.0006050246302038431, -1.0851658771571238e-05, -0.0005745311500504613], [-5.4639345762552693e-05, -3.635898610809818e-05, -1.3162173672753852e-05, -0.001525035360828042, -0.008110858500003815, -0.002587331924587488, -0.00012174559378763661, 0.02294059470295906, -0.0005063725402578712, -0.009985086508095264], [-0.00327257695607841, -0.000540534092579037, -0.000678619253449142, -0.00535955186933279, -0.02967383898794651, -0.004925694782286882, -0.0011366426479071379, 0.09224211424589157, -0.0038537371437996626, -0.042800866067409515], [-0.01969761960208416, -2.9383692890405655e-05, -0.030581045895814896, -0.0059425742365419865, -0.051157016307115555, -0.007988394238054752, -0.015980739146471024, 0.17148268222808838, -0.0019459991017356515, -0.038159869611263275], [-0.07376720011234283, 6.444096925406484e-06, -0.08833900094032288, -0.038219112902879715, -0.06908980011940002, 0.010394352488219738, -0.045028720051050186, 0.21424780786037445, 0.007217427249997854, 0.08257769793272018], [-0.026313653215765953, -0.02558347024023533, -0.25292351841926575, -0.13850177824497223, -0.030928893014788628, 0.054550204426050186, -0.007847149856388569, 0.13596601784229279, 0.0857539251446724, 0.20582839846611023], [0.07166828215122223, -0.05119416117668152, -0.46118423342704773, -0.2503153681755066, 0.07038432359695435, 0.15166425704956055, 0.09415481984615326, 0.022713204845786095, 0.11821824312210083, 0.23389092087745667], [0.0544736422598362, -0.0747089833021164, -0.5412320494651794, -0.3185241222381592, 0.17796969413757324, 0.13257476687431335, 0.13680927455425262, 0.10343417525291443, 0.16029080748558044, 0.1689120978116989], [0.03264421224594116, -0.11452244967222214, -0.4322834610939026, -0.30462706089019775, 0.2697985768318176, 0.08097130805253983, 0.07681074738502502, 0.12795202434062958, 0.11032816022634506, 0.15292800962924957], [0.003624096978455782, -0.1652398407459259, -0.43525785207748413, -0.1663057655096054, 0.25157323479652405, 0.009085822850465775, 0.09937356412410736, 0.026681475341320038, 0.14985503256320953, 0.22661049664020538], [0.014213569462299347, -0.26457464694976807, -0.5012320876121521, -0.04549853503704071, 0.3924160599708557, 0.16985054314136505, 0.07623413950204849, -0.052878767251968384, 0.010977262631058693, 0.20049312710762024], [0.02889539673924446, -0.31277555227279663, -0.5077544450759888, -0.07691777497529984, 0.5000895261764526, 0.2718849778175354, 0.1767944097518921, -0.17662331461906433, 0.031915854662656784, 0.0644899308681488], [0.05264949053525925, -0.11025269329547882, -0.5229235887527466, 0.002041581552475691, 0.41264447569847107, 0.3063199520111084, 0.18859004974365234, -0.3896176517009735, 0.21017488837242126, -0.1496262103319168], [-0.10154314339160919, 0.20248901844024658, -0.4517502188682556, 0.11377256363630295, -0.10641402751207352, 0.26841649413108826, 0.08601833134889603, -0.4382239580154419, 0.40112411975860596, 0.026109475642442703], [-0.4078431725502014, 0.6824267506599426, -0.4064623713493347, 0.27019134163856506, -0.2748735249042511, 0.012219574302434921, -0.17784960567951202, -0.1756988912820816, 0.25660964846611023, 0.22128045558929443], [-0.5482751727104187, 0.507105827331543, -0.3708176612854004, 0.18152882158756256, 0.12981344759464264, -0.14171776175498962, -0.2089008092880249, 0.1334725320339203, 0.05964474380016327, 0.25814640522003174], [-0.5081969499588013, 0.12419483065605164, -0.24565006792545319, 0.08781328052282333, 0.32785043120384216, -0.2787693738937378, -0.08230388909578323, 0.3002149760723114, 0.0016675270162522793, 0.27317896485328674], [-0.24332484602928162, -0.00011784140951931477, -0.21968510746955872, 0.0652405321598053, 0.14729005098342896, -0.2718092203140259, -0.09770482033491135, 0.29107600450515747, 0.024436447769403458, 0.30459901690483093], [-0.0727168545126915, -0.0935216173529625, -0.09671150892972946, 0.09251163899898529, 0.02529512345790863, -0.23580637574195862, -0.1293325275182724, 0.22029085457324982, -0.005251497030258179, 0.2952423095703125], [0.009172346442937851, -0.15253625810146332, 0.043848808854818344, -0.008787553757429123, 0.003686336101964116, -0.26627662777900696, -0.1466633379459381, 0.05387889966368675, 0.07484827935695648, 0.38882917165756226], [0.03190630301833153, -0.11499737203121185, -0.01719675026834011, -0.09731047600507736, -0.007605124264955521, -0.3754735291004181, -0.040353722870349884, 0.08222981542348862, 0.15713152289390564, 0.3816693127155304], [0.14098525047302246, -0.0740605816245079, -0.02782312035560608, -0.2253999412059784, -0.0015135034918785095, -0.49906590580940247, 0.09916377812623978, 0.04436135292053223, 0.24099822342395782, 0.3023543655872345], [0.29325956106185913, -0.05575348436832428, -0.1044565811753273, -0.1795617789030075, -0.049238938838243484, -0.5302747488021851, 0.22300292551517487, 0.01318366825580597, 0.22695213556289673, 0.1628863662481308], [0.3499910533428192, -0.034461859613657, -0.16250112652778625, -0.10414595901966095, -0.10456398874521255, -0.42479175329208374, 0.2830917239189148, -0.03797344118356705, 0.20161238312721252, 0.033742550760507584], [0.22927983105182648, -0.02429577335715294, -0.004918259102851152, -0.04116523265838623, -0.05431302636861801, -0.25423821806907654, 0.12385907769203186, -0.03840409591794014, 0.13348908722400665, -0.06929371505975723], [-0.0025488552637398243, -0.010595287196338177, 0.05463939532637596, -0.0006581018678843975, -0.018807154148817062, 0.0047006928361952305, -0.03036714531481266, -0.00019066446111537516, 0.035858672112226486, -0.03203154355287552], [-0.008423681370913982, -0.00408824160695076, 0.02803320251405239, -0.0002593480749055743, -0.007588725071400404, 0.023854056373238564, -0.02876943349838257, 0.0037182096857577562, 0.003284493461251259, -0.009760516695678234], [-5.707088712370023e-05, 0.0003143854555673897, 0.0031532207503914833, -2.010897696891334e-05, -0.001656398526392877, -0.0006176763563416898, -0.002071016002446413, 0.0025318078696727753, -0.0010174070484936237, -0.000559736683499068], [-6.304885502572688e-09, 2.1057279809610918e-05, -2.6515479021327337e-06, -5.9604526541079395e-06, -1.1162617852278345e-07, -8.725263000997074e-07, -9.301930390392954e-07, -2.5913418539857958e-06, -3.067923671551398e-06, -4.865268238063436e-06], [0.0002987152256537229, -8.173517016984988e-06, -1.3979138202557806e-05, -0.0008993358351290226, -0.004912375006824732, -0.000542181427590549, -0.00017813312297221273, 0.009776345454156399, -0.0001285023899981752, -0.0033923801966011524], [-0.0013810902601107955, -0.00023774827423039824, -0.00034559372579678893, -0.003450932214036584, -0.017342809587717056, -0.0018246752442792058, -0.00040605300455354154, 0.057269029319286346, -0.00120394432451576, -0.031076183542609215], [-0.013112008571624756, 0.001412697951309383, -0.03378014266490936, -0.006592171732336283, -0.03578333556652069, 0.0012375821825116873, -0.01315802801400423, 0.11937432736158371, -0.0023173047229647636, -0.017281614243984222], [-0.04245881736278534, 0.0007480211206711829, -0.14128126204013824, -0.05452708899974823, -0.011790839955210686, 0.029435524716973305, -0.04640984162688255, 0.12602609395980835, -0.026704091578722, 0.16696247458457947], [0.02863580361008644, -0.02274896949529648, -0.33859968185424805, -0.13481754064559937, 0.08718359470367432, 0.07839150726795197, 0.02099519409239292, 0.061788953840732574, -0.023920873180031776, 0.24309171736240387], [0.15244080126285553, -0.04680894315242767, -0.5178579688072205, -0.22595228254795074, 0.24143476784229279, 0.0835537239909172, 0.15193697810173035, 0.01570957340300083, -0.03246039152145386, 0.17800383269786835], [0.16141517460346222, -0.07337789982557297, -0.4972371757030487, -0.2728598117828369, 0.2962787449359894, 0.13712570071220398, 0.10267570614814758, 0.0296546071767807, -0.05551234632730484, 0.17183758318424225], [0.09616238623857498, -0.09246551245450974, -0.34971868991851807, -0.18766093254089355, 0.30856406688690186, 0.09346821904182434, 0.0948820412158966, -0.011305448599159718, -0.09436055272817612, 0.14243441820144653], [0.060199838131666183, -0.18379563093185425, -0.26934731006622314, -0.0879664272069931, 0.2574915587902069, 0.10104329138994217, 0.12201131135225296, -0.10496235638856888, -0.012937021441757679, 0.1182631105184555], [0.09574288874864578, -0.37821754813194275, -0.20609144866466522, -0.11316221952438354, 0.41690969467163086, 0.22150856256484985, 0.1563280075788498, -0.18052461743354797, -0.09897483140230179, 0.08648078143596649], [0.08671417832374573, -0.4305677115917206, -0.13585905730724335, -0.12897861003875732, 0.5693203806877136, 0.25716719031333923, 0.18296995759010315, -0.4450494647026062, 0.08782975375652313, -0.043545808643102646], [0.025577958673238754, -0.1695970892906189, -0.15202641487121582, 0.04820409044623375, 0.35230833292007446, 0.28531837463378906, 0.1598779857158661, -0.6844955682754517, 0.2622315585613251, -0.12739874422550201], [-0.2847643792629242, 0.2746778428554535, -0.06229640543460846, 0.21261008083820343, -0.05585864558815956, 0.1737973988056183, -0.0019563823007047176, -0.6777868270874023, 0.3433743715286255, 0.07820270210504532], [-0.4898059070110321, 0.6279295682907104, -0.12172599136829376, 0.18806634843349457, -0.07179124653339386, -0.01257156953215599, -0.1190950870513916, -0.32054221630096436, 0.10207632929086685, 0.21745902299880981], [-0.5777733325958252, 0.4162016212940216, -0.2324252873659134, -0.0003637124318629503, 0.1960211992263794, -0.21637354791164398, 0.01322280615568161, -0.0029759781900793314, 0.1709338277578354, 0.23353201150894165], [-0.5021923780441284, 0.09089040756225586, -0.24692995846271515, 0.07822014391422272, 0.27046769857406616, -0.32715150713920593, 0.02225140668451786, 0.14537398517131805, 0.09755343198776245, 0.37151655554771423], [-0.2919490933418274, -0.027510246261954308, -0.1359969973564148, 0.1029408872127533, 0.23965223133563995, -0.21150590479373932, -0.09229867160320282, 0.12740188837051392, -0.016424700617790222, 0.30568990111351013], [-0.14542356133460999, -0.18879035115242004, -0.09587247669696808, 0.08791133016347885, 0.14360691606998444, -0.14105026423931122, -0.11346831172704697, 0.1256212294101715, 0.03688656911253929, 0.29057931900024414], [-0.1048366129398346, -0.17565010488033295, -0.06375578790903091, -0.0794568881392479, 0.12920941412448883, -0.1060977578163147, -0.0360470749437809, 0.05789482966065407, 0.03754777833819389, 0.34119221568107605], [-0.09403934329748154, -0.12164933979511261, -0.06585966795682907, -0.23427686095237732, 0.15265551209449768, -0.1180657371878624, 0.0016923712100833654, 0.08983663469552994, 0.08572351187467575, 0.3039824664592743], [0.10984006524085999, -0.07887423783540726, -0.062114350497722626, -0.2176424115896225, 0.07513444870710373, -0.2753899097442627, 0.16071893274784088, 0.04890243336558342, 0.01710752211511135, 0.22231720387935638], [0.282025009393692, -0.05996457859873772, -0.11923455446958542, -0.20019537210464478, 0.03639577701687813, -0.31982070207595825, 0.29801395535469055, 0.008714498952031136, 0.02311854064464569, 0.05094689503312111], [0.3475472033023834, -0.046723462641239166, -0.1252375990152359, -0.10687069594860077, -0.04129061475396156, -0.35106128454208374, 0.3741954565048218, 0.0017792466096580029, 0.01954832673072815, -0.07188700884580612], [0.20896968245506287, -0.031973615288734436, 0.05567608028650284, -0.04236813634634018, -0.056443654000759125, -0.23271793127059937, 0.18972238898277283, -0.00027731023146770895, 0.013111203908920288, -0.10369845479726791], [0.01236528716981411, -0.01358301006257534, 0.116172194480896, -0.004379970952868462, -0.008122911676764488, -0.03838732838630676, -0.03085986152291298, 0.007364955265074968, 0.0013197299558669329, -0.04188906028866768], [-0.0023542148992419243, -0.0056880465708673, 0.07083197683095932, -0.0004931603325530887, -0.007801145780831575, -0.0018652440048754215, -0.036374595016241074, -0.001112696249037981, -0.004296404309570789, -0.01084647886455059], [-0.0004062865918967873, -0.00018011695647146553, 0.019500721246004105, -0.0005922818672843277, -0.00433150352910161, -0.005012151785194874, -0.006377197336405516, -0.0008473346824757755, -0.0012026665499433875, -0.0005511822528205812], [-1.757310747052543e-05, -3.4334524912083e-07, -3.5316290905029746e-06, -0.00018430860654916614, -6.786508038203465e-06, 0.0006050930242054164, -2.457431037328206e-05, -6.695523552480154e-06, -3.648143683676608e-05, -0.0003247985150665045], [-4.365911809145473e-05, -3.973613274865784e-06, -0.002442179946228862, 0.0027123710606247187, -0.0020793918520212173, -0.00028327672043815255, -1.0725980246206746e-05, 0.0035981032997369766, -0.00039259361801669, -0.0010546735720708966], [-0.0004534562467597425, 0.0001695542159723118, -0.0017619513673707843, 0.0006502961623482406, -0.0064109149388968945, -0.0007027493556961417, -3.6336961784400046e-05, 0.027169516310095787, -0.0005595855764113367, -0.018064364790916443], [-0.018075602129101753, 0.002967381151393056, -0.0273570716381073, 0.0020376110915094614, -0.004574155900627375, 0.0006501979660242796, -0.0070029087364673615, 0.054368436336517334, -0.006304471287876368, 0.0032906020060181618], [-0.031749989837408066, 0.0006043986650183797, -0.10769946128129959, -0.020819876343011856, 0.0980919674038887, 0.00811670906841755, -0.06800223141908646, 0.040306080132722855, -0.046740759164094925, 0.1278933584690094], [0.10858965665102005, -0.02826056256890297, -0.2803005874156952, -0.1071452796459198, 0.22003896534442902, -0.00590052455663681, 0.007323049940168858, 0.0408145897090435, -0.08981804549694061, 0.13465899229049683], [0.16912142932415009, -0.05384701490402222, -0.3040880858898163, -0.21434703469276428, 0.2898116707801819, -0.006367526017129421, 0.13007095456123352, -0.0219581201672554, -0.15419770777225494, 0.165801540017128], [0.2247805893421173, -0.0861336812376976, -0.1867014616727829, -0.2457929402589798, 0.3502807021141052, 0.007329275831580162, 0.10222090780735016, -0.04538974538445473, -0.24251767992973328, 0.12192318588495255], [0.1587969958782196, -0.10415904968976974, -0.0903700664639473, -0.18521299958229065, 0.31174927949905396, 0.07635986804962158, 0.12647505104541779, -0.11989222466945648, -0.24154481291770935, 0.06779754161834717], [0.15056943893432617, -0.22143685817718506, -0.024228576570749283, -0.14696241915225983, 0.2391686588525772, 0.1879640519618988, 0.15959620475769043, -0.20390185713768005, -0.1823205053806305, 0.0415511280298233], [0.14227238297462463, -0.41183143854141235, 0.014708184637129307, -0.19295696914196014, 0.30641523003578186, 0.2514359951019287, 0.23106180131435394, -0.3210708200931549, -0.04314088448882103, 0.023106537759304047], [0.12960213422775269, -0.41127991676330566, 0.08329078555107117, -0.1500764787197113, 0.3518141806125641, 0.1295853853225708, 0.31469568610191345, -0.5403494834899902, 0.15051616728305817, -0.057799842208623886], [-0.038143791258335114, -0.08904825150966644, 0.07605472207069397, 0.08230418711900711, 0.20826919376850128, 0.14641229808330536, 0.1609947234392166, -0.6809071898460388, 0.22470618784427643, -0.09064183384180069], [-0.33582913875579834, 0.33152925968170166, 0.16633619368076324, 0.11875671148300171, -0.05111578479409218, 0.06724650412797928, -0.030868180096149445, -0.5815903544425964, 0.3086782991886139, 0.006855334620922804], [-0.5203104615211487, 0.5340399146080017, 0.05440225452184677, 0.10488885641098022, -0.04193282127380371, -0.052094221115112305, -0.03829852491617203, -0.26792287826538086, 0.2059044986963272, 0.02132297307252884], [-0.5471954941749573, 0.3498475253582001, -0.1138700619339943, 0.013713670894503593, 0.1379384994506836, -0.16448839008808136, 0.060085900127887726, -0.05664800852537155, 0.15788063406944275, 0.16273558139801025], [-0.492892861366272, 0.04858008772134781, -0.10282345861196518, 0.0019135086331516504, 0.35775426030158997, -0.23600947856903076, 0.05786522477865219, 0.04126553237438202, 0.002435289090499282, 0.32191190123558044], [-0.24771156907081604, -0.22762636840343475, -0.12322621047496796, 0.06012757867574692, 0.3877409100532532, -0.2086499035358429, -0.1326429694890976, 0.19163069128990173, 0.029860634356737137, 0.2704973518848419], [-0.1343834102153778, -0.30328378081321716, -0.06272100657224655, 0.04532398656010628, 0.22687670588493347, -0.11873474717140198, -0.10778970271348953, 0.3101990520954132, -0.034671176224946976, 0.17918451130390167], [-0.10222789645195007, -0.23145635426044464, -0.07809046655893326, -0.03243536502122879, 0.25737684965133667, -0.1357639580965042, -0.032362084835767746, 0.31942039728164673, -0.09422926604747772, 0.12976838648319244], [-0.017476262524724007, -0.15282949805259705, -0.038946542888879776, -0.1119413897395134, 0.16169698536396027, -0.046766214072704315, 0.039307232946157455, 0.20563217997550964, -0.16435548663139343, 0.1256788820028305], [0.12537048757076263, -0.09756624698638916, -0.07943922281265259, -0.05225440114736557, 0.05444549769163132, -0.11326061189174652, 0.14024655520915985, 0.1691572666168213, -0.17145602405071259, 0.024756338447332382], [0.23769566416740417, -0.06671763211488724, -0.11238213628530502, -0.11320280283689499, 0.027303922921419144, -0.12077585607767105, 0.2706749439239502, 0.15497572720050812, -0.1783650517463684, -0.09920723736286163], [0.30318430066108704, -0.04507861286401749, -0.0479842871427536, -0.07922311872243881, -0.030068306252360344, -0.16800686717033386, 0.30273622274398804, 0.08621454983949661, -0.15499477088451385, -0.1667795032262802], [0.19631624221801758, -0.02085956186056137, 0.07264497876167297, -0.039743874222040176, -0.06171330437064171, -0.1311820149421692, 0.1608624905347824, 0.024248097091913223, -0.0760912150144577, -0.1244819238781929], [0.002883818233385682, -0.009288592264056206, 0.14143235981464386, -0.010344324633479118, -0.027465136721730232, -0.04602848365902901, -0.016787072643637657, 0.00680356752127409, -0.008519942872226238, -0.032686199992895126], [-0.0016681109555065632, -0.0022165835835039616, 0.08077658712863922, -0.0029401620849967003, -0.015920624136924744, -0.005817465018481016, -0.04236447438597679, -0.0012694115284830332, -0.004500591661781073, -0.0040791453793644905], [-3.367186582181603e-05, -1.1010826710844412e-05, 0.0021897985134273767, -0.00045374728506430984, -0.0004694813978858292, -0.00021708931308239698, -0.0007826868677511811, -1.0609351193124894e-05, -0.0001958074572030455, -1.569431333336979e-05], [-7.22005916031776e-06, -1.7798755891362816e-07, -1.1893533837792347e-06, -6.165663944557309e-05, -7.4895306170219555e-06, 0.00017911849135998636, -8.437405995209701e-06, 3.3781361707951874e-05, -1.4464508240052965e-05, -0.0001122643516282551], [-4.827178781852126e-05, -6.555491381732281e-06, -0.005278380587697029, 0.006601013243198395, -2.655716525623575e-05, -0.0003369944170117378, -6.642492280661827e-06, -5.2349358156789094e-05, -0.0008252103580161929, -2.005169699259568e-05], [-0.0007772977114655077, 0.0011335047893226147, -0.002869409043341875, 0.008038791827857494, 0.001917052548378706, -0.0016618522349745035, -0.0001342242321697995, 0.00755698885768652, -0.0010785794584080577, -0.01212497428059578], [-0.02550590969622135, 0.0011526835151016712, 0.009033149108290672, 0.012698049657046795, 0.015992077067494392, -0.007799892220646143, -0.02097737044095993, 0.024945689365267754, -0.008618641644716263, -0.0009198061306960881], [0.002540599787607789, -0.0057750302366912365, 0.01028315257281065, 0.01925298571586609, 0.08128675818443298, -0.024871375411748886, -0.10293633490800858, 0.006650489289313555, -0.0508233867585659, 0.06439229846000671], [0.1631689965724945, -0.04519343003630638, -0.01704973727464676, -0.03127242624759674, 0.17905087769031525, -0.10200578719377518, -0.02814660221338272, -0.040725983679294586, -0.13577784597873688, 0.05795152857899666], [0.14746105670928955, -0.08245934545993805, -0.003120880341157317, -0.12539833784103394, 0.24007642269134521, -0.12032335996627808, 0.12375245988368988, -0.03372886776924133, -0.20862238109111786, 0.06236308813095093], [0.21218173205852509, -0.10460329800844193, 0.009509444236755371, -0.2179606705904007, 0.31545910239219666, -0.13099564611911774, 0.16183771193027496, -0.08891868591308594, -0.2223922163248062, 0.06588274985551834], [0.1921808272600174, -0.13692420721054077, 0.01393059454858303, -0.23944494128227234, 0.3270130753517151, -0.05305013433098793, 0.16705657541751862, -0.21064415574073792, -0.15276126563549042, 0.0926438644528389], [0.21460360288619995, -0.24465467035770416, 0.04556089639663696, -0.22849276661872864, 0.2703275680541992, 0.09974188357591629, 0.16856960952281952, -0.24743658304214478, -0.06800512969493866, -0.010215528309345245], [0.2355482578277588, -0.32493874430656433, 0.047043003141880035, -0.18041126430034637, 0.18238209187984467, 0.10500606149435043, 0.3080122768878937, -0.3258393704891205, -0.05055724084377289, 0.003755045123398304], [0.05912991985678673, -0.21131810545921326, 0.024893777444958687, -0.07166306674480438, 0.20633673667907715, 0.08388606458902359, 0.35385239124298096, -0.46754249930381775, 0.00812543835490942, 0.014299329370260239], [-0.19255191087722778, 0.021398654207587242, 0.0923018530011177, 0.09515858441591263, 0.09771377593278885, 0.08275564759969711, 0.15393580496311188, -0.5264678597450256, 0.2070273905992508, -0.03127188980579376], [-0.4765523672103882, 0.36130574345588684, 0.19039969146251678, 0.1637028455734253, -0.06571926176548004, -0.06813994795084, 0.04106757789850235, -0.3707694113254547, 0.3351690471172333, -0.11046497523784637], [-0.5883170962333679, 0.5241317749023438, 0.09650351852178574, 0.10728597640991211, 0.04169491305947304, -0.23452985286712646, 0.12613706290721893, -0.17585155367851257, 0.24508719146251678, -0.14214247465133667], [-0.5660485625267029, 0.19778499007225037, 0.01412049401551485, 0.015119548887014389, 0.260285347700119, -0.21405784785747528, 0.10721427947282791, 0.013154681771993637, 0.05662602186203003, 0.11580073088407516], [-0.4192180931568146, -0.07592775672674179, 0.015190141275525093, -0.06876354664564133, 0.4372922480106354, -0.20321069657802582, 0.0020561181008815765, 0.06219564750790596, -0.030786681920289993, 0.28117236495018005], [-0.20892022550106049, -0.35971423983573914, -0.04871012642979622, -0.03992709517478943, 0.3693775534629822, -0.1448688954114914, -0.08739960938692093, 0.3416560888290405, -0.08901328593492508, 0.26751983165740967], [-0.06408537179231644, -0.32109686732292175, -0.10487107187509537, 0.020119035616517067, 0.1948733925819397, 0.008536215871572495, -0.08087053894996643, 0.4014453887939453, -0.1377146691083908, 0.08366554975509644], [-0.023752866312861443, -0.2444610595703125, -0.06668820977210999, 0.08389714360237122, 0.1697520762681961, -0.04957010596990585, 0.013816799968481064, 0.32028016448020935, -0.21043719351291656, 0.007163046393543482], [0.06910578906536102, -0.17089435458183289, -0.11729719489812851, 0.1519014537334442, 0.04603784531354904, -0.07159467041492462, 0.08753082901239395, 0.2850600481033325, -0.26511138677597046, -0.014738586731255054], [0.11011594533920288, -0.11395092308521271, -0.09089972823858261, 0.11443401128053665, -0.00974970031529665, -0.04316851496696472, 0.1296061873435974, 0.26932573318481445, -0.24322959780693054, -0.12248434126377106], [0.20786643028259277, -0.08096292614936829, -0.11704838275909424, 0.0781521424651146, 0.004586257040500641, -0.04909427464008331, 0.14099322259426117, 0.20143139362335205, -0.1893138587474823, -0.1966102570295334], [0.24964933097362518, -0.053871821612119675, -0.021676668897271156, 0.029562151059508324, -0.044596463441848755, -0.04735193029046059, 0.18001589179039001, 0.06569015234708786, -0.17165975272655487, -0.18576087057590485], [0.14355972409248352, -0.030482852831482887, 0.16569769382476807, -0.008762613870203495, -0.10279480367898941, -0.04959573224186897, 0.10932762920856476, 0.0004365814966149628, -0.10659754276275635, -0.12078791856765747], [-0.005842311307787895, -0.011142396368086338, 0.2045062929391861, -0.016995258629322052, -0.05298297852277756, -0.03094484843313694, -0.018569039180874825, -0.011096597649157047, -0.022540757432579994, -0.03439207747578621], [-0.002678982215002179, -0.004466555081307888, 0.09097255021333694, -0.004003600217401981, -0.004565002396702766, -0.009464194998145103, -0.04728350043296814, -0.0013452105922624469, -0.009082648903131485, -0.008082853630185127], [-0.0004268630873411894, -0.0005509905749931931, 0.01008641067892313, -0.0002934197837021202, -0.000612176489084959, -0.0023468632716685534, -0.0035230962093919516, -0.0002116205432685092, -0.0012361560948193073, -0.0008852260652929544], [-8.3773338701576e-06, -3.7465582636286854e-07, -1.8845285865154437e-07, -7.473187906725798e-06, -3.009942884091288e-05, -0.00010862461203942075, -2.234004341516993e-06, 0.00020556399249471724, -1.4395769539987668e-05, -3.379656845936552e-05], [-6.315926293609664e-05, -2.332306030439213e-05, -0.0028158831410109997, 0.004842419642955065, -1.7767522876965813e-05, -0.00022036462905816734, -3.2505828130524606e-05, -0.000618245976511389, -0.0004761141608469188, -0.0005750562995672226], [-0.0023931257892400026, 0.0007408354431390762, -0.002601583255454898, 0.026559660211205482, -0.003931820392608643, -0.0046179648488759995, -0.0012665713438764215, -0.0004294641548767686, -0.002879692940041423, -0.009180271998047829], [-0.02932555601000786, -0.0017880902159959078, 0.05324779450893402, 0.0523231104016304, -0.017392344772815704, 0.0007380484603345394, -0.03757460042834282, 0.001525389263406396, -0.010166809894144535, -0.011586904525756836], [0.02731301635503769, -0.011098982766270638, 0.11693895608186722, 0.08734983205795288, -0.014720275066792965, -0.029164182022213936, -0.12357798963785172, -0.0016474296571686864, -0.07235551625490189, 0.020962601527571678], [0.2040947675704956, -0.06423595547676086, 0.13650739192962646, 0.025752728804945946, 0.0620076060295105, -0.09558779001235962, -0.05544665828347206, -0.052315179258584976, -0.15926125645637512, -0.0015158383175730705], [0.20695996284484863, -0.134530171751976, 0.1731882393360138, -0.09396076202392578, 0.15521393716335297, -0.15286368131637573, 0.11042162030935287, -0.03937681019306183, -0.17212168872356415, -0.052931543439626694], [0.16642071306705475, -0.16986411809921265, 0.09124282002449036, -0.18212249875068665, 0.2747226357460022, -0.26269859075546265, 0.21495434641838074, -0.044531650841236115, -0.07550746202468872, -0.01261686347424984], [0.21539822220802307, -0.20379573106765747, 0.024396488443017006, -0.2681276500225067, 0.3249411880970001, -0.29335010051727295, 0.20432178676128387, -0.16307076811790466, 0.06263232976198196, 0.09665483981370926], [0.23772229254245758, -0.1923559606075287, 0.11404788494110107, -0.21779084205627441, 0.21687638759613037, -0.23803341388702393, 0.22779907286167145, -0.21654345095157623, 0.0707121267914772, -0.0024342392571270466], [0.2267696112394333, -0.14466868340969086, 0.13503731787204742, -0.23268312215805054, 0.03768666088581085, -0.13924138247966766, 0.3686320185661316, -0.32189077138900757, 0.02013452723622322, 0.050224125385284424], [0.013895289972424507, -0.0944145992398262, 0.1789611130952835, -0.1178777664899826, 0.016331221908330917, -0.10277117788791656, 0.405434250831604, -0.3996337354183197, 0.039733000099658966, 0.06034224107861519], [-0.30375632643699646, -0.0016606152057647705, 0.24630482494831085, 0.015922294929623604, 0.06289056688547134, -0.06517338752746582, 0.09518322348594666, -0.2768545150756836, 0.27022498846054077, -0.04308169707655907], [-0.5383421778678894, 0.3539373278617859, 0.25465071201324463, 0.0905589833855629, 0.0874573141336441, -0.17772476375102997, 0.06422898173332214, -0.16852781176567078, 0.21700364351272583, -0.18324261903762817], [-0.5706336498260498, 0.5074231624603271, 0.09362508356571198, -0.05201413854956627, 0.284171998500824, -0.2655104994773865, 0.16176392138004303, -0.10085646063089371, 0.05574580281972885, -0.11371549963951111], [-0.4623692035675049, 0.057797107845544815, 0.02032427303493023, -0.17096228897571564, 0.4591970145702362, -0.1883375644683838, 0.09326481819152832, 0.09172064065933228, 0.018024422228336334, 0.08134102821350098], [-0.29566970467567444, -0.20743496716022491, 0.11979540437459946, -0.15710431337356567, 0.4188977777957916, -0.17777684330940247, -0.04088309034705162, 0.13221941888332367, 0.006518873386085033, 0.20143689215183258], [-0.09204412251710892, -0.41523563861846924, 0.09556350111961365, -0.01861776039004326, 0.26640376448631287, -0.08140452206134796, -0.10993444919586182, 0.26513707637786865, -0.08356945216655731, 0.1737012416124344], [-0.009961969219148159, -0.3262402415275574, -0.010496404021978378, 0.15033595263957977, 0.1858345866203308, -0.014702931046485901, 0.021579723805189133, 0.2237827330827713, -0.25695544481277466, 0.03682418167591095], [0.03838449716567993, -0.23218515515327454, -0.04355461522936821, 0.18566572666168213, 0.10209297388792038, 0.03311016783118248, 0.07398762553930283, 0.22463136911392212, -0.285258024930954, -0.09687470644712448], [0.09304336458444595, -0.16294175386428833, -0.05282578244805336, 0.16227707266807556, 0.09148307144641876, 0.03306937590241432, 0.04277282953262329, 0.18533585965633392, -0.25088751316070557, -0.14132696390151978], [0.12976287305355072, -0.10799508541822433, 0.06242812052369118, 0.16698621213436127, 0.03300679475069046, -0.018131714314222336, 0.029578479006886482, 0.16328392922878265, -0.23710240423679352, -0.22181737422943115], [0.1751486212015152, -0.08353947103023529, 0.06046818569302559, 0.17215606570243835, -0.06252492964267731, 0.02217523753643036, 0.04100107029080391, 0.06228635832667351, -0.19146081805229187, -0.19571051001548767], [0.15439268946647644, -0.06443712115287781, 0.12567777931690216, 0.10921291261911392, -0.09741350263357162, 0.03200749680399895, 0.07444822788238525, -0.004901300650089979, -0.11911534518003464, -0.2098725289106369], [0.05325158312916756, -0.04476392641663551, 0.250619113445282, 0.024321934208273888, -0.0911606103181839, -0.004293619189411402, 0.05508341267704964, -0.014664148911833763, -0.10293707996606827, -0.12545658648014069], [-0.01942363753914833, -0.0255802683532238, 0.3047998249530792, -0.02534584142267704, -0.056607551872730255, -0.028369702398777008, -0.049429357051849365, -0.01603012904524803, -0.048709090799093246, -0.03530440852046013], [-0.008324400521814823, -0.010053624399006367, 0.12731865048408508, -0.004512657877057791, -0.023154757916927338, -0.012404361739754677, -0.045259106904268265, -0.001807167544029653, -0.013508953154087067, -0.008293600752949715], [-0.000503407558426261, -0.0001961935340659693, 0.014039109461009502, -0.0002813453320413828, -0.0008925826987251639, -0.00428919680416584, -0.00727408891543746, -9.251634764950722e-05, -0.000398394709918648, -0.00011138442641822621], [0.0, 0.0, 0.0, 0.0, 0.0, 0.0, 0.0, 0.0, 0.0, 0.0], [-8.442381658824161e-05, 0.00012367112503852695, -0.0010378381703048944, 0.0019491914426907897, -1.3909795598010533e-05, -0.00029624224407598376, -2.7425385269452818e-05, -6.829063931945711e-05, -0.00045477127423509955, -8.996162796393037e-05], [-0.003838710021227598, -0.00036002599517814815, 0.003311697393655777, 0.033457737416028976, -0.004268081393092871, -0.007345201447606087, -0.0024617027956992388, -0.0013459644978865981, -0.003684091614559293, -0.013465655036270618], [-0.03488818556070328, -0.004315883852541447, 0.08394242078065872, 0.11367905884981155, -0.0586492121219635, 0.008821253664791584, -0.04632945731282234, -0.005178786348551512, -0.0224155243486166, -0.03466557711362839], [0.024067770689725876, -0.020735841244459152, 0.2000749558210373, 0.14947055280208588, -0.05214019492268562, 0.013896136544644833, -0.14916536211967468, -0.004966080188751221, -0.09327904880046844, -0.06722292304039001], [0.18941348791122437, -0.10658681392669678, 0.24873675405979156, 0.045792073011398315, -0.030971091240644455, 0.061360206454992294, -0.10922902822494507, -0.05006147548556328, -0.15337930619716644, -0.09507469832897186], [0.21563391387462616, -0.20282651484012604, 0.19485192000865936, -0.07304077595472336, 0.04052337259054184, 