[[0.0, 0.0, 0.0, 0.0, 0.0, 0.0, 0.0, 0.0, 0.0, 0.0], [0.0, 0.0, 0.0, 0.0, 0.0, 0.0, 0.0, 0.0, 0.0, 0.0], [0.0, 0.0, 0.0, 0.0, 0.0, 0.0, 0.0, 0.0, 0.0, 0.0], [0.0, 0.0, 0.0, 0.0, 0.0, 0.0, 0.0, 0.0, 0.0, 0.0], [0.0, 0.0, 0.0, 0.0, 0.0, 0.0, 0.0, 0.0, 0.0, 0.0], [0.0, 0.0, 0.0, 0.0, 0.0, 0.0, 0.0, 0.0, 0.0, 0.0], [0.0, 0.0, 0.0, 0.0, 0.0, 0.0, 0.0, 0.0, 0.0, 0.0], [0.0, 0.0, 0.0, 0.0, 0.0, 0.0, 0.0, 0.0, 0.0, 0.0], [0.0, 0.0, 0.0, 0.0, 0.0, 0.0, 0.0, 0.0, 0.0, 0.0], [0.0, 0.0, 0.0, 0.0, 0.0, 0.0, 0.0, 0.0, 0.0, 0.0], [0.0, 0.0, 0.0, 0.0, 0.0, 0.0, 0.0, 0.0, 0.0, 0.0], [0.0, 0.0, 0.0, 0.0, 0.0, 0.0, 0.0, 0.0, 0.0, 0.0], [-6.305897386482684e-06, -8.662779691803735e-06, -0.0002524714218452573, -3.638294947450049e-05, -0.0019845287315547466, -4.9974070861935616e-05, 0.002713417634367943, -9.962708645616658e-06, -7.694603846175596e-05, -0.0002881829859688878], [-3.095699139521457e-05, -2.6415082174935378e-05, -0.00015958494623191655, -9.306860010838136e-05, -0.004503374919295311, -0.0001134156555053778, 0.005829319357872009, -3.5527293221093714e-05, -0.00018911024380940944, -0.0006778655806556344], [-1.9083834558841772e-05, -8.286620868602768e-06, 0.0004376013530418277, -1.4914407984178979e-05, -0.00017575861420482397, -4.4397493184078485e-06, -0.0001247782347491011, -1.525927655166015e-05, -2.295162448717747e-05, -5.21285692229867e-05], [-7.951596217026236e-07, -3.452759358424373e-07, 1.8233384253107943e-05, -6.214337986421015e-07, -7.323275440285215e-06, -1.8498957388146664e-07, -5.1990937208756804e-06, -6.358031328090874e-07, -9.563175353832776e-07, -2.1720236418332206e-06], [0.0, 0.0, 0.0, 0.0, 0.0, 0.0, 0.0, 0.0, 0.0, 0.0], [0.0, 0.0, 0.0, 0.0, 0.0, 0.0, 0.0, 0.0, 0.0, 0.0], [0.0, 0.0, 0.0, 0.0, 0.0, 0.0, 0.0, 0.0, 0.0, 0.0], [0.0, 0.0, 0.0, 0.0, 0.0, 0.0, 0.0, 0.0, 0.0, 0.0], [0.0, 0.0, 0.0, 0.0, 0.0, 0.0, 0.0, 0.0, 0.0, 0.0], [0.0, 0.0, 0.0, 0.0, 0.0, 0.0, 0.0, 0.0, 0.0, 0.0], [0.0, 0.0, 0.0, 0.0, 0.0, 0.0, 0.0, 0.0, 0.0, 0.0], [0.0, 0.0, 0.0, 0.0, 0.0, 0.0, 0.0, 0.0, 0.0, 0.0], [0.0, 0.0, 0.0, 0.0, 0.0, 0.0, 0.0, 0.0, 0.0, 0.0], [0.0, 0.0, 0.0, 0.0, 0.0, 0.0, 0.0, 0.0, 0.0, 0.0], [0.0, 0.0, 0.0, 0.0, 0.0, 0.0, 0.0, 0.0, 0.0, 0.0], [0.0, 0.0, 0.0, 0.0, 0.0, 0.0, 0.0, 0.0, 0.0, 0.0], [0.0, 0.0, 0.0, 0.0, 0.0, 0.0, 0.0, 0.0, 0.0, 0.0], [0.0, 0.0, 0.0, 0.0, 0.0, 0.0, 0.0, 0.0, 0.0, 0.0], [0.0, 0.0, 0.0, 0.0, 0.0, 0.0, 0.0, 0.0, 0.0, 0.0], [0.0, 0.0, 0.0, 0.0, 0.0, 0.0, 0.0, 0.0, 0.0, 0.0], [-5.312894657549805e-08, -5.6958132432782804e-08, -6.749475687684026e-06, -1.3198410364623214e-08, -2.5931347408914007e-05, -1.9742336121453263e-07, 3.503140396787785e-05, -8.422778563499378e-08, -5.860338205820881e-07, -1.3596099961432628e-06], [-4.6076536364125786e-07, -1.7819837694332819e-07, -2.2060134142520837e-05, -9.480455531729604e-08, -0.00015094917034730315, -6.345866836454661e-07, 0.00018213772273156792, -9.875084288069047e-07, -1.7885552097141044e-06, -4.983999133401085e-06], [-2.7675372621160932e-05, -1.164198579317599e-06, -0.00027035645325668156, -1.1013353287125938e-05, -0.010850643739104271, -2.0795816453755833e-05, 0.011373366229236126, -6.46474290988408e-05, -8.549644917366095e-06, -0.00011852002353407443], [-6.55766561976634e-05, -4.2582185415085405e-05, -0.0005749331903643906, -2.7551170205697417e-05, -0.025265535339713097, -4.098912177141756e-05, 0.026614196598529816, -0.0002571205550339073, -5.219153536017984e-05, -0.0002877028309740126], [-0.00013450681581161916, -0.0018544961931183934, -3.754838326130994e-05, -0.0001509250287199393, -0.025369761511683464, -8.774607704253867e-05, 0.029885636642575264, -0.0010856478475034237, -0.0006259064539335668, -0.0005390966543927789], [-0.00018651581194717437, -0.0015516390558332205, -0.0011434362968429923, -0.00016728680930100381, -0.012687730602920055, -9.811934432946146e-05, 0.017770737409591675, -0.0007777680875733495, -0.0007082377560436726, -0.0004500053764786571], [-0.0008524770382791758, -0.001043907250277698, -0.0026694817934185266, -0.0001855794689618051, -0.0224158838391304, -0.00030733118182979524, 0.02983340620994568, -0.0005960635025985539, -0.0007038146140985191, -0.001058880123309791], [0.006151829846203327, -0.0006229544524103403, -0.007620885502547026, -0.000326104142004624, -0.03416644409298897, -0.0004369642410892993, 0.045208077877759933, -0.003492700168862939, -0.00102634122595191, -0.003667492186650634], [0.013820251449942589, -0.0005121292779222131, -0.009779495187103748, -0.0006076106801629066, -0.059764791280031204, -0.0022431877441704273, 0.07345353811979294, -0.0070190043188631535, -0.0010241051204502583, -0.006323460955172777], [0.005738972220569849, -0.00034473862615413964, -0.006901503074914217, -0.00043263801489956677, -0.034412872046232224, -0.0022161558736115694, 0.0452977791428566, -0.0023660322185605764, -0.0011158232809975743, -0.003246945794671774], [-0.0008024664130061865, 0.008095021359622478, -0.0007732267258688807, -0.0022809477522969246, -0.014482330530881882, -0.001403657253831625, 0.015227782540023327, -0.00032710321829654276, -0.0017116848612204194, -0.0015413647051900625], [0.0051829619333148, 0.012167521752417088, 0.006867632735520601, -0.002946181921288371, -0.032238151878118515, -0.0015243373345583677, 0.019673682749271393, -0.0006357482052408159, -0.0015585635555908084, -0.004988779313862324], [0.015607399865984917, -0.0022284795995801687, 0.025854481384158134, -0.001064847456291318, -0.03379809856414795, -0.0013494199374690652, 0.010873092338442802, -0.0012000440619885921, -0.0019713405054062605, -0.010722748935222626], [0.0072259241715073586, -0.0016478634206578135, 0.0051816049963235855, -0.00044357130536809564, -0.01580311357975006, -0.0009859539568424225, 0.014974468387663364, -0.0005828826106153429, -0.0017042754916474223, -0.0062143150717020035], [-0.0006665424443781376, -0.00023797436733730137, -0.006673150695860386, -0.00016368932847399265, -0.0076330858282744884, -0.0013440526090562344, 0.019222302362322807, -0.00020743698405567557, -0.0010655982187017798, -0.0012307660654187202], [-0.0004678434052038938, -0.00015827598690520972, -0.0060061123222112656, -0.00011782436195062473, -0.010495508089661598, -0.0012972704134881496, 0.02040424384176731, -0.0002092851063935086, -0.0007293502567335963, -0.0009227687842212617], [-0.0002680279139894992, -0.0001275652030017227, -0.0034520861227065325, -9.29471425479278e-05, -0.007614395581185818, -0.0006783829303458333, 0.013503984548151493, -0.00010093000310007483, -0.00047523793182335794, -0.0006944115157239139], [-0.00013639312237501144, -0.00016031513223424554, -0.0017831309232860804, -5.990771023789421e-05, -0.008144957944750786, -0.0001729211217025295, 0.01121843233704567, -1.808889464882668e-05, -0.0004489799903240055, -0.0002937417884822935], [-3.0060049539315514e-05, -1.686462201178074e-05, -0.00020988946198485792, -7.85483280196786e-06, -0.009849979542195797, -1.9759761926252395e-05, 0.010415151715278625, -2.381556259933859e-05, -8.668842929182574e-05, -0.00017023934924509376], [-9.720692105474882e-06, -5.735524155170424e-06, -0.00010792091052280739, -5.140985194884706e-06, -0.0027151843532919884, -2.0157642211415805e-05, 0.0030305697582662106, -3.23293061228469e-05, -3.6997676943428814e-05, -9.738228254718706e-05], [0.0, 0.0, 0.0, 0.0, 0.0, 0.0, 0.0, 0.0, 0.0, 0.0], [0.0, 0.0, 0.0, 0.0, 0.0, 0.0, 0.0, 0.0, 0.0, 0.0], [0.0, 0.0, 0.0, 0.0, 0.0, 0.0, 0.0, 0.0, 0.0, 0.0], [0.0, 0.0, 0.0, 0.0, 0.0, 0.0, 0.0, 0.0, 0.0, 0.0], [0.0, 0.0, 0.0, 0.0, 0.0, 0.0, 0.0, 0.0, 0.0, 0.0], [0.0, 0.0, 0.0, 0.0, 0.0, 0.0, 0.0, 0.0, 0.0, 0.0], [-1.4561527450496214e-07, -3.249081226286421e-09, -6.121177875684225e-07, -1.0725544008494126e-08, -2.9357797757256776e-06, -9.033908554556547e-07, 6.178238436405081e-06, -3.096753409259634e-10, -7.774190748932597e-07, -7.896919669292402e-07], [0.0005891020409762859, -7.1548731384041275e-09, -1.1643591278698295e-05, -6.718616987200221e-07, -0.0005091109196655452, -3.427444607950747e-05, 9.422519360668957e-05, -5.87235699640587e-05, -7.02721581546939e-06, -6.186838436406106e-05], [0.00023045201669447124, -1.9298854567750823e-06, -0.0003234896284993738, -1.5522828107350506e-06, -0.00041917499038390815, -1.024334596877452e-05, 0.0006117139710113406, -2.4357343136216514e-05, -2.34685285249725e-05, -3.7950248952256516e-05], [-0.0001670241035753861, -2.9094217097735964e-06, -6.847360782558098e-05, -5.26943986187689e-05, -0.0003708542790263891, -3.990014647570206e-06, 0.0006964300409890711, -5.226639586908277e-06, -1.2505163795140106e-05, -1.2752470865962096e-05], [-0.005207252688705921, -3.3079348213505e-05, -0.00113996013533324, -0.0003499380254652351, -0.01179440040141344, -6.235665205167606e-05, 0.019155336543917656, -0.00028010824462398887, -0.00011874109623022377, -0.00016948781558312476], [-0.006319123785942793, -0.0011832215823233128, -0.003318833652883768, -0.0012315018102526665, -0.041331946849823, -0.0008512165513820946, 0.05681803449988365, -0.0010547618148848414, -0.0006803137366659939, -0.000847039045765996], [-0.006908007897436619, -0.010212347842752934, 0.003597068600356579, -0.004456831607967615, -0.05430390685796738, -0.0018403888680040836, 0.08029153943061829, -0.0025568013079464436, -0.002070090966299176, -0.0015401553828269243], [-0.009905952028930187, -0.018323762342333794, 0.02633039280772209, -0.008229454979300499, -0.0543350949883461, -0.0061377668753266335, 0.08320492506027222, -0.0036457062233239412, -0.006222169380635023, -0.0027352268807590008], [-0.011000198312103748, -0.017190180718898773, 0.020873434841632843, -0.004832376725971699, -0.10418839752674103, -0.01524406298995018, 0.15738561749458313, -0.007015171926468611, -0.011515769176185131, -0.007272685877978802], [-0.015787912532687187, -0.019443495199084282, 0.03868189454078674, 0.006490869913250208, -0.12114362418651581, -0.029390251263976097, 0.18501067161560059, -0.014830909669399261, -0.017757561057806015, -0.011828637681901455], [-0.017781918868422508, 0.003745132591575384, 0.02311018668115139, 0.008271911181509495, -0.16280809044837952, -0.03503561392426491, 0.2355029284954071, -0.014195870608091354, -0.022541576996445656, -0.018266472965478897], [-0.028123367577791214, 0.04502172768115997, 0.011902457103133202, -0.0031729957554489374, -0.1412901133298874, -0.042573314160108566, 0.216786727309227, -0.008837372064590454, -0.029844025149941444, -0.019868433475494385], [-0.047311972826719284, 0.0491420216858387, 0.0392862968146801, -0.0035787844099104404, -0.1033497303724289, -0.048128679394721985, 0.17541901767253876, -0.01053774543106556, -0.03122630901634693, -0.01971258409321308], [-0.05576682090759277, 0.09071937203407288, 0.0629926323890686, -0.01742115058004856, -0.11526601761579514, -0.035840172320604324, 0.1402011513710022, -0.012635715305805206, -0.03475278988480568, -0.022228723391890526], [-0.04652595520019531, 0.0563017800450325, 0.0555422343313694, -0.012997952289879322, -0.12030909210443497, -0.011271122843027115, 0.14936594665050507, -0.008372142910957336, -0.036206696182489395, -0.025525500997900963], [-0.039919253438711166, 0.010729623958468437, 0.010546901263296604, -0.010360900312662125, -0.06529738754034042, 0.010106167756021023, 0.13532190024852753, -0.006053605582565069, -0.026722580194473267, -0.018350575119256973], [-0.029181836172938347, -0.00555887958034873, -0.017964553087949753, -0.015908734872937202, -0.04563073813915253, 0.012673180550336838, 0.12799926102161407, -0.00368632678873837, -0.01092150155454874, -0.011819683946669102], [-0.023138007149100304, 0.002278008498251438, -0.04469967260956764, -0.010273805819451809, -0.025618188083171844, 0.0025252962950617075, 0.12647059559822083, -0.0021747946739196777, -0.01737610250711441, -0.007993236184120178], [-0.01624445617198944, -0.005717866588383913, -0.026031047105789185, -0.0048341150395572186, -0.015268075279891491, -0.019209887832403183, 0.10041604191064835, -0.0011606591288000345, -0.008106154389679432, -0.00384352239780128], [-0.009005004540085793, -0.0057229772210121155, -0.023452693596482277, -0.0047705150209367275, -0.011767263524234295, -0.01782633177936077, 0.08383172005414963, -0.0008735635783523321, -0.006854806561022997, -0.0035584410652518272], [-0.00456016743555665, -0.0030417393427342176, -0.02067474089562893, -0.0034996969625353813, -0.013636020943522453, -0.008688494563102722, 0.06169017404317856, -0.0005992013029754162, -0.0050555006600916386, -0.0019345434848219156], [-0.0020556985400617123, -0.0016773612005636096, -0.007161533460021019, -0.001166329369880259, -0.00869553443044424, -0.008473056368529797, 0.031852204352617264, -0.00011265670036664233, -0.0021152442786842585, -0.00039477908285334706], [-0.0004604193673003465, -0.0005799200152978301, 0.00906103290617466, -0.0002035461220657453, -0.001532213413156569, -0.004675404168665409, -0.00032893859315663576, -3.8156922528287396e-05, -0.0011730460682883859, -6.938917795196176e-05], [-1.4698831364512444e-05, -5.131532088853419e-05, 0.007515087258070707, -2.740652917054831e-06, -0.0002664708881638944, -0.0006247721030376852, -0.00609994912520051, -4.535144171313732e-07, -0.0004460491763893515, -8.637847713544033e-06], [0.0, 0.0, 0.0, 0.0, 0.0, 0.0, 0.0, 0.0, 0.0, 0.0], [0.0, 0.0, 0.0, 0.0, 0.0, 0.0, 0.0, 0.0, 0.0, 0.0], [0.0, 0.0, 0.0, 0.0, 0.0, 0.0, 0.0, 0.0, 0.0, 0.0], [0.0, 0.0, 0.0, 0.0, 0.0, 0.0, 0.0, 0.0, 0.0, 0.0], [-3.3227726703444205e-07, 0.00017285831563640386, -2.652824332471937e-05, -7.601376637467183e-06, -6.58853741697385e-06, -3.2895329695747932e-06, -8.880757377482951e-05, -5.955727999662486e-08, -3.770316470763646e-05, -1.9481310573610244e-06], [0.0011263040360063314, 3.98832889914047e-05, -0.00010602945258142427, -2.2355856344802305e-05, -0.0017518654931336641, -2.7547492209123448e-05, 0.0013595165219157934, -0.00018120906315743923, -0.00019672112830448896, -0.00023997583775781095], [-0.0032478109933435917, -3.2487041607964784e-05, -0.0014261392643675208, -0.0010827454971149564, -0.0011153164086863399, 0.003658137982711196, 0.004036889411509037, -0.0005203611799515784, -0.00013918163313064724, -0.0001309849030803889], [-0.019662130624055862, -0.0008651949465274811, 0.0002531975042074919, 0.03063441999256611, -0.00196943711489439, -0.013794965110719204, 0.00820828415453434, -0.0007220561965368688, -0.0016214280622079968, -0.00046064707566984], [-0.026318587362766266, -0.0015554269775748253, 0.0013608010485768318, 0.02567010186612606, -0.020477652549743652, -0.010392877273261547, 0.03771524131298065, -0.0012980520259588957, -0.003505552187561989, -0.0011978709371760488], [-0.030986962839961052, -0.009398662485182285, 0.019228769466280937, 0.04091157764196396, -0.0436556302011013, -0.019431956112384796, 0.06271259486675262, -0.006310064345598221, -0.010208847932517529, -0.002860265551134944], [-0.012472440488636494, -0.02877921052277088, 0.059333376586437225, 0.04890507832169533, -0.09119884669780731, -0.0250210240483284, 0.0889667198061943, -0.017258591949939728, -0.01581217348575592, -0.00666167214512825], [-0.03266850486397743, -0.04578378051519394, 0.1720556616783142, 0.02484256401658058, -0.13704809546470642, -0.04074391722679138, 0.12078659981489182, -0.023847386240959167, -0.024192214012145996, -0.013398312963545322], [-0.029595447704195976, -0.07601771503686905, 0.1919015496969223, 0.05974142998456955, -0.17123085260391235, -0.038455311208963394, 0.16782043874263763, -0.040890827775001526, -0.03870368376374245, -0.02456703968346119], [-0.012437926605343819, -0.11562010645866394, 0.23629406094551086, 0.15790879726409912, -0.21060025691986084, -0.07642494142055511, 0.18207243084907532, -0.059730153530836105, -0.06390581279993057, -0.03755258768796921], [-0.02239914983510971, -0.06974709033966064, 0.25283780694007874, 0.21255959570407867, -0.28737810254096985, -0.06741887331008911, 0.1601838320493698, -0.049957193434238434, -0.07804117351770401, -0.050638556480407715], [0.004723232705146074, -0.0359426811337471, 0.2860027551651001, 0.1781230866909027, -0.33086663484573364, -0.08150481432676315, 0.19038432836532593, -0.04954511672258377, -0.0914003923535347, -0.06997572630643845], [-0.015156803652644157, -0.03720745071768761, 0.2084318995475769, 0.26977723836898804, -0.27348238229751587, -0.06030240282416344, 0.17211052775382996, -0.051015838980674744, -0.12527324259281158, -0.08788017183542252], [-0.03181392699480057, 0.018523190170526505, 0.15440097451210022, 0.24784937500953674, -0.26155564188957214, -0.0040594409219920635, 0.14889097213745117, -0.05146193131804466, -0.11900723725557327, -0.10176728665828705], [-0.034047771245241165, 0.02986614592373371, 0.1601063758134842, 0.19850674271583557, -0.21985279023647308, -0.003558333730325103, 0.11063702404499054, -0.042653098702430725, -0.10859200358390808, -0.09041349589824677], [-0.06930039823055267, -0.04574334993958473, 0.07600671797990799, 0.1730235069990158, -0.1560187190771103, 0.06469746679067612, 0.1350940614938736, -0.03337526321411133, -0.08022353798151016, -0.06415988504886627], [-0.12395468354225159, -0.08685291558504105, -0.06802292913198471, 0.15526121854782104, -0.10407289862632751, 0.13461333513259888, 0.18838690221309662, -0.027774600312113762, -0.034224044531583786, -0.03335847333073616], [-0.12774601578712463, -0.0672784298658371, -0.11000528186559677, 0.1153053417801857, -0.026682855561375618, 0.12597204744815826, 0.20113317668437958, -0.017108667641878128, -0.06357400864362717, -0.030014505609869957], [-0.08841609209775925, -0.06995377689599991, -0.13144813477993011, 0.09198524057865143, 0.007465497590601444, 0.12152127176523209, 0.14679428935050964, -0.013710200786590576, -0.041288457810878754, -0.022947045043110847], [-0.07137446105480194, -0.05480090156197548, -0.10252923518419266, -0.022540539503097534, 0.010578170418739319, 0.09423325210809708, 0.17495490610599518, -0.007967595010995865, -0.007246040739119053, -0.01330620888620615], [-0.050848156213760376, -0.0384676568210125, -0.08558347076177597, -0.0450645349919796, 0.007405116222798824, 0.0436408556997776, 0.16786731779575348, -0.0032944190315902233, 0.009688780643045902, -0.005343386437743902], [-0.026368044316768646, -0.024499494582414627, -0.061131857335567474, -0.023628700524568558, 0.007677774410694838, -0.021732810884714127, 0.13792648911476135, -0.0014213505201041698, 0.015558579936623573, -0.002380141755566001], [-0.01108468882739544, -0.017771823331713676, -0.014963501133024693, -0.007633062079548836, -0.004331217147409916, -0.02126113325357437, 0.07828439027070999, -0.00046106113586574793, -8.210134546970949e-05, -0.0006957800942473114], [-0.003080773400142789, -0.004670998081564903, 0.00467715272679925, -0.0004150831373408437, -0.00038602150743827224, 0.010577620938420296, -0.006437249481678009, -1.4711604308104143e-05, -0.00018563169578555971, -6.430647044908255e-05], [-0.0007648918544873595, -0.006322785280644894, -0.00028141826624050736, -2.1325146008166485e-05, -0.00013444643991533667, 0.0022138634230941534, 0.006612985394895077, -7.960420020935999e-07, -0.001296769012697041, -4.416909632709576e-06], [0.0, 0.0, 0.0, 0.0, 0.0, 0.0, 0.0, 0.0, 0.0, 0.0], [0.0, 0.0, 0.0, 0.0, 0.0, 0.0, 0.0, 0.0, 0.0, 0.0], [-1.1336212679680102e-07, -1.3729692227570922e-07, -1.0479441698407754e-05, 1.6794427210697904e-05, -4.941001066072204e-07, -4.400460511533311e-06, -1.864517571448232e-07, -4.923221297303826e-08, -8.901790806703502e-07, -4.3944702099452115e-08], [-2.048828173428774e-05, 0.0005880387034267187, -0.00032082354300655425, 0.0003488105721771717, -7.427162472595228e-06, -0.0002894645731430501, -0.00036405297578312457, -3.2887066936382325e-07, 6.80129523971118e-05, -2.276540499224211e-06], [-0.00012014067033305764, -1.231106580235064e-06, -0.0018544180784374475, 0.005799444857984781, -0.0003956135187763721, -0.002291753888130188, -0.0007456600433215499, 0.0002065829758066684, -0.00045034679351374507, -0.000146861479151994], [-0.004442770499736071, 0.0015437814872711897, -0.014030218124389648, 0.023282866925001144, 0.006735693197697401, -0.015156932175159454, 0.006261429749429226, -0.001116322004236281, -0.002543313428759575, -0.0005341644282452762], [-0.03219914063811302, 0.012067615054547787, 0.009404822252690792, 0.09767890721559525, 0.008071191608905792, -0.06525643914937973, -0.001427295384928584, -0.01027944777160883, -0.014047081582248211, -0.00401258422061801], [-0.03773108124732971, 0.001115879393182695, 0.05376118794083595, 0.13617055118083954, -0.015023723244667053, -0.0882558599114418, -0.005483373999595642, -0.011452755890786648, -0.026480669155716896, -0.00661892956122756], [-0.022861162200570107, -0.028418678790330887, 0.05291130393743515, 0.18609441816806793, -0.02982279844582081, -0.09680726379156113, 0.01649174839258194, -0.026614055037498474, -0.03556979075074196, -0.015401731245219707], [-0.009396091103553772, -0.05027163773775101, 0.11007385700941086, 0.2516493499279022, -0.09724375605583191, -0.17388921976089478, 0.06727238744497299, -0.04881308972835541, -0.01743849366903305, -0.03193996474146843], [0.00960847083479166, -0.07254147529602051, 0.24418292939662933, 0.24878166615962982, -0.16408544778823853, -0.16729526221752167, 0.04041626676917076, -0.0832061618566513, 0.007093288004398346, -0.06295350939035416], [0.00203619129024446, -0.08557555824518204, 0.2650623023509979, 0.30225279927253723, -0.2533000409603119, -0.09700369834899902, 0.05409237742424011, -0.12221793830394745, 0.022707095369696617, -0.08805409073829651], [0.02030794322490692, -0.1241874173283577, 0.30154919624328613, 0.3614055812358856, -0.2726646065711975, -0.043950121849775314, -0.02668643929064274, -0.14794786274433136, 0.061081353574991226, -0.12890639901161194], [-0.031388793140649796, -0.028229668736457825, 0.2983458638191223, 0.33774369955062866, -0.270592600107193, -0.0870952308177948, -0.05061688646674156, -0.1630079746246338, 0.1724599301815033, -0.1776169240474701], [-0.012425086461007595, 0.12418295443058014, 0.20250943303108215, 0.3421425223350525, -0.22787028551101685, -0.16367276012897491, -0.03835429251194, -0.18164868652820587, 0.15358665585517883, -0.1984509378671646], [-0.04240681976079941, 0.1601148247718811, 0.1959519237279892, 0.2867473363876343, -0.2714594900608063, -0.05787907913327217, -0.049230512231588364, -0.20265069603919983, 0.2399107813835144, -0.2591005265712738], [0.007269660942256451, 0.09943981468677521, 0.12971962988376617, 0.2629368305206299, -0.29066723585128784, 0.13191962242126465, -0.06499399244785309, -0.19745883345603943, 0.21548445522785187, -0.29365020990371704], [-0.04691971838474274, 0.05575396865606308, 0.12113244086503983, 0.25382447242736816, -0.19154565036296844, 0.12000174075365067, 0.037639591842889786, -0.18754933774471283, 0.13369517028331757, -0.29603374004364014], [-0.013946370221674442, -0.01356474682688713, 0.07670106738805771, 0.15073230862617493, -0.13044705986976624, 0.14373904466629028, 0.11939886957406998, -0.15803998708724976, 0.04399826005101204, -0.218571737408638], [-0.0683688223361969, -0.04398269206285477, -0.002448990009725094, 0.18060317635536194, -0.08304914087057114, 0.1926303654909134, 0.11746135354042053, -0.12750299274921417, -0.0016197682125493884, -0.16372385621070862], [-0.09580070525407791, 0.07812828570604324, -0.10509487241506577, 0.0798238068819046, 0.04276595264673233, 0.07955719530582428, 0.15803901851177216, -0.09032420068979263, -0.00645854789763689, -0.14063704013824463], [-0.08193743973970413, 0.10022035986185074, -0.12966597080230713, -0.016295475885272026, 0.09788123518228531, -0.046901263296604156, 0.20191442966461182, -0.06776939332485199, 0.04159490019083023, -0.09904219955205917], [-0.08344484120607376, 0.0932997316122055, -0.18978828191757202, -0.09343196451663971, 0.09364643692970276, 0.1062401756644249, 0.24123023450374603, -0.03852277249097824, -0.04495999962091446, -0.08426886796951294], [-0.06972663104534149, 0.0477917306125164, -0.20034201443195343, -0.08942689746618271, 0.11256620287895203, 0.09997215121984482, 0.24967370927333832, -0.029253508895635605, -0.07200539112091064, -0.04924783855676651], [-0.07908196747303009, 0.004656950011849403, -0.1517443060874939, -0.11734744161367416, 0.11173050850629807, 0.14972969889640808, 0.18216188251972198, -0.014044086448848248, -0.06515121459960938, -0.020907798781991005], [-0.07001177966594696, -0.061810750514268875, -0.07405459135770798, -0.02621341496706009, 0.0649632140994072, 0.12893886864185333, 0.0448838546872139, -0.004810940474271774, 0.005614717956632376, -0.0074982172809541225], [-0.020193522796034813, -0.03320222347974777, -0.008259863592684269, -0.0028804924804717302, 0.003986567724496126, 0.04066818952560425, 0.004491370636969805, -0.0011501865228638053, 0.01874569058418274, -0.002205444034188986], [-0.002577645005658269, -0.0037369471974670887, -0.001611250452697277, -0.00011478254600660875, -0.004940331913530827, 0.005043152254074812, 0.00030388409504666924, -0.0002418681251583621, 0.008538030087947845, -0.0006622429937124252], [-4.253779843566008e-05, -0.0017513599013909698, -0.0012622525682672858, -2.1962894606986083e-05, -0.0009440217399969697, -0.0009722526301629841, 0.0042890156619250774, -1.530430745333433e-05, 0.0007768765790387988, -5.6199252867372707e-05], [0.0, 0.0, 0.0, 0.0, 0.0, 0.0, 0.0, 0.0, 0.0, 0.0], [0.0, 0.0, 0.0, 0.0, 0.0, 0.0, 0.0, 0.0, 0.0, 0.0], [-0.0001258115953532979, 5.031938781030476e-05, 0.00012340479588601738, 0.0009972924599424005, -4.2182760807918385e-05, -0.0008774774614721537, 4.339086444815621e-05, -9.401578608958516e-06, -0.0001528527936898172, -6.6808211158786435e-06], [-0.001351107144728303, 0.00235390430316329, 0.00021344295237213373, 0.030726201832294464, 0.0005740575725212693, -0.014502598904073238, -0.010452253744006157, -0.00035413738805800676, -0.005718399304896593, -0.0014890924794599414], [-0.012874563224613667, 0.004560384433716536, 0.0004107253917027265, 0.08559589087963104, 0.008373046293854713, -0.06406980752944946, 0.0067354291677474976, -0.005385907832533121, -0.017321934923529625, -0.006023022346198559], [-0.047930482774972916, 0.027846775949001312, 0.017066197469830513, 0.19487085938453674, 0.024478266015648842, -0.1154882088303566, -0.055226679891347885, 0.023451711982488632, -0.04757387936115265, -0.02149261347949505], [-0.03557095676660538, -0.009729355573654175, 0.0632672980427742, 0.25182029604911804, 0.022291364148259163, -0.16230367124080658, -0.0450332947075367, 0.02642439678311348, -0.05971246585249901, -0.05145053565502167], [-0.034880124032497406, -0.08431104570627213, 0.12068595737218857, 0.24070121347904205, 0.007098171394318342, -0.11271978914737701, -0.03395449370145798, 0.01914622262120247, -0.041404616087675095, -0.08035970479249954], [-0.023140937089920044, -0.1714020073413849, 0.20121029019355774, 0.19676364958286285, -0.02209000289440155, -0.0993947759270668, 0.03690163418650627, 0.021650880575180054, -0.03256670758128166, -0.10793179273605347], [-0.007338506635278463, -0.19473685324192047, 0.20678004622459412, 0.190419003367424, -0.03766294941306114, 0.010655219666659832, -0.004115317016839981, -0.025873808190226555, 0.012941415421664715, -0.15106824040412903], [0.06631159037351608, -0.14262603223323822, 0.22041383385658264, 0.18613775074481964, -0.14356279373168945, 0.06688281893730164, -0.006670209113508463, -0.11089379340410233, -0.04115314036607742, -0.09483986347913742], [0.053446024656295776, -0.12417761981487274, 0.23938563466072083, 0.15902745723724365, -0.15233546495437622, 0.06354980170726776, -0.2137267142534256, -0.17760978639125824, 0.1263113170862198, 0.026127919554710388], [0.022909337654709816, -0.04646984115242958, 0.20620723068714142, 0.09597637504339218, -0.1528463512659073, 0.00016750360373407602, -0.16964153945446014, -0.19852019846439362, 0.21377243101596832, 0.028444714844226837], [0.1358582079410553, 0.05964389070868492, 0.1929476112127304, 0.0947982519865036, -0.21782174706459045, -0.0566117949783802, -0.19679750502109528, -0.25592297315597534, 0.17495609819889069, 0.06894776225090027], [0.165413498878479, 0.11229821294546127, 0.1688639521598816, 0.05853237211704254, -0.10288289934396744, -0.09591713547706604, -0.08318286389112473, -0.32273563742637634, 0.18180806934833527, -0.08219890296459198], [0.16069234907627106, 0.1359216272830963, 0.2085121124982834, 0.1338137984275818, -0.0819549709558487, -0.08497397601604462, -0.1211380660533905, -0.3476966917514801, 0.14186963438987732, -0.14504630863666534], [0.1475398987531662, -0.04621683061122894, 0.27494490146636963, 0.1865333765745163, -0.026521392166614532, 0.036110587418079376, -0.09823095798492432, -0.3274199664592743, 0.17428012192249298, -0.32102063298225403], [0.2397918850183487, -0.10773338377475739, 0.21919189393520355, 0.0063854786567389965, -0.05065234377980232, 0.10261115431785583, -0.012852627784013748, -0.32389509677886963, 0.2274428755044937, -0.30029207468032837], [0.20203247666358948, -0.017048854380846024, 0.12821845710277557, 0.01385734137147665, 0.05060865730047226, 0.11062201112508774, 0.0862654447555542, -0.306041955947876, 0.0002598536084406078, -0.2687748074531555], [0.0544159822165966, 0.04982101917266846, 0.0016003053169697523, 0.02870052307844162, 0.11110007762908936, 0.050259508192539215, 0.1510595977306366, -0.297289103269577, 0.08790674805641174, -0.23757433891296387], [-0.030061015859246254, 0.1393459141254425, -0.04072871804237366, -0.04558607190847397, 0.08268503099679947, 0.12832710146903992, 0.1303456723690033, -0.25711774826049805, 0.10500730574131012, -0.2122175395488739], [0.0026150632183998823, 0.2253110706806183, -0.05923813208937645, -0.14691324532032013, 0.10057180374860764, 0.10532364249229431, 0.12967869639396667, -0.16811053454875946, 0.005073386710137129, -0.19431215524673462], [-0.02482566237449646, 0.19531477987766266, -0.13132701814174652, -0.16248981654644012, 0.18849816918373108, 0.2126222401857376, 0.11580653488636017, -0.11402317881584167, -0.09109063446521759, -0.1884838044643402], [-0.11925778537988663, 0.1024065762758255, -0.17551307380199432, -0.18374589085578918, 0.2574091851711273, 0.2655625641345978, 0.15002447366714478, -0.06283039599657059, -0.11104008555412292, -0.12301395833492279], [-0.12422437965869904, 0.013038277626037598, -0.1187613382935524, -0.06502991169691086, 0.10178758203983307, 0.23606418073177338, 0.06253811717033386, -0.022224614396691322, -0.027922168374061584, -0.05526464059948921], [-0.052038177847862244, -0.04925604164600372, -0.028467746451497078, -0.013899996876716614, -0.0007914940360933542, 0.12957820296287537, -0.007154954131692648, -0.00697324238717556, 0.046690694987773895, -0.017686543986201286], [-0.014664298854768276, -0.007332311011850834, -0.006048231385648251, -0.0016264221630990505, -0.008401834405958652, 0.03537710756063461, 0.006837956607341766, -0.002809000201523304, 0.0012503734324127436, -0.002583310240879655], [-0.003873208537697792, -0.002181694144383073, -0.0018561260076239705, -7.928522245492786e-05, -0.00014831552107352763, 0.00308014452457428, 0.006370853167027235, -9.148531535174698e-05, -0.0011902519036084414, -3.0631617846665904e-05], [0.0, 0.0, 0.0, 0.0, 0.0, 0.0, 0.0, 0.0, 0.0, 0.0], [-1.8375307035967126e-06, -1.15261320843274e-06, -1.22158853628207e-05, 0.00015255442121997476, -5.205296815802285e-07, -1.5568752132821828e-05, -2.2680509914607683e-07, -4.151554094278254e-06, -1.3327614396985155e-05, -0.00010355315316701308], [-0.0005250197718851268, -0.0033699471969157457, -0.003039670642465353, 0.003842124016955495, -0.0011467656586319208, 0.0002999615971930325, -0.0004700389108620584, 0.007723725866526365, -0.0015405280282720923, -0.0017738385358825326], [-0.0020754816941916943, 0.002842989517375827, 0.005586824379861355, 0.05843086540699005, -0.009647187776863575, -0.048535533249378204, -0.013759627938270569, 0.03451625630259514, -0.016850914806127548, -0.010507989674806595], [-0.02092030644416809, 0.0037123123183846474, 0.03229697048664093, 0.13022638857364655, 0.016541555523872375, -0.10795485228300095, 0.0006368915783241391, 0.019822964444756508, -0.03642990067601204, -0.03793090209364891], [-0.027037864550948143, -0.022192632779479027, 0.06507551670074463, 0.20497539639472961, 0.0726667046546936, -0.12881720066070557, -0.05109711363911629, 0.05546035245060921, -0.05830414965748787, -0.11072620749473572], [-0.027655668556690216, -0.06450232118368149, 0.13283391296863556, 0.2275724858045578, 0.07938677072525024, -0.11599206179380417, -0.09483817964792252, 0.10573554784059525, -0.08370771259069443, -0.15883196890354156], [-0.03256131336092949, -0.13788549602031708, 0.1541098952293396, 0.13181763887405396, 0.06659235060214996, -0.02378375642001629, -0.030544588342308998, 0.12561257183551788, -0.04251990094780922, -0.21083688735961914], [-0.051712874323129654, -0.2240576297044754, 0.1350945681333542, 0.15691344439983368, 0.0013900601770728827, 0.02621985413134098, -0.026155350729823112, 0.16195808351039886, 0.019136473536491394, -0.19878673553466797], [-0.09244748950004578, -0.2796138823032379, 0.1868457943201065, 0.21322792768478394, -0.0018068302888423204, 0.025346534326672554, -0.08667903393507004, 0.12236250936985016, 0.027307985350489616, -0.11454244703054428], [0.00880055408924818, -0.18458625674247742, 0.13951075077056885, 0.21670998632907867, -0.09593585878610611, 0.04317745566368103, -0.17978744208812714, 0.14578863978385925, -0.04038061201572418, -0.05329878255724907], [0.012835739180445671, -0.09467872232198715, 0.029163889586925507, 0.1270436942577362, -0.18042415380477905, 0.016477273777127266, -0.1940212994813919, 0.16521765291690826, 0.0472569577395916, 0.07112818211317062], [-0.004875496029853821, -0.11684965342283249, 0.04745681956410408, 0.09567877650260925, -0.1838211864233017, 0.007656638976186514, -0.14500468969345093, 0.06161008030176163, 0.14012877643108368, 0.09801870584487915], [0.13506685197353363, -0.1217719092965126, 0.07956348359584808, 0.2175852358341217, -0.26722657680511475, -0.014211604371666908, -0.2226475030183792, -0.0955001711845398, 0.03682002052664757, 0.2523220181465149], [0.13021710515022278, -0.10766205936670303, 0.06893282383680344, 0.15009179711341858, -0.31134700775146484, 0.06482930481433868, -0.1803850680589676, -0.1151910349726677, 0.0448545441031456, 0.2556608319282532], [0.07367035746574402, -0.1861678808927536, 0.08821844309568405, 0.1430494636297226, -0.31791579723358154, -0.04512685537338257, -0.11703922599554062, -0.05888998135924339, 0.2482263147830963, 0.17197644710540771], [0.12193432450294495, -0.2105940282344818, 0.12439189106225967, 0.18208575248718262, -0.2902451753616333, -0.05927548557519913, -0.15957394242286682, -0.049500588327646255, 0.12970249354839325, 0.21107308566570282], [0.20465973019599915, -0.23088738322257996, 0.060415301471948624, 0.08085624873638153, -0.1957705020904541, 0.005908867344260216, -0.1461823284626007, -0.03978630155324936, 0.09130030125379562, 0.16948698461055756], [0.2466454654932022, -0.10362107306718826, 0.022891923785209656, 0.15425361692905426, -0.20364049077033997, 0.07226940989494324, -0.16342274844646454, -0.10941526293754578, -0.06597761064767838, 0.15001632273197174], [0.11535558849573135, -0.07165869325399399, -0.044748395681381226, -0.03133901208639145, -0.042021628469228745, 0.1434435099363327, -0.08675561845302582, -0.13287805020809174, 0.1579216718673706, -0.00732062291353941], [0.08332564681768417, 0.07390174269676208, -0.09233717620372772, 0.023394478484988213, -0.05660820007324219, 0.1169804260134697, -0.043158456683158875, -0.12662248313426971, 0.08323532342910767, -0.06211297586560249], [0.1696208119392395, 0.10328209400177002, -0.0837252214550972, -0.015383074060082436, 0.0453060045838356, 0.0430489219725132, -0.04108023643493652, -0.08073731511831284, 0.004701690282672644, -0.14503546059131622], [0.15810734033584595, 0.09457236528396606, -0.1367103010416031, -0.14929242432117462, 0.24981404840946198, 0.17265748977661133, -0.028046483173966408, -0.1077171266078949, -0.015428604558110237, -0.2379557490348816], [-0.03594141826033592, 0.05325271189212799, -0.23931454122066498, -0.18714235723018646, 0.3344329595565796, 0.32534754276275635, -0.009761104360222816, -0.10771861672401428, 0.08983542770147324, -0.22299014031887054], [-0.1842094510793686, -0.016019882634282112, -0.13465780019760132, -0.08595718443393707, 0.1281304508447647, 0.45236384868621826, -0.010296935215592384, -0.05654885619878769, 0.03746861591935158, -0.13027094304561615], [-0.12003552913665771, -0.05067284777760506, -0.03869150951504707, -0.028308046981692314, 0.00902358628809452, 0.25806498527526855, -0.021004512906074524, -0.02593127079308033, 0.06506144255399704, -0.04750543832778931], [-0.051243655383586884, -0.005284179467707872, -0.0054822214879095554, -0.0037328777834773064, 0.014330469071865082, 0.09141965210437775, -0.017471501603722572, -0.008436424657702446, 0.00012052929378114641, -0.014219601638615131], [-0.011960643343627453, -0.00014241792086977512, -0.00020087856682948768, -0.0001582721743034199, -0.0006006945623084903, 0.01691635698080063, -0.0008035949431359768, -0.000507900258526206, -0.0020427736453711987, -0.0004991737077943981], [0.0, 0.0, 0.0, 0.0, 0.0, 0.0, 0.0, 0.0, 0.0, 0.0], [-0.00016308888734783977, -0.000246568612055853, -0.00045557800331152976, 0.004563563968986273, -0.00023538428649771959, -0.0006130699184723198, -3.6117355193709955e-05, 0.001622673007659614, -0.001223529689013958, -0.003212900832295418], [-0.0006223313394002616, -0.003369224024936557, 0.004879925400018692, -0.0010085112880915403, -0.001963365590199828, -0.00855469610542059, -0.0019124277168884873, 0.023241043090820312, -0.0035353130660951138, -0.007155080791562796], [-0.0036074193194508553, -0.0038288806099444628, 0.01641920395195484, 0.05114465951919556, -0.0041297427378594875, -0.06288284808397293, -0.018131013959646225, 0.07823390513658524, -0.016905684024095535, -0.03631160408258438], [-0.03486837446689606, -0.005332042928785086, 0.09362082183361053, 0.2140081375837326, 0.03508574515581131, -0.2100837677717209, -0.006688770838081837, 0.04937245696783066, -0.02738315798342228, -0.1077280044555664], [-0.02753582037985325, -0.05735094100236893, 0.11042264103889465, 0.28051450848579407, 0.10324365645647049, -0.19453288614749908, -0.05433635041117668, 0.08755941689014435, -0.03276919201016426, -0.21521329879760742], [-0.02440040558576584, -0.11857585608959198, 0.2003328949213028, 0.17284376919269562, 0.0640985444188118, -0.09882768988609314, -0.12213664501905441, 0.1825082153081894, -0.020000046119093895, -0.23584337532520294], [-0.05537545680999756, -0.16557545959949493, 0.0859067291021347, 0.07139650732278824, 0.06411188095808029, 0.04879514127969742, -0.0347115695476532, 0.2043762505054474, 0.04722461849451065, -0.26614826917648315], [-0.1150597482919693, -0.28850290179252625, 0.10871627926826477, 0.05293417349457741, -0.015971016138792038, 0.1363934576511383, -0.04669475182890892, 0.19713622331619263, 0.10128198564052582, -0.13023431599140167], [-0.017703494057059288, -0.2754620313644409, 0.039415594190359116, 0.07627774029970169, -0.0474482923746109, 0.07766953110694885, -0.10931158810853958, 0.24432805180549622, 0.016048090532422066, -0.0038142951671034098], [0.026011371985077858, -0.20648136734962463, -0.03058514930307865, 0.03298220410943031, -0.1415703296661377, 0.15031152963638306, -0.17475391924381256, 0.28847798705101013, 0.040301427245140076, 0.015305526554584503], [0.05330803245306015, -0.18140187859535217, 0.030150581151247025, 0.03723568841814995, -0.1993141770362854, 0.1374942809343338, -0.12739193439483643, 0.2584398090839386, -0.0944640040397644, 0.08594328165054321], [0.03831518813967705, -0.10788208991289139, -0.011334975250065327, 0.13109800219535828, -0.3594611883163452, 0.04205131158232689, -0.14823339879512787, 0.2051553726196289, -0.05613798275589943, 0.2664298713207245], [0.08899903297424316, -0.14985300600528717, 0.10485857725143433, 0.12198971211910248, -0.3238051235675812, -0.07373808324337006, -0.20945864915847778, 0.10111521184444427, -0.04545281454920769, 0.3853438198566437], [0.07786087691783905, -0.1469404548406601, 0.04351731017231941, 0.20470945537090302, -0.3947123885154724, 0.07438042759895325, -0.1583065688610077, -0.01552508119493723, -0.1628093123435974, 0.47782760858535767], [0.057731837034225464, -0.27691709995269775, -0.025309275835752487, 0.20069940388202667, -0.40457507967948914, -0.08881096541881561, -0.14861686527729034, 0.05777028575539589, 0.12515664100646973, 0.5028688907623291], [0.10163100808858871, -0.22270961105823517, -0.02027781493961811, 0.05732794478535652, -0.4047383964061737, 0.056110356003046036, -0.24604260921478271, 0.15909099578857422, 0.05523524060845375, 0.46437230706214905], [0.2104385793209076, -0.17789115011692047, -0.16267737746238708, 0.11274899542331696, -0.24761666357517242, 0.09065385162830353, -0.2333378791809082, 0.22541508078575134, -0.09492100775241852, 0.2771858274936676], [0.21388570964336395, -0.17872254550457, -0.08422661572694778, 0.0246517825871706, -0.23045846819877625, 0.06909984350204468, -0.27447590231895447, 0.23167774081230164, 0.05830233171582222, 0.17026542127132416], [0.13873882591724396, -0.05796262249350548, -0.05483047291636467, 0.0670752227306366, -0.11690553277730942, 0.10962341725826263, -0.27359306812286377, 0.13423886895179749, -0.022849073633551598, 0.0764642283320427], [0.038093142211437225, 0.02297385409474373, -0.09282144159078598, 0.05381391569972038, -0.11868821829557419, 0.1062190905213356, -0.2238992601633072, 0.13795529305934906, 0.01176450029015541, 0.0645890161395073], [0.07839193940162659, -0.015150142833590508, -0.02774742804467678, -0.036447420716285706, -0.02379942312836647, 0.11386029422283173, -0.1957329958677292, 0.04520760104060173, 0.078609399497509, -0.017191531136631966], [0.1454862803220749, -0.024648120626807213, -0.010828517377376556, -0.12922541797161102, 0.17985370755195618, 0.1555427759885788, -0.21126903593540192, 0.02662348560988903, 0.05502929911017418, -0.18656663596630096], [0.09318159520626068, -0.07504784315824509, -0.2518763542175293, -0.2144692987203598, 0.2667540907859802, 0.3714052438735962, -0.1611151397228241, -0.03070800006389618, 0.24041979014873505, -0.2385462075471878], [-0.1091497614979744, -0.15130656957626343, -0.18194155395030975, -0.14497733116149902, 0.1005903035402298, 0.5580604672431946, -0.041157715022563934, -0.06335799396038055, 0.21235179901123047, -0.1791105419397354], [-0.1407202035188675, -0.08413197845220566, -0.0497041717171669, -0.03753463178873062, 0.005627601873129606, 0.4442843198776245, -0.05312316492199898, -0.04471978545188904, 0.03709286451339722, -0.07706896960735321], [-0.05509767681360245, -0.004929129965603352, -0.007458875887095928, -0.0034885788336396217, 0.016256079077720642, 0.10327228158712387, -0.018800901249051094, -0.008816828951239586, 0.0011723119532689452, -0.022108374163508415], [-0.0042199562303721905, -0.001920229522511363, -0.0004062300722580403, -0.00018951587844640017, -0.0007605138816870749, 0.011289706453680992, -0.0033031392376869917, -0.00039950269274413586, 0.0006450162618421018, -0.0007356308051384985], [0.003688798053190112, -5.170385861674731e-07, -8.283813076559454e-05, -7.406616191474313e-07, -0.00012658270134124905, -3.3198527944477974e-06, -1.0025468327512499e-05, -0.002135042566806078, -1.2390566553222016e-05, -0.0013173413462936878], [-0.0003246924898121506, -0.00023597149993292987, 0.0009085654746741056, -0.0017093676142394543, -0.005021736957132816, -0.0006648527341894805, -0.00012246373808011413, 0.02008874900639057, -0.0014561497373506427, -0.011462080292403698], [-0.0002896808146033436, -0.001841265126131475, 0.0025692840572446585, -0.003299885429441929, -0.001977250212803483, -0.01079572830349207, -0.0021997662261128426, 0.05275346711277962, -0.005980375222861767, -0.02893870323896408], [-0.003774151438847184, -0.002265794435516, 0.017130602151155472, 0.05592904984951019, -0.009349526837468147, -0.07155528664588928, -0.01887614279985428, 0.1415698528289795, -0.012436916120350361, -0.09636992961168289], [-0.055199917405843735, -0.015351238660514355, 0.10910659283399582, 0.24201428890228271, 0.012194250710308552, -0.271707147359848, -0.013941853307187557, 0.15925145149230957, -0.0019453354179859161, -0.1644175499677658], [-0.05609545111656189, -0.051647357642650604, 0.10537732392549515, 0.21718111634254456, 0.07431790232658386, -0.22283661365509033, -0.0873979777097702, 0.18086625635623932, 0.0491463728249073, -0.2089097797870636], [-0.05012165382504463, -0.1227516382932663, 0.10451753437519073, 0.12053796648979187, 0.01050473190844059, -0.11824724823236465, -0.1382679045200348, 0.20109541714191437, 0.13092203438282013, -0.13818827271461487], [-0.0788964033126831, -0.16123583912849426, 0.07719763368368149, 0.06862213462591171, -0.002735910238698125, -0.05430193617939949, -0.09015318751335144, 0.28240522742271423, 0.15381959080696106, -0.19471965730190277], [-0.05663153529167175, -0.27921247482299805, 0.06267042458057404, 0.027793750166893005, -0.09577944129705429, 0.10624592751264572, -0.08812680840492249, 0.20768216252326965, 0.060981445014476776, 0.05437676981091499], [0.05617263913154602, -0.3160199224948883, 0.03615980222821236, 0.025758279487490654, -0.006343890447169542, 0.05752187594771385, -0.11635686457157135, 0.1673935353755951, 0.1353186070919037, -0.039603427052497864], [0.033993978053331375, -0.2505453824996948, 0.1846040040254593, 0.04685616493225098, -0.14005997776985168, 0.11306711286306381, -0.17329102754592896, 0.14586351811885834, 0.067488893866539, -0.02797730453312397], [0.02031777799129486, -0.18693219125270844, 0.10849055647850037, 0.01633375510573387, -0.14691480994224548, 0.13611140847206116, -0.13702532649040222, 0.265080988407135, -0.010036138817667961, -0.0654257982969284], [0.08982383459806442, -0.08485983312129974, 0.0025736941024661064, 0.06762140244245529, -0.2472674399614334, 0.00568400276824832, -0.16511647403240204, 0.283902645111084, 0.16719204187393188, -0.11955492198467255], [0.0436815470457077, -0.02874743938446045, 0.0001863500801846385, 0.09204363822937012, -0.24422582983970642, -0.08279181271791458, -0.21964621543884277, 0.12441274523735046, 0.17697028815746307, 0.1381158083677292], [0.1388067901134491, -0.025573978200554848, 0.06501276046037674, 0.1955876350402832, -0.40061840415000916, -0.1174190416932106, -0.2680129110813141, 0.18408265709877014, -0.098934605717659, 0.32707008719444275], [0.20684902369976044, 0.012953287921845913, 0.04405215010046959, 0.19507315754890442, -0.3962615430355072, -0.18777477741241455, -0.31061115860939026, 0.24553728103637695, -0.06291200965642929, 0.25309282541275024], [0.3405856788158417, -0.1157464012503624, -0.021422691643238068, 0.09958919882774353, -0.3790847659111023, -0.08241978287696838, -0.35358723998069763, 0.2656932771205902, 0.08253443241119385, 0.16385722160339355], [0.25206321477890015, 0.024328114464879036, -0.05610872805118561, 0.13124899566173553, -0.2074613720178604, -0.030624985694885254, -0.37697890400886536, 0.25046417117118835, -0.015049010515213013, 0.028117891401052475], [0.17064137756824493, -0.09904064238071442, -0.11651714891195297, 0.19705532491207123, -0.07888296246528625, -0.03668777644634247, -0.4859079420566559, 0.3068435490131378, 0.07021690905094147, 0.07227706909179688], [0.11521483957767487, -0.08897008001804352, 0.056493185460567474, 0.1197311282157898, -0.0720546543598175, 0.05660008266568184, -0.4430961012840271, 0.17028331756591797, 0.0928063914179802, -0.0070076812990009785], [0.10559320449829102, -0.12933240830898285, -0.0075249457731842995, 0.1424165666103363, -0.07923471182584763, 0.1536111980676651, -0.3356648087501526, 0.16088591516017914, 0.0374615415930748, -0.048212215304374695], [0.062257494777441025, -0.1621900498867035, -0.04529057443141937, 0.11000454425811768, -0.04161624610424042, 0.13469834625720978, -0.2763431668281555, 0.035615261644124985, 0.10681496560573578, 0.07604847848415375], [0.17940141260623932, -0.18954917788505554, -0.05665073171257973, 0.06532846391201019, 0.02004009671509266, 0.13898378610610962, -0.31129857897758484, 0.09268846362829208, 0.1639144867658615, -0.10285915434360504], [0.23852218687534332, -0.25313663482666016, -0.11340278387069702, -0.2738843262195587, 0.09371525794267654, 0.5062839984893799, -0.2776341438293457, 0.007764405570924282, 0.2766536772251129, -0.2048824578523636], [-0.010983521118760109, -0.2265462726354599, -0.2054777443408966, -0.20208445191383362, 0.023353468626737595, 0.7756441831588745, -0.16822674870491028, -0.09531120210886002, 0.2699073553085327, -0.16027316451072693], [-0.1402135193347931, -0.09838438779115677, -0.07467194646596909, -0.048651475459337234, -0.004525212571024895, 0.5503249168395996, -0.09397928416728973, -0.06288135796785355, 0.05817153677344322, -0.08518802374601364], [-0.045267485082149506, -0.008983361534774303, -0.00982899684458971, -0.004203065298497677, -0.024572689086198807, 0.14272964000701904, -0.04487835243344307, -0.01392457913607359, 0.02968727797269821, -0.020758219063282013], [-0.0026771703269332647, -0.0014447460416704416, -0.0008267227094620466, -7.067867409205064e-05, -0.0010470901615917683, 0.008399204351007938, -0.0039436062797904015, -0.0024175613652914762, 0.005196321289986372, -0.0011679508024826646], [-5.972382041363744e-06, -6.431138899642974e-06, -5.664938271365827e-06, -7.371642277576029e-05, -0.0003365901648066938, -4.409133907756768e-05, -5.931788109592162e-06, 0.0012170528061687946, -2.5699593606987037e-05, -0.0007129550795070827], [-0.0004435995069798082, -7.968591671669856e-05, -0.00041556436917744577, -0.0016290077473968267, -0.005975672043859959, -0.0008861119276843965, -0.00014460095553658903, 0.02677961438894272, -0.0012537701986730099, -0.0159516092389822], [0.00020679563749581575, -0.001413096790201962, -0.001801178907044232, 0.009331741370260715, -0.007473106030374765, -0.005887874402105808, -0.0034581609070301056, 0.06594645231962204, -0.011879269033670425, -0.04357236623764038], [-0.003037997055798769, -0.00363173452205956, 0.027012420818209648, 0.0755963921546936, -0.053042933344841, -0.07630299776792526, -0.02698926441371441, 0.18948709964752197, -0.019354060292243958, -0.10973513126373291], [-0.05031674727797508, -0.028186092153191566, 0.08916748315095901, 0.24680595099925995, -0.07296072691679001, -0.22420595586299896, -0.021549196913838387, 0.24628204107284546, 0.016066480427980423, -0.20110081136226654], [-0.054482102394104004, -0.09107920527458191, 0.17186245322227478, 0.14392878115177155, -0.027450095862150192, -0.20561295747756958, -0.11962056159973145, 0.19578810036182404, 0.09311765432357788, -0.10645127296447754], [-0.0703587681055069, -0.12376897037029266, 0.05850347504019737, 0.09334555268287659, -0.08315850049257278, -0.07397991418838501, -0.1350429803133011, 0.126357764005661, 0.15798430144786835, 0.05011891946196556], [-0.07991378009319305, -0.13302358984947205, -0.000502162380144, 0.07172366976737976, -0.06366253644227982, 0.032086148858070374, -0.04051278531551361, 0.09097053855657578, 0.13324406743049622, -0.010408779606223106], [-0.059316281229257584, -0.20982785522937775, -0.03485807031393051, 0.019210461527109146, -0.05045469105243683, 0.15269862115383148, -0.050600629299879074, 0.06046096608042717, 0.13146767020225525, 0.04121982678771019], [0.021976597607135773, -0.2698017954826355, 0.07790336012840271, -0.046006154268980026, -0.008497785776853561, 0.09047934412956238, -0.12920251488685608, 0.07095635682344437, 0.19014132022857666, 0.0020521939732134342], [0.06423494219779968, -0.19569511711597443, 0.16744665801525116, -0.15181435644626617, -0.1236623153090477, 0.18180382251739502, -0.17408567667007446, 0.0072454167529940605, 0.13178560137748718, 0.0927400141954422], [-0.03138093277812004, -0.0939464122056961, 0.078447625041008, -0.29459500312805176, -0.09771594405174255, 0.2900732159614563, -0.12246939539909363, 0.12682664394378662, 0.11232076585292816, 0.032437700778245926], [0.023295225575566292, -0.06405674666166306, 0.04432513937354088, -0.2396174967288971, -0.08319922536611557, 0.17676539719104767, -0.17473603785037994, 0.23207995295524597, 0.06635478883981705, 0.018788445740938187], [0.1452523022890091, 0.059876151382923126, 0.052700258791446686, -0.08066263794898987, -0.1683751344680786, -0.014001085422933102, -0.2637558579444885, 0.18498772382736206, 0.023256124928593636, 0.06072313338518143], [0.06228019669651985, 0.2128688395023346, 0.12087921798229218, 0.21441134810447693, -0.5409759879112244, -0.180092915892601, -0.192402645945549, 0.3299601078033447, -0.20637360215187073, 0.1794450283050537], [0.014887736178934574, 0.3689323365688324, 0.15950776636600494, 0.32686808705329895, -0.3968833386898041, -0.3208220601081848, -0.335348904132843, 0.3401075303554535, -0.3581651747226715, 0.20091384649276733], [0.17597843706607819, 0.13212430477142334, 0.1541120857000351, 0.23383231461048126, -0.11774368584156036, -0.3191896975040436, -0.4521496295928955, 0.3453798294067383, -0.16203279793262482, 0.009694725275039673], [0.26669272780418396, 0.023588353767991066, 0.029982343316078186, 0.16016459465026855, -0.057596512138843536, -0.20648455619812012, -0.543812096118927, 0.3543626070022583, -0.016967786476016045, -0.009931151755154133], [0.23016947507858276, -0.10565529018640518, 0.044352032244205475, 0.12106594443321228, 0.010750828310847282, -0.11704472452402115, -0.5292928218841553, 0.247146338224411, 0.0258932001888752, 0.07261447608470917], [0.2155323475599289, -0.18913966417312622, 0.018260804936289787, 0.15571562945842743, -0.02470894530415535, -0.06083711236715317, -0.4698789119720459, 0.2507432997226715, 0.08287714421749115, 0.021433750167489052], [0.1384786069393158, -0.25120651721954346, -0.03286394849419594, 0.25176939368247986, -0.021503150463104248, 0.026061490178108215, -0.33804067969322205, 0.13538430631160736, 0.08758815377950668, 0.004332533571869135], [0.018672535195946693, -0.2683905065059662, -0.08638806641101837, 0.19909067451953888, -0.019226472824811935, 0.19711564481258392, -0.2595461308956146, 0.18986426293849945, 0.12350798398256302, -0.09469962865114212], [0.11332227289676666, -0.29637816548347473, -0.013100392185151577, 0.1274574249982834, -0.03353835269808769, 0.2566486597061157, -0.33570143580436707, 0.11579423397779465, 0.18018004298210144, -0.11468334496021271], [0.30680203437805176, -0.2841235399246216, -0.11870691180229187, -0.1541953682899475, -0.06795044988393784, 0.5763646960258484, -0.2512032389640808, -0.055466193705797195, 0.24846695363521576, -0.19998405873775482], [0.09579978138208389, -0.1852283626794815, -0.2022152841091156, -0.16992811858654022, -0.17837202548980713, 0.9602618217468262, -0.20050571858882904, -0.08780574053525925, 0.12890826165676117, -0.16090799868106842], [-0.13880516588687897, -0.07923427224159241, -0.06298018246889114, -0.034173909574747086, -0.11951985955238342, 0.6941947937011719, -0.15078000724315643, -0.04142101854085922, 0.015552300959825516, -0.08282884955406189], [-0.04582341015338898, -0.009220587089657784, -0.006448810920119286, -0.005598623771220446, -0.03825412690639496, 0.15684425830841064, -0.058908093720674515, -0.00418191310018301, 0.038815874606370926, -0.027224192395806313], [-0.0009862742153927684, -0.0012116354191675782, -0.000771474267821759, -0.00026083033299073577, -0.0034575092140585184, 0.011053623631596565, -0.003414781065657735, 0.012747136875987053, -0.01171255111694336, -0.0019857161678373814], [-9.32322654989548e-06, -7.5785410444950685e-06, -1.022540163830854e-05, -0.00011174277460668236, -0.0003954338317271322, -5.7095825468422845e-05, -7.175298833317356e-06, 0.001685617258772254, -3.4081949706887826e-05, -0.0010529601713642478], [-0.0005292414571158588, -6.202601070981473e-05, -0.00025372227537445724, -0.0015863715671002865, -0.005734019447118044, -0.000974683731328696, -0.00015141526819206774, 0.02717527560889721, -0.0008008371805772185, -0.017082957550883293], [0.007736647967249155, -0.0009550684480927885, -0.0016007976373657584, 0.0037267717998474836, -0.019349899142980576, -0.006198178976774216, -0.00973567459732294, 0.09080150723457336, -0.009820042178034782, -0.054604966193437576], [-0.009729656390845776, -0.014410614036023617, 0.03521732613444328, 0.10351727157831192, -0.06248413026332855, -0.06303771585226059, -0.029647592455148697, 0.17940673232078552, -0.03772163391113281, -0.10110855102539062], [-0.04466453567147255, -0.029936952516436577, -0.005813088268041611, 0.12090860307216644, -0.07950206100940704, -0.11202075332403183, -0.04521367326378822, 0.25636613368988037, 0.07642588764429092, -0.13654747605323792], [-0.03866979107260704, -0.0911625549197197, 0.09654446691274643, 0.0005842550308443606, -0.09551575034856796, -0.09846842288970947, -0.10248898714780807, 0.20382438600063324, 0.0984332412481308, 0.026920141652226448], [-0.06410979479551315, -0.15294815599918365, 0.09593496471643448, -0.05858568102121353, -0.1198248341679573, 0.021535605192184448, -0.09044105559587479, 0.06387701630592346, 0.15086182951927185, 0.1537010669708252], [-0.06332674622535706, -0.14923861622810364, -0.08743308484554291, -0.12816736102104187, -0.04936661571264267, 0.1552555114030838, 0.017284682020545006, 0.05082297325134277, 0.19221042096614838, 0.061960238963365555], [-0.04544960707426071, -0.1620582789182663, -0.07911740988492966, -0.2614622414112091, 0.008080321364104748, 0.24747373163700104, 0.02364148572087288, -0.07102442532777786, 0.17247678339481354, 0.16743846237659454], [0.014014659449458122, -0.21152468025684357, -0.1313977837562561, -0.3837006390094757, 0.13050317764282227, 0.2937835156917572, -0.08948211371898651, 0.019827010110020638, 0.24374331533908844, 0.11423209309577942], [-0.05850633606314659, -0.1080232784152031, -0.09524703770875931, -0.4285518229007721, 0.059917956590652466, 0.2427539825439453, -0.048699915409088135, 0.014812342822551727, 0.26223519444465637, 0.15930922329425812], [0.0020651505328714848, -0.020436594262719154, -0.10421434044837952, -0.46333783864974976, 0.04890130087733269, 0.25672346353530884, -0.08267083019018173, -0.04306856542825699, 0.21095438301563263, 0.19508317112922668], [0.00495131453499198, 0.0005185683839954436, -0.15674449503421783, -0.39540162682533264, 0.16026246547698975, 0.2921057641506195, -0.16003181040287018, -0.05312154069542885, 0.17091190814971924, 0.13654854893684387], [0.0627976655960083, 0.2068077027797699, -0.2325902283191681, 0.009234542958438396, -0.22900095582008362, 0.1722835898399353, -0.08233360946178436, 0.16941285133361816, 0.04422564432024956, -0.12083659321069717], [-0.03047846257686615, 0.48108696937561035, -0.07949405908584595, 0.21711254119873047, -0.6662423610687256, 0.04126681759953499, -0.2066701203584671, 0.31895023584365845, -0.05496547743678093, -0.020571380853652954], [-0.1438196897506714, 0.5984582304954529, -0.09588787704706192, 0.2074914425611496, -0.19548054039478302, -0.1089337021112442, -0.39539551734924316, 0.44330814480781555, -0.25118109583854675, -0.058558300137519836], [-0.0571584478020668, 0.21972841024398804, 0.019164036959409714, 0.2204969823360443, -0.004190913401544094, -0.2050991803407669, -0.42438605427742004, 0.5193454027175903, -0.29257071018218994, 0.004672607872635126], [0.1661577969789505, 0.03236568346619606, 0.0766565203666687, 0.19343586266040802, 0.05547228455543518, -0.3176616132259369, -0.42737558484077454, 0.3351728022098541, -0.16047698259353638, 0.04625239968299866], [0.20281271636486053, -0.16007891297340393, 0.06433041393756866, 0.16987141966819763, -0.018634306266903877, -0.3059385120868683, -0.4091629683971405, 0.30542707443237305, 0.09644391387701035, 0.05493123084306717], [0.12870967388153076, -0.19670000672340393, 0.0025669753085821867, 0.21212626993656158, 0.0342491939663887, -0.24616767466068268, -0.3755664825439453, 0.29842713475227356, 0.1361335813999176, 0.006223108619451523], [0.15041102468967438, -0.2920592129230499, -0.04815192520618439, 0.2843211591243744, -0.10874006897211075, -0.1204674243927002, -0.25089049339294434, 0.2873736023902893, 0.06656571477651596, 0.03163529187440872], [0.09144261479377747, -0.271065890789032, -0.06688478589057922, 0.14523214101791382, -0.07987717539072037, 0.003801849205046892, -0.210759699344635, 0.2976692318916321, 0.106415756046772, -0.015973065048456192], [0.1903412640094757, -0.25540056824684143, -0.04648730531334877, 0.03803813084959984, -0.11624493449926376, 0.10049426555633545, -0.21672280132770538, 0.1513332724571228, 0.19105324149131775, -0.03640652075409889], [0.3485904932022095, -0.21978434920310974, -0.1125478520989418, -0.09257856756448746, -0.27029508352279663, 0.4583892524242401, -0.1165139377117157, -0.10865028947591782, 0.21720804274082184, -0.1038154661655426], [0.1597299724817276, -0.15200261771678925, -0.14566069841384888, -0.11605846881866455, -0.22527171671390533, 0.8740415573120117, -0.16129106283187866, -0.09730909019708633, 0.02825017459690571, -0.164422869682312], [-0.13427557051181793, -0.05318257585167885, -0.03874030336737633, -0.019693853333592415, -0.14167803525924683, 0.7292328476905823, -0.1786404550075531, -0.032662611454725266, -0.05519862845540047, -0.07515781372785568], [-0.05547088384628296, -0.012401146814227104, 0.002841999288648367, -0.0034659297671169043, -0.04098684713244438, 0.18866708874702454, -0.05743609368801117, -0.0045907506719231606, 0.007746817544102669, -0.02490374818444252], [-0.0005449347663670778, 0.0001706536131678149, -0.0004848889948334545, -8.520919072907418e-05, -0.0010349266231060028, 0.0057375188916921616, -0.008237697184085846, 0.0022888334933668375, 0.005619298666715622, -0.0034286475274711847], [-3.3477728720754385e-05, -6.7281875999469776e-06, -1.8191936760558747e-05, -8.351326687261462e-05, -8.517994137946516e-05, -6.376128294505179e-05, -1.2902839443995617e-05, 0.000923577812500298, -3.26260706060566e-05, -0.00058719702064991], [0.001942528411746025, 0.00020565424347296357, -0.0003564812650438398, -0.00157884880900383, -0.011178151704370975, -0.004107125103473663, -0.0002849723387043923, 0.039492715150117874, -0.0010710177011787891, -0.02306429110467434], [-0.0027455082163214684, -0.0003055640554521233, -0.0027585646603256464, 0.0023314147256314754, -0.0514640174806118, -0.009831462986767292, -0.0011980778072029352, 0.15179592370986938, -0.006557955406606197, -0.07926595956087112], [-0.012098238803446293, -0.009688231162726879, -0.011589588597416878, 0.08157137781381607, -0.05825451388955116, -0.06506574898958206, -0.02908909134566784, 0.21345798671245575, -0.015424301847815514, -0.09381873905658722], [-0.09423790127038956, -0.015925416722893715, -0.07150426506996155, 0.05172166973352432, -0.11221934109926224, -0.04931115731596947, -0.03419037535786629, 0.2796344459056854, 0.04593833535909653, 9.64404534897767e-05], [-0.08258061110973358, -0.0516355037689209, -0.10669362545013428, -0.13015642762184143, -0.08263518661260605, -0.0050287507474422455, -0.023914476856589317, 0.13673323392868042, 0.15441182255744934, 0.1914999932050705], [-0.01648208498954773, -0.13089965283870697, -0.2073984295129776, -0.24722962081432343, -0.00867885909974575, 0.1732277125120163, -0.017544571310281754, 0.03571164980530739, 0.19483253359794617, 0.22446009516716003], [0.00850090105086565, -0.15252965688705444, -0.32789739966392517, -0.3928547203540802, 0.043075963854789734, 0.16003826260566711, 0.1071762889623642, 0.08322019875049591, 0.32003268599510193, 0.1512344926595688], [-0.01585390418767929, -0.16452252864837646, -0.3548806607723236, -0.42488187551498413, 0.1509091705083847, 0.16434355080127716, 0.05324434116482735, -0.03197293356060982, 0.2647525668144226, 0.35886213183403015], [-0.08428094536066055, -0.20359845459461212, -0.3979411721229553, -0.39834198355674744, 0.273042768239975, 0.15778318047523499, 0.07623297721147537, 0.1016194224357605, 0.3072521984577179, 0.16823267936706543], [-0.05482987314462662, -0.1627039909362793, -0.5521659851074219, -0.3023214638233185, 0.3155556917190552, 0.13790656626224518, 0.04451613128185272, 0.14361515641212463, 0.21086636185646057, 0.21955962479114532], [-0.05033130571246147, -0.15365438163280487, -0.5405589938163757, -0.19607223570346832, 0.24278433620929718, 0.15343552827835083, -0.005367903504520655, 0.11438480764627457, 0.16438347101211548, 0.2709980607032776], [-0.07276292145252228, -0.05561503395438194, -0.6105941534042358, -0.0777762234210968, 0.32039549946784973, 0.26402056217193604, 0.07902992516756058, -0.0383744016289711, 0.17417071759700775, 0.01750676892697811], [-0.05138491466641426, 0.24557439982891083, -0.6515442132949829, 0.15793824195861816, -0.4184029698371887, 0.3989821672439575, 0.08860181272029877, 0.04183996468782425, 0.2718321979045868, -0.08343815803527832], [-0.3111550807952881, 0.6497287750244141, -0.4694766402244568, 0.16983628273010254, -0.5932403206825256, 0.11619607359170914, -0.20540758967399597, 0.23962323367595673, 0.3944195508956909, 0.009477658197283745], [-0.494937002658844, 0.6370090842247009, -0.36068195104599, 0.18529389798641205, 0.06464912742376328, -0.09836088865995407, -0.4357064962387085, 0.3880317211151123, -0.01374442782253027, 0.12844693660736084], [-0.439054399728775, 0.18802234530448914, -0.16311362385749817, 0.07578697055578232, 0.3187216818332672, -0.15956422686576843, -0.2833693027496338, 0.4250165820121765, -0.17973345518112183, 0.21728743612766266], [-0.10290512442588806, -0.0370548814535141, -0.20230750739574432, 0.19265924394130707, 0.11850043386220932, -0.18522515892982483, -0.28312209248542786, 0.3328656554222107, -0.15135420858860016, 0.31794416904449463], [-0.028696950525045395, -0.07404538989067078, -0.07192230224609375, 0.14966432750225067, -0.039975233376026154, -0.1862282007932663, -0.23541027307510376, 0.3468500077724457, -0.09529247134923935, 0.23505884408950806], [0.08614122122526169, -0.16775773465633392, 0.08962896466255188, 0.16648726165294647, -0.04283227026462555, -0.3420715034008026, -0.19812539219856262, 0.18873770534992218, 0.004540060181170702, 0.21525077521800995], [0.1293664574623108, -0.18964575231075287, -0.052016228437423706, 0.21472720801830292, -0.13305018842220306, -0.47870928049087524, -0.11848083883523941, 0.2265413999557495, 0.028880517929792404, 0.372386634349823], [0.1641424298286438, -0.16803814470767975, -0.02436525747179985, -0.04409180209040642, -0.11658074706792831, -0.4128793478012085, -0.01336445938795805, 0.22967472672462463, 0.12094027549028397, 0.2645610570907593], [0.2187052071094513, -0.13415448367595673, -0.07031281292438507, -0.08969518542289734, -0.16735148429870605, -0.38070541620254517, 0.041198428720235825, 0.12083709985017776, 0.2803703844547272, 0.18110768496990204], [0.31556570529937744, -0.10240788757801056, -0.11290597170591354, -0.12203383445739746, -0.24597541987895966, -0.08134082704782486, 0.14945952594280243, -0.09341713786125183, 0.3201068639755249, -0.02704966813325882], [0.22486238181591034, -0.07470951974391937, -0.06813637167215347, -0.08688891679048538, -0.1988307237625122, 0.2287214696407318, -0.02888038195669651, -0.08623528480529785, 0.20600980520248413, -0.11590950936079025], [-0.07365309447050095, -0.03673745319247246, 0.018842732533812523, -0.005512572359293699, -0.09052305668592453, 0.3676571846008301, -0.13978736102581024, -0.03123553656041622, 0.049729734659194946, -0.058778099715709686], [-0.03391129896044731, -0.010067376308143139, 0.007369226776063442, -0.0016654565697535872, -0.012650820426642895, 0.10155879706144333, -0.07060583680868149, -0.008543014526367188, 0.04635397717356682, -0.017837969586253166], [-0.00037412942037917674, 0.0012765200808644295, -0.00015454331878572702, -3.475469202385284e-05, -0.0006192795699462295, 0.0033305420074611902, -0.004977913107722998, -0.0005159080610610545, 0.003410377772524953, -0.001340910792350769], [-2.0450374904612545e-06, -7.024652859399794e-08, -4.506578989094123e-06, -2.11982915061526e-05, -3.2426530651719077e-06, -7.108279532985762e-06, -1.2217991240959236e-07, 0.0008461427642032504, -1.0719850251916796e-05, -0.0007971295854076743], [-0.00010960952204186469, -7.753192767268047e-05, -4.3566058593569323e-05, -0.0018393697682768106, -0.014484011568129063, -0.004925284534692764, -0.00027836801018565893, 0.039085421711206436, -0.0005931691266596317, -0.016734536737203598], [-0.0023216665722429752, -0.0007858847384341061, -0.0006866494659334421, -0.00580435898154974, -0.051560644060373306, -0.008681096136569977, -0.0009659536881372333, 0.14700214564800262, -0.004320281557738781, -0.0718754306435585], [-0.017132461071014404, -0.001042594201862812, -0.04770834743976593, 0.00596659304574132, -0.08564908057451248, -0.028798839077353477, -0.024157065898180008, 0.24669431149959564, 0.013827956281602383, -0.06199972704052925], [-0.0867689996957779, 0.0005780149949714541, -0.1286064088344574, -0.041374120861291885, -0.14819501340389252, 0.002349480288103223, -0.04691467434167862, 0.2744121253490448, 0.0184033140540123, 0.15611983835697174], [-0.030614277347922325, -0.03409583494067192, -0.34680867195129395, -0.18664850294589996, -0.04825975373387337, 0.054470669478178024, -0.006632944103330374, 0.1638457477092743, 0.14376811683177948, 0.2909761071205139], [0.09871912747621536, -0.06626445055007935, -0.587203860282898, -0.3000630736351013, 0.11783690005540848, 0.1937512904405594, 0.10894794017076492, 0.03442823886871338, 0.1266718953847885, 0.273176372051239], [0.05883564054965973, -0.09246108680963516, -0.6623702049255371, -0.35339123010635376, 0.23560594022274017, 0.12314003705978394, 0.15722623467445374, 0.1772003024816513, 0.18705205619335175, 0.1691613793373108], [-0.011494462378323078, -0.12932029366493225, -0.47769394516944885, -0.3334580659866333, 0.3239012360572815, 0.05853097140789032, 0.11167512089014053, 0.1803661435842514, 0.07856613397598267, 0.19892817735671997], [-0.018889084458351135, -0.1542872190475464, -0.4895349442958832, -0.15280646085739136, 0.2586669325828552, -0.010017179884016514, 0.15097780525684357, 0.016783442348241806, 0.13209033012390137, 0.2670174837112427], [0.0066915336064994335, -0.27481964230537415, -0.5277014970779419, 0.02738872915506363, 0.40604132413864136, 0.19351105391979218, 0.04855267331004143, -0.04429813474416733, -0.055681705474853516, 0.22031421959400177], [0.0192075427621603, -0.35860610008239746, -0.49924492835998535, -0.05628097802400589, 0.5285155177116394, 0.2432863861322403, 0.18974988162517548, -0.12632480263710022, -0.044216591864824295, 0.10391489416360855], [0.07465463876724243, -0.0591641403734684, -0.5039395689964294, 0.028834594413638115, 0.5467232465744019, 0.27938881516456604, 0.18741820752620697, -0.47578540444374084, 0.12276478111743927, -0.20089413225650787], [-0.09228937327861786, 0.24145644903182983, -0.4474131762981415, 0.13919106125831604, -0.11089790612459183, 0.29504823684692383, 0.11134686321020126, -0.5707907676696777, 0.4184926152229309, 0.015857966616749763], [-0.489253431558609, 0.7758172750473022, -0.4199731647968292, 0.34817931056022644, -0.3464024066925049, -0.00662589306011796, -0.20947206020355225, -0.15861739218235016, 0.2655293643474579, 0.24082261323928833], [-0.6546985507011414, 0.5064981579780579, -0.3985791504383087, 0.16905930638313293, 0.17705444991588593, -0.10840476304292679, -0.24919679760932922, 0.23978060483932495, 0.05763915553689003, 0.2608475983142853], [-0.5559329390525818, 0.12514230608940125, -0.2695508301258087, 0.08563623577356339, 0.3420974314212799, -0.3203066885471344, -0.08182726800441742, 0.4002082049846649, -0.0036757192574441433, 0.27820903062820435], [-0.18871450424194336, 0.0644662007689476, -0.24725353717803955, 0.06703080981969833, 0.09824365377426147, -0.3245835304260254, -0.11520121246576309, 0.33443790674209595, -0.003132100682705641, 0.3147065341472626], [-0.033137187361717224, -0.05861108377575874, -0.13932253420352936, 0.11602490395307541, 0.010982710868120193, -0.2529536485671997, -0.15362390875816345, 0.2540847361087799, -0.07101984322071075, 0.32757753133773804], [0.03472306951880455, -0.15924131870269775, 0.09242452681064606, -0.009378205984830856, 0.06363467127084732, -0.29194265604019165, -0.19222521781921387, 0.007704524789005518, 0.08494676649570465, 0.3693530261516571], [0.026651987805962563, -0.12842488288879395, -0.02823510766029358, -0.08882072567939758, 0.06686893105506897, -0.41841965913772583, -0.08204468339681625, 0.08318515121936798, 0.1855403482913971, 0.38369759917259216], [0.1078353151679039, -0.08044739812612534, -0.020769089460372925, -0.302847295999527, 0.10053165256977081, -0.616374671459198, 0.09198752045631409, 0.06322384625673294, 0.2962935268878937, 0.360566109418869], [0.28350433707237244, -0.06542964279651642, -0.10895625501871109, -0.23758399486541748, 0.008262800984084606, -0.7117475271224976, 0.2647053003311157, 0.01896607130765915, 0.2966648042201996, 0.2516167461872101], [0.36324238777160645, -0.03991122171282768, -0.2087678760290146, -0.14152634143829346, -0.12289465218782425, -0.5894702672958374, 0.39343157410621643, -0.07042434066534042, 0.33411312103271484, 0.08220884948968887], [0.3103116452693939, -0.03074614144861698, 0.013873009942471981, -0.05734295770525932, -0.07720941305160522, -0.3877575099468231, 0.16313600540161133, -0.06053569167852402, 0.2411651462316513, -0.1148894727230072], [-0.0026735845021903515, -0.0161517895758152, 0.09854856133460999, 0.00174969423096627, -0.023397350683808327, 0.007126794196665287, -0.07566100358963013, 0.005504943896085024, 0.06053062900900841, -0.05557626485824585], [-0.015892663970589638, -0.00842135027050972, 0.05527820438146591, -0.0003790870832744986, -0.007424101699143648, 0.042633093893527985, -0.06892223656177521, 0.008393478579819202, 0.013158653862774372, -0.018423929810523987], [-0.0001152174299932085, 0.0009008841007016599, 0.005873061250895262, -4.610455653164536e-05, -0.003026108955964446, -0.0009376468369737267, -0.0037708086892962456, 0.004503580275923014, -0.00276085059158504, -0.0006207871483638883], [-5.25496979264517e-08, 3.520408063195646e-05, -4.609704774338752e-06, -1.069685458787717e-05, -2.8704926080536097e-07, -1.3348153515835293e-06, -1.534368152533716e-06, -4.231855200487189e-06, -5.881146080355393e-06, -6.575766747118905e-06], [0.00033870659535750747, -1.717653140076436e-05, -3.5332239349372685e-05, -0.001203613355755806, -0.010776500217616558, -0.0011679468443617225, -0.0002869007585104555, 0.02188391238451004, -0.00014329096302390099, -0.008591858670115471], [-0.0014113239012658596, -0.00025703455321490765, -0.00033346793497912586, -0.0037330363411456347, -0.031513672322034836, -0.0030430664774030447, -0.0003855218237731606, 0.08929569274187088, -0.0012577063171193004, -0.04736081138253212], [-0.012806949205696583, 0.002437806921079755, -0.05684789642691612, -0.0029730943497270346, -0.06568674743175507, -0.002873231191188097, -0.020538553595542908, 0.17661762237548828, 0.0079503133893013, -0.025278452783823013], [-0.039688896387815475, 0.004013902973383665, -0.21550823748111725, -0.09012390673160553, -0.060213979333639145, 0.03786003962159157, -0.060761142522096634, 0.1641005426645279, -0.02715051732957363, 0.2874745726585388], [0.015348756685853004, -0.02829059772193432, -0.4767397344112396, -0.18888400495052338, 0.12630519270896912, 0.10654370486736298, 0.04014335572719574, 0.08443834632635117, 0.0025612148456275463, 0.31857532262802124], [0.1792096346616745, -0.056411076337099075, -0.6619691252708435, -0.2784745991230011, 0.3088836371898651, 0.05531332269310951, 0.22172237932682037, 0.04878300055861473, -0.012472737580537796, 0.19541417062282562], [0.1998763531446457, -0.08567440509796143, -0.5731064081192017, -0.31816816329956055, 0.3147943317890167, 0.13017016649246216, 0.10208948701620102, 0.07223735004663467, -0.022857515141367912, 0.1806386411190033], [0.09052132815122604, -0.06771959364414215, -0.3560573160648346, -0.2043086290359497, 0.3166237771511078, 0.03657583147287369, 0.10259649902582169, -0.009730575606226921, -0.08531633019447327, 0.17681588232517242], [0.07609465718269348, -0.17438386380672455, -0.26624926924705505, -0.08199907094240189, 0.29177242517471313, 0.060740161687135696, 0.12178217619657516, -0.09220438450574875, -0.010722905397415161, 0.07516827434301376], [0.10231945663690567, -0.4411596357822418, -0.1601741909980774, -0.13854224979877472, 0.4023469388484955, 0.21907666325569153, 0.1636703610420227, -0.11194552481174469, -0.1205410584807396, 0.08495086431503296], [0.08730503916740417, -0.5057454109191895, -0.0283439289778471, -0.15987367928028107, 0.586693286895752, 0.26890072226524353, 0.1493615210056305, -0.4135351777076721, 0.06472042202949524, -0.049488626420497894], [0.05774668604135513, -0.13503798842430115, -0.08048254996538162, 0.07907454669475555, 0.35886678099632263, 0.3243502378463745, 0.15189126133918762, -0.8022282123565674, 0.22121413052082062, -0.1753939837217331], [-0.32362642884254456, 0.29209306836128235, 0.024601487442851067, 0.28746113181114197, -0.12036661803722382, 0.20660322904586792, 0.007014930713921785, -0.8130694627761841, 0.3537757992744446, 0.08551514148712158], [-0.578397274017334, 0.6420430541038513, -0.04829315468668938, 0.20663928985595703, -0.10063164681196213, -0.012856490910053253, -0.140456885099411, -0.27240240573883057, 0.060751765966415405, 0.24359892308712006], [-0.6823339462280273, 0.40829965472221375, -0.2408151924610138, -0.06324642151594162, 0.23511795699596405, -0.23375974595546722, 0.02947944775223732, 0.05454394221305847, 0.24434144794940948, 0.24836894869804382], [-0.5470352172851562, 0.13516108691692352, -0.25700849294662476, 0.05663037672638893, 0.2576698064804077, -0.3859733045101166, 0.04338781535625458, 0.19005025923252106, 0.10728370398283005, 0.3998357057571411], [-0.23830831050872803, 0.07323610037565231, -0.13446353375911713, 0.0979556143283844, 0.22669711709022522, -0.2384868711233139, -0.14238831400871277, 0.13356441259384155, -0.0899408683180809, 0.31213614344596863], [-0.07106418162584305, -0.19702643156051636, -0.13118283450603485, 0.14806175231933594, 0.1777646690607071, -0.1520981639623642, -0.15921185910701752, 0.114377461373806, 0.007982680574059486, 0.26239702105522156], [-0.08338433504104614, -0.20764529705047607, -0.09396226704120636, -0.065180204808712, 0.15037524700164795, -0.07827875018119812, -0.03935672715306282, 0.016306933015584946, 0.0531974732875824, 0.34792813658714294], [-0.14230598509311676, -0.13919657468795776, -0.08352581411600113, -0.32119810581207275, 0.2395010143518448, -0.10495595633983612, -0.05402752757072449, 0.13551633059978485, 0.14518198370933533, 0.3250100910663605], [0.05609826743602753, -0.09211781620979309, -0.03289387375116348, -0.3056252896785736, 0.18941375613212585, -0.29733002185821533, 0.15629316866397858, 0.05407406762242317, -0.011007922701537609, 0.2830967605113983], [0.2521914541721344, -0.07607705146074295, -0.10819412022829056, -0.28754469752311707, 0.10907630622386932, -0.375510036945343, 0.34776127338409424, -0.0007272291113622487, 0.04409109801054001, 0.094932422041893], [0.36546459794044495, -0.06568847596645355, -0.11940320581197739, -0.14710313081741333, -0.03423469886183739, -0.46866607666015625, 0.48866984248161316, 0.0026368123944848776, 0.09327301383018494, -0.1149461418390274], [0.27108901739120483, -0.05194815620779991, 0.13334783911705017, -0.0508776418864727, -0.08560537546873093, -0.34277647733688354, 0.2347569465637207, 0.013646688312292099, 0.05293432995676994, -0.17456331849098206], [0.031876157969236374, -0.026767631992697716, 0.20907701551914215, -0.004739541560411453, -0.0018893018132075667, -0.0667569488286972, -0.08540235459804535, 0.01796266995370388, 0.007016888819634914, -0.08037609606981277], [-0.004919819999486208, -0.011195735074579716, 0.1306692510843277, -0.0007634834037162364, -0.007138097658753395, -0.002326957881450653, -0.07460964471101761, 0.0007999361259862781, -0.008094570599496365, -0.022420912981033325], [-0.0008788810227997601, -0.0003804451262112707, 0.036499179899692535, -0.0012616667663678527, -0.009148954413831234, -0.007606692612171173, -0.012619277462363243, -0.0019903574138879776, -0.0016994113102555275, -0.0009134893771260977], [-4.260483183315955e-05, -1.4824884146946715e-06, -9.51711626839824e-06, -0.0008651531534269452, -3.407037729630247e-05, 0.0031111070420593023, -6.70082590659149e-05, -3.3352149330312386e-05, -0.00016823179612401873, -0.0018896869150921702], [-8.005461131688207e-05, -8.575289939471986e-06, -0.004407267551869154, 0.004555088933557272, -0.005834868177771568, -0.0006089480593800545, -3.352101703057997e-05, 0.010878433473408222, -0.00043237951467745006, -0.004027903079986572], [-0.0009489064104855061, 0.0002933204232249409, -0.003137612482532859, 0.0015954714035615325, -0.0144538264721632, -0.0014407512499019504, -9.046604827744886e-05, 0.04735927656292915, -0.0006577683379873633, -0.02851872146129608], [-0.03005417436361313, 0.004929664544761181, -0.04782237857580185, 0.0062436992302536964, -0.01118129026144743, 0.001691505080088973, -0.013343913480639458, 0.08502038568258286, -0.008515484631061554, 0.013032387010753155], [-0.03361980989575386, 0.006467374972999096, -0.15436019003391266, -0.041388124227523804, 0.13598771393299103, 0.018932582810521126, -0.11270574480295181, 0.05657820403575897, -0.06786248832941055, 0.19197332859039307], [0.13740837574005127, -0.03549673780798912, -0.37010303139686584, -0.17285697162151337, 0.2885623574256897, -0.004213737789541483, 0.02486838400363922, 0.05451419577002525, -0.07927823811769485, 0.15659652650356293], [0.1935819536447525, -0.06555311381816864, -0.297909140586853, -0.2872520387172699, 0.30834731459617615, -0.026276376098394394, 0.17714771628379822, -0.030200742185115814, -0.15880461037158966, 0.1869198977947235], [0.2826286852359772, -0.09650619328022003, -0.13768093287944794, -0.29864591360092163, 0.3484523892402649, 0.0038199222180992365, 0.10090358555316925, -0.04589653015136719, -0.2896249294281006, 0.13254766166210175], [0.17877379059791565, -0.0859457403421402, -0.0898774266242981, -0.19979000091552734, 0.3133600354194641, 0.07573762536048889, 0.13334962725639343, -0.143968865275383, -0.2676132023334503, 0.0859730914235115], [0.17306950688362122, -0.22923193871974945, -0.03499208763241768, -0.11026933044195175, 0.2600758671760559, 0.16983886063098907, 0.18791241943836212, -0.22683779895305634, -0.21163059771060944, 0.02206679992377758], [0.11378376930952072, -0.48636743426322937, 0.05680529400706291, -0.16716408729553223, 0.31271424889564514, 0.24550464749336243, 0.2266831398010254, -0.2669210135936737, -0.036208782345056534, 0.0011698076268658042], [0.14544831216335297, -0.48662373423576355, 0.09194733202457428, -0.1724204272031784, 0.37658628821372986, 0.0738520473241806, 0.33480891585350037, -0.5321446061134338, 0.2003013640642166, -0.031754299998283386], [0.024709856137633324, -0.04341248795390129, 0.045867372304201126, 0.11010371148586273, 0.21031446754932404, 0.09609296172857285, 0.15961091220378876, -0.756706714630127, 0.23869258165359497, -0.08527466654777527], [-0.34593990445137024, 0.34232574701309204, 0.22420300543308258, 0.09382936358451843, -0.1260863095521927, 0.05203940346837044, -0.0562298558652401, -0.5861097574234009, 0.373649537563324, 0.028321562334895134], [-0.6107901930809021, 0.5602722764015198, 0.07579737156629562, 0.10353396832942963, -0.04950067400932312, -0.068459153175354, -0.054562829434871674, -0.2018222063779831, 0.22082504630088806, 0.024705586954951286], [-0.6371769905090332, 0.36845457553863525, -0.12263082712888718, 0.025355853140354156, 0.1531973034143448, -0.1657693088054657, 0.07097014039754868, -0.04073697328567505, 0.16979679465293884, 0.17853865027427673], [-0.5663760304450989, 0.121648408472538, -0.09788823127746582, 0.0010847002267837524, 0.3552890419960022, -0.2588590681552887, 0.0864928737282753, 0.042059388011693954, -0.029236817732453346, 0.3457876741886139], [-0.19856542348861694, -0.21697008609771729, -0.16746783256530762, 0.07342807203531265, 0.43733352422714233, -0.25504741072654724, -0.19624830782413483, 0.22368507087230682, 0.020940957590937614, 0.27891117334365845], [-0.07768122851848602, -0.36988452076911926, -0.03685415908694267, 0.04020830616354942, 0.2562400698661804, -0.150506392121315, -0.16278374195098877, 0.369206041097641, -0.02895791456103325, 0.16101308166980743], [-0.11429298669099808, -0.2849240005016327, -0.08643917739391327, -0.05995854735374451, 0.3053215444087982, -0.17558734118938446, -0.05250638350844383, 0.4161185026168823, -0.03714429959654808, 0.08941122889518738], [-0.026757458224892616, -0.18166016042232513, -0.031017985194921494, -0.16694331169128418, 0.2008351981639862, -0.04567357897758484, -0.021703999489545822, 0.27050575613975525, -0.17027677595615387, 0.17269174754619598], [0.12627001106739044, -0.11888345330953598, -0.09802467375993729, -0.07096825540065765, 0.08782730251550674, -0.10571622103452682, 0.12764297425746918, 0.15295933187007904, -0.19121181964874268, 0.0901033878326416], [0.1886148452758789, -0.08515394479036331, -0.09826835244894028, -0.1629161387681961, 0.06093836948275566, -0.09571050852537155, 0.31338071823120117, 0.19941510260105133, -0.22246801853179932, -0.097831591963768], [0.3244377076625824, -0.06312030553817749, 0.006411259062588215, -0.11133768409490585, -0.039309170097112656, -0.1831042319536209, 0.35295337438583374, 0.15057536959648132, -0.18321804702281952, -0.2542869746685028], [0.2684887647628784, -0.03557667136192322, 0.1722562164068222, -0.037078212946653366, -0.09505763649940491, -0.1751377135515213, 0.16764868795871735, 0.03701447695493698, -0.10316359251737595, -0.19939087331295013], [0.022266831248998642, -0.02102315053343773, 0.25252336263656616, -0.014458813704550266, -0.03690851852297783, -0.08330283313989639, -0.055718179792165756, -0.0007683447911404073, -0.004950086586177349, -0.05765927582979202], [-0.0028768605552613735, -0.0034078764729201794, 0.13708563148975372, -0.0061323014087975025, -0.024775302037596703, -0.011247790418565273, -0.07268036901950836, -0.0022616744972765446, -0.00617098156362772, -0.0075325132347643375], [-0.00010536709305597469, -2.4357066649827175e-05, 0.0042295861057937145, -0.0009260510560125113, -0.000991699518635869, -0.00045803029206581414, -0.0014034894993528724, -2.541416688472964e-05, -0.0002705511578824371, -2.462575321260374e-05], [-1.5758689187350683e-05, -5.854418532180716e-07, -3.2248444767901674e-06, -0.0002847645664587617, -1.5643132428522222e-05, 0.0009960199240595102, -2.25590483751148e-05, 3.1518618925474584e-05, -5.7664023188408464e-05, -0.0006273385952226818], [-8.858645742293447e-05, -1.0251970707031433e-05, -0.009634449146687984, 0.01113260630518198, -4.231667844578624e-05, -0.00040432048263028264, -1.7631442460697144e-05, -4.91595383209642e-05, -0.0008484837017022073, -3.7405756302177906e-05], [-0.0012058952124789357, 0.001984351547434926, -0.005612244363874197, 0.01256774365901947, 0.003898192895576358, -0.0021501448936760426, -0.00028641676180996, 0.013408919796347618, -0.0014216434210538864, -0.021182838827371597], [-0.03875041380524635, 0.0017414115136489272, 0.01646560989320278, 0.02185099385678768, 0.02378288470208645, -0.012106440030038357, -0.037535663694143295, 0.03309348225593567, -0.01030866988003254, 0.0017674000700935721], [0.02087518945336342, -0.00464803958311677, 0.027096331119537354, 0.03782963007688522, 0.11549273878335953, -0.02937932126224041, -0.17290112376213074, 0.0002174429246224463, -0.07184144854545593, 0.07726005464792252], [0.21969163417816162, -0.05777567997574806, 0.040433838963508606, -0.05354674905538559, 0.18523526191711426, -0.14269928634166718, -0.01816781610250473, -0.06773948669433594, -0.17108696699142456, 0.0656561553478241], [0.14010260999202728, -0.11340013891458511, 0.10684995353221893, -0.136824369430542, 0.212620347738266, -0.12841853499412537, 0.1586383432149887, -0.049617499113082886, -0.23391062021255493, 0.04395991563796997], [0.25926390290260315, -0.12206899374723434, 0.027095654979348183, -0.24370607733726501, 0.31904712319374084, -0.14776530861854553, 0.19665119051933289, -0.11174002289772034, -0.24444925785064697, 0.06767299026250839], [0.215395987033844, -0.13149303197860718, -0.001164351706393063, -0.26341795921325684, 0.3421400189399719, 0.00488045159727335, 0.1742061823606491, -0.24784936010837555, -0.17571620643138885, 0.08301683515310287], [0.22936591506004333, -0.26630476117134094, 0.03130769357085228, -0.22754962742328644, 0.31323397159576416, 0.13287921249866486, 0.17467455565929413, -0.2864563763141632, -0.05516557767987251, -0.0459865964949131], [0.265722393989563, -0.37892061471939087, 0.02217724174261093, -0.16646161675453186, 0.23008351027965546, 0.11239460855722427, 0.3016883134841919, -0.3146081268787384, -0.07607540488243103, 0.003998324275016785], [0.09295066446065903, -0.2147255390882492, -0.048973698168992996, -0.05271771550178528, 0.2641157805919647, 0.08090776205062866, 0.3743593990802765, -0.4905833899974823, -0.02603726089000702, 0.020705560222268105], [-0.1542455554008484, 0.06331811845302582, 0.01163241546601057, 0.07156366109848022, 0.13046981394290924, 0.11904286593198776, 0.16721197962760925, -0.5765672326087952, 0.21272864937782288, -0.045154403895139694], [-0.5220527052879333, 0.4027564227581024, 0.18748533725738525, 0.12833620607852936, -0.098171167075634, -0.03501974046230316, 0.051988694816827774, -0.35994869470596313, 0.37644368410110474, -0.13181915879249573], [-0.6823740601539612, 0.5854295492172241, 0.08384588360786438, 0.1513286679983139, 0.043518468737602234, -0.25926443934440613, 0.1433018147945404, -0.21475686132907867, 0.30611300468444824, -0.15714190900325775], [-0.6100050806999207, 0.17546893656253815, 0.003623975906521082, 0.08262941241264343, 0.2568705081939697, -0.2372521311044693, 0.09540728479623795, 0.016692981123924255, 0.08639714866876602, 0.1301693618297577], [-0.4297824501991272, 0.015922727063298225, 0.0016720800194889307, -0.052322886884212494, 0.4555356800556183, -0.1975201517343521, -0.02664056234061718, -0.0018793160561472178, -0.045696552842855453, 0.2807147204875946], [-0.19013290107250214, -0.41678494215011597, -0.06951868534088135, -0.023338740691542625, 0.3871767520904541, -0.1970262974500656, -0.10656243562698364, 0.414897620677948, -0.10143310576677322, 0.30272331833839417], [-0.0464712530374527, -0.3942219614982605, -0.12072137743234634, -0.03872750326991081, 0.17986008524894714, 0.044040847569704056, -0.09935777634382248, 0.46036043763160706, -0.09662467241287231, 0.11186308413743973], [-0.031091980636119843, -0.3130238354206085, -0.05661595240235329, 0.0950225219130516, 0.17698495090007782, -0.08005779981613159, 0.006292771082371473, 0.3590419292449951, -0.18667832016944885, 0.030122827738523483], [0.0971115455031395, -0.2181587964296341, -0.16917835175991058, 0.1784825623035431, 0.013290471397340298, -0.10878551006317139, 0.09143135696649551, 0.36040884256362915, -0.2882673144340515, 0.043664541095495224], [0.1074182391166687, -0.13728003203868866, -0.11586042493581772, 0.13617441058158875, -0.016907118260860443, -0.0323728583753109, 0.13212303817272186, 0.3105655014514923, -0.28571179509162903, -0.09814943373203278], [0.19185388088226318, -0.10161760449409485, -0.14685019850730896, 0.10957980901002884, 0.022817159071564674, -0.04361240193247795, 0.12080375850200653, 0.28683358430862427, -0.21777190268039703, -0.2220337688922882], [0.2844159007072449, -0.07033023238182068, 0.0036614257842302322, 0.06987529247999191, -0.08129548281431198, -0.02717943862080574, 0.18097950518131256, 0.11372531950473785, -0.2106185108423233, -0.26323434710502625], [0.19771340489387512, -0.04336601495742798, 0.3057173192501068, 0.016967441886663437, -0.18693198263645172, -0.05096300691366196, 0.10077772289514542, 0.008215534500777721, -0.16030308604240417, -0.18782472610473633], [0.0014752503484487534, -0.019625576213002205, 0.3405236303806305, -0.025228649377822876, -0.08162286132574081, -0.05860201269388199, -0.04150168225169182, -0.03138604760169983, -0.023286379873752594, -0.06074369698762894], [-0.0048978193663060665, -0.005994474980980158, 0.1505667269229889, -0.008361517451703548, 0.005189958494156599, -0.018351733684539795, -0.07812761515378952, -0.004844218958169222, -0.01418222114443779, -0.02099710889160633], [-0.0009477509884163737, -0.0006622217479161918, 0.019188329577445984, -0.0004373878473415971, -0.001689569908194244, -0.0059223477728664875, -0.005991259589791298, -0.0002944667648989707, -0.0019103550584986806, -0.0013329696375876665], [-1.0333893442293629e-05, -5.715735369449249e-07, -6.206922193996434e-07, -8.481880286126398e-06, -2.5641964384703897e-05, -0.00012949334632139653, -3.533097924446338e-06, 0.00024250990827567875, -1.4738669051439501e-05, -4.909477866021916e-05], [-6.672809831798077e-05, 6.034013040334685e-06, -0.004830463323742151, 0.006869661156088114, -3.1460051104659215e-05, -0.000252067664405331, -2.8622118406929076e-05, -0.0006798512185923755, -0.0004766937345266342, -0.0005098070250824094], [-0.002448451705276966, 0.0016320430440828204, -0.004299947991967201, 0.03415273502469063, -0.003751888172701001, -0.005635407753288746, -0.0011192094534635544, -0.0002952852810267359, -0.0035042515955865383, -0.014730305410921574], [-0.03571551293134689, -0.002067698398604989, 0.10074034333229065, 0.08376315236091614, -0.03480827808380127, -0.003605848178267479, -0.060039933770895004, -0.019431108608841896, -0.010546835139393806, -0.01828734017908573], [0.0451369471848011, -0.01102535706013441, 0.18920698761940002, 0.14860042929649353, -0.05421401187777519, -0.03832791745662689, -0.19627630710601807, -0.01890980638563633, -0.09722257405519485, 0.03303547948598862], [0.26859337091445923, -0.0840354710817337, 0.20011042058467865, 0.0495215468108654, 0.017136812210083008, -0.1188771054148674, -0.030193770304322243, -0.0960988849401474, -0.19943980872631073, -0.006715686991810799], [0.22300951182842255, -0.18821904063224792, 0.2520975172519684, -0.10239242762327194, 0.1090708076953888, -0.14107638597488403, 0.1690792590379715, -0.06077329069375992, -0.17861714959144592, -0.0821777880191803], [0.17570723593235016, -0.2149779200553894, 0.08505259454250336, -0.19658377766609192, 0.2895600199699402, -0.32121139764785767, 0.272684782743454, -0.02247244492173195, -0.05781899765133858, -0.009939469397068024], [0.23250798881053925, -0.21569254994392395, -0.03977325186133385, -0.30256351828575134, 0.3425479829311371, -0.27605825662612915, 0.22380182147026062, -0.15752074122428894, 0.07365301251411438, 0.11909614503383636], [0.2383691519498825, -0.17947593331336975, 0.10655690729618073, -0.20422765612602234, 0.22025728225708008, -0.24634383618831635, 0.2588370740413666, -0.21072110533714294, 0.08903388679027557, -0.07228653132915497], [0.25811445713043213, -0.12570716440677643, 0.12260795384645462, -0.21269424259662628, -0.004907100927084684, -0.12629996240139008, 0.3866586685180664, -0.3749901354312897, 0.03178345039486885, 0.04543272778391838], [0.0672747790813446, -0.111229307949543, 0.16304996609687805, -0.08325491100549698, -0.030590442940592766, -0.1120653823018074, 0.4770425260066986, -0.4941026568412781, 0.04724889621138573, 0.07662782818078995], [-0.2827315330505371, -0.07040949910879135, 0.2593120038509369, 0.030078181996941566, 0.04918361082673073, -0.03817657753825188, 0.06122060865163803, -0.2944396734237671, 0.34206652641296387, -0.05610362067818642], [-0.6082451939582825, 0.3928220570087433, 0.2954108715057373, 0.16589020192623138, 0.04404988884925842, -0.13453425467014313, 0.04284268617630005, -0.17709650099277496, 0.1960459202528, -0.21718928217887878], [-0.604340136051178, 0.5619632005691528, 0.10105659812688828, -0.008160917088389397, 0.2719440758228302, -0.26324376463890076, 0.17098402976989746, -0.18801534175872803, 0.06160272657871246, -0.103787861764431], [-0.458497554063797, 0.03949226811528206, -0.01540685910731554, -0.16173817217350006, 0.46600204706192017, -0.16023243963718414, 0.09836581349372864, 0.08988320082426071, 0.050425805151462555, 0.051706165075302124], [-0.26792484521865845, -0.17580069601535797, 0.1501060426235199, -0.2127685248851776, 0.399724543094635, -0.17362038791179657, -0.07154250890016556, 0.1045416072010994, 0.04615264758467674, 0.20113041996955872], [-0.04757954925298691, -0.5241090655326843, 0.15233659744262695, -0.02430340275168419, 0.2760225832462311, -0.10002637654542923, -0.1514769345521927, 0.27767372131347656, -0.046145059168338776, 0.18760694563388824], [0.011182405985891819, -0.41288185119628906, 0.01067567989230156, 0.18105565011501312, 0.17541368305683136, -0.047860611230134964, 0.05298132821917534, 0.18992631137371063, -0.23366707563400269, 0.07317405939102173], [0.037049658596515656, -0.29405760765075684, -0.03127926215529442, 0.23124296963214874, 0.08960074186325073, -0.008649665862321854, 0.13295497000217438, 0.2524052858352661, -0.319477379322052, -0.08979171514511108], [0.1374204009771347, -0.2012954205274582, -0.06833936274051666, 0.16017797589302063, 0.1337289959192276, 0.015526213683187962, 0.03884034976363182, 0.2132968306541443, -0.3208020329475403, -0.10855626314878464], [0.12583976984024048, -0.1305254101753235, 0.13538411259651184, 0.1738152801990509, 0.062106359750032425, -0.010904829949140549, 0.021117916330695152, 0.20705220103263855, -0.3267345726490021, -0.2571503818035126], [0.16876617074012756, -0.10479305684566498, 0.11390554159879684, 0.22742623090744019, -0.08921174705028534, 0.0707336813211441, 0.005129087250679731, 0.07193758338689804, -0.2410402148962021, -0.2228536158800125], [0.18108375370502472, -0.08341910690069199, 0.16595777869224548, 0.20166711509227753, -0.1501600593328476, 0.06367003917694092, 0.05170086771249771, -0.018068337813019753, -0.1195947527885437, -0.2928352952003479], [0.06327851861715317, -0.04735406115651131, 0.3745519816875458, 0.0827440470457077, -0.1502097249031067, -0.009452898055315018, 0.038393035531044006, -0.02936297096312046, -0.1323833167552948, -0.19020110368728638], [-0.03188510611653328, -0.03289753943681717, 0.4786859452724457, -0.040556810796260834, -0.07872806489467621, -0.05735181272029877, -0.07110396027565002, -0.03821460157632828, -0.06962964683771133, -0.05831616371870041], [-0.015245296992361546, -0.013866432942450047, 0.20859038829803467, -0.009453097358345985, -0.031611118465662, -0.02709141932427883, -0.06856986880302429, -0.0037060948088765144, -0.024824708700180054, -0.01422211341559887], [-0.0012101338943466544, -0.00030662468634545803, 0.028430456295609474, -0.0005613252869807184, -0.0013555019395425916, -0.010461290366947651, -0.01245671696960926, -0.00026438102941028774, -0.001515028765425086, -0.0002994536771439016], [0.0, 0.0, 0.0, 0.0, 0.0, 0.0, 0.0, 0.0, 0.0, 0.0], [-4.603888010024093e-05, 0.00021764823759440333, -0.0018747439607977867, 0.0024662979412823915, -1.97003082575975e-05, -0.00018107831419911236, -3.3328695280943066e-05, -4.942239684169181e-05, -0.00033867789898067713, -0.00014095564256422222], [-0.0048688859678804874, -0.0003631206345744431, 0.00824123527854681, 0.03859671950340271, -0.003380571026355028, -0.009423797950148582, -0.002279659966006875, -0.0017066467553377151, -0.0038103738334029913, -0.021004898473620415], [-0.041553713381290436, -0.004117555450648069, 0.1290084421634674, 0.1691838502883911, -0.0947093665599823, 0.004734653048217297, -0.06491763144731522, -0.023014988750219345, -0.024336157366633415, -0.05027579516172409], [0.0289271492511034, -0.022919027134776115, 0.29632049798965454, 0.21514135599136353, -0.08278350532054901, 0.019034583121538162, -0.22922298312187195, -0.019227251410484314, -0.11176617443561554, -0.09350202977657318], [0.22829678654670715, -0.1522974818944931, 0.3010755777359009, 0.06831350922584534, -0.08090531826019287, 0.11772187799215317, -0.10239861905574799, -0.0760686919093132, -0.1823549121618271, -0.12138202041387558], [0.23735114932060242, -0.27972012758255005, 0.2181246280670166, -0.05560160055756569, 0.008025942370295525, 0.21135596930980682, 0.06567493826150894, -0.16281452775001526, -0.12599952518939972, -0.11639682948589325], [0.17812314629554749, -0.2892317473888397, 0.1263371855020523, -0.09615682065486908, 0.15485717356204987, -0.17460396885871887, 0.2157842367887497, -0.21177685260772705, 0.057581331580877304, 0.039085254073143005], [0.1419735699892044, -0.22393149137496948, 0.11268072575330734, -0.23253482580184937, 0.22686080634593964, -0.28746291995048523, 0.2455214112997055, -0.2056153267621994, 0.15006422996520996, 0.07244280725717545], [0.22559361159801483, 