[[0.0, 0.0, 0.0, 0.0, 0.0, 0.0, 0.0, 0.0, 0.0, 0.0], [0.0, 0.0, 0.0, 0.0, 0.0, 0.0, 0.0, 0.0, 0.0, 0.0], [0.0, 0.0, 0.0, 0.0, 0.0, 0.0, 0.0, 0.0, 0.0, 0.0], [0.0, 0.0, 0.0, 0.0, 0.0, 0.0, 0.0, 0.0, 0.0, 0.0], [0.0, 0.0, 0.0, 0.0, 0.0, 0.0, 0.0, 0.0, 0.0, 0.0], [0.0, 0.0, 0.0, 0.0, 0.0, 0.0, 0.0, 0.0, 0.0, 0.0], [0.0, 0.0, 0.0, 0.0, 0.0, 0.0, 0.0, 0.0, 0.0, 0.0], [0.0, 0.0, 0.0, 0.0, 0.0, 0.0, 0.0, 0.0, 0.0, 0.0], [0.0, 0.0, 0.0, 0.0, 0.0, 0.0, 0.0, 0.0, 0.0, 0.0], [0.0, 0.0, 0.0, 0.0, 0.0, 0.0, 0.0, 0.0, 0.0, 0.0], [0.0, 0.0, 0.0, 0.0, 0.0, 0.0, 0.0, 0.0, 0.0, 0.0], [0.0, 0.0, 0.0, 0.0, 0.0, 0.0, 0.0, 0.0, 0.0, 0.0], [-2.8156609914731234e-06, -5.411641723185312e-06, -0.00034139922354370356, -2.8494347134255804e-05, -0.001295049674808979, -2.7932443117606454e-05, 0.0020542703568935394, -6.029302312526852e-06, -6.40133221168071e-05, -0.0002831248566508293], [-1.2272122148715425e-05, -1.2719870028377045e-05, -0.0005216358695179224, -6.722302350681275e-05, -0.002925245324149728, -6.1485763581004e-05, 0.004418313503265381, -1.72631953319069e-05, -0.0001461505889892578, -0.0006543182535097003], [-6.795695298933424e-06, -9.684113138064276e-07, 0.00025139545323327184, -5.375117325456813e-06, -9.963339107343927e-05, -3.5982662893729866e-07, -8.883576083462685e-05, -4.519228241406381e-06, -6.65847346681403e-06, -3.82499820261728e-05], [-2.831539518410864e-07, -4.035046785588747e-08, 1.0474809641891625e-05, -2.2396322663098545e-07, -4.151391294726636e-06, -1.4992775021482885e-08, -3.7014899589848937e-06, -1.883011577774596e-07, -2.7743638497668144e-07, -1.5937491752993083e-06], [0.0, 0.0, 0.0, 0.0, 0.0, 0.0, 0.0, 0.0, 0.0, 0.0], [0.0, 0.0, 0.0, 0.0, 0.0, 0.0, 0.0, 0.0, 0.0, 0.0], [0.0, 0.0, 0.0, 0.0, 0.0, 0.0, 0.0, 0.0, 0.0, 0.0], [0.0, 0.0, 0.0, 0.0, 0.0, 0.0, 0.0, 0.0, 0.0, 0.0], [0.0, 0.0, 0.0, 0.0, 0.0, 0.0, 0.0, 0.0, 0.0, 0.0], [0.0, 0.0, 0.0, 0.0, 0.0, 0.0, 0.0, 0.0, 0.0, 0.0], [0.0, 0.0, 0.0, 0.0, 0.0, 0.0, 0.0, 0.0, 0.0, 0.0], [0.0, 0.0, 0.0, 0.0, 0.0, 0.0, 0.0, 0.0, 0.0, 0.0], [0.0, 0.0, 0.0, 0.0, 0.0, 0.0, 0.0, 0.0, 0.0, 0.0], [0.0, 0.0, 0.0, 0.0, 0.0, 0.0, 0.0, 0.0, 0.0, 0.0], [0.0, 0.0, 0.0, 0.0, 0.0, 0.0, 0.0, 0.0, 0.0, 0.0], [0.0, 0.0, 0.0, 0.0, 0.0, 0.0, 0.0, 0.0, 0.0, 0.0], [0.0, 0.0, 0.0, 0.0, 0.0, 0.0, 0.0, 0.0, 0.0, 0.0], [0.0, 0.0, 0.0, 0.0, 0.0, 0.0, 0.0, 0.0, 0.0, 0.0], [0.0, 0.0, 0.0, 0.0, 0.0, 0.0, 0.0, 0.0, 0.0, 0.0], [0.0, 0.0, 0.0, 0.0, 0.0, 0.0, 0.0, 0.0, 0.0, 0.0], [-3.745555421375002e-09, -1.9544746265864887e-08, -1.4477881222774158e-06, -2.392472442380722e-09, -1.297771177632967e-05, -3.6125790359164967e-08, 1.5300502127502114e-05, -2.2341902550238046e-08, -2.365021316563798e-07, -5.543133738683537e-07], [-8.230378512052994e-08, -5.778559852842591e-08, -5.787989721284248e-06, -1.8313279781523306e-08, -0.00010399580060038716, -1.1111174558209314e-07, 0.00011367075785528868, -4.0338238704862306e-07, -7.073005008351174e-07, -2.506655619072262e-06], [-1.4515274415316526e-05, -1.002345939582483e-07, -0.00014679308515042067, -4.034013727505226e-06, -0.006238740868866444, -7.744257345621008e-06, 0.006544127129018307, -2.9020746296737343e-05, -3.5608536563813686e-06, -9.961814066627994e-05], [-2.8847232897533104e-05, -2.744879930105526e-05, -0.0003640258510131389, -9.564153515384533e-06, -0.012683930806815624, -1.5222616639221087e-05, 0.013458134606480598, -8.257378067355603e-05, -2.279775799252093e-05, -0.00022372475359588861], [-3.579049734980799e-05, -0.0013050056295469403, -0.0011111393105238676, -5.970219353912398e-05, -0.008464327082037926, -3.684822149807587e-05, 0.011956755071878433, -0.000279374944511801, -0.0002970056375488639, -0.00036756187910214067], [-4.982762038707733e-05, -0.0011207940988242626, -0.0015572551637887955, -9.131909610005096e-05, -0.0052783978171646595, -3.9630511309951544e-05, 0.009003671817481518, -0.0002670920512173325, -0.00034121714998036623, -0.000258137151831761], [-0.0004033662553410977, -0.0007948988350108266, -0.002197749214246869, -0.00010696156823541969, -0.012838075868785381, -0.00013358834257815033, 0.017663750797510147, -0.00031918834429234266, -0.00036850833566859365, -0.0005014145863242447], [0.003226506058126688, -0.0005512622883543372, -0.0062008993700146675, -0.00019250692275818437, -0.02089935913681984, -0.00022605528647545725, 0.02837088517844677, -0.0012946742353960872, -0.0005504368455149233, -0.001682206173427403], [0.007802228443324566, -0.0004558752989396453, -0.005930187180638313, -0.0003079767047893256, -0.03478287160396576, -0.0009461657609790564, 0.04115509241819382, -0.002825346076861024, -0.000602156447712332, -0.0031067270319908857], [0.003357517533004284, -0.00028248512535355985, -0.0033586423378437757, -0.0001989675365621224, -0.022009506821632385, -0.001084961579181254, 0.027141600847244263, -0.0007624655845575035, -0.0007274236995726824, -0.002074651652947068], [-0.0003185287641827017, 0.005438447929918766, 0.0026533659547567368, -0.0005551032954826951, -0.013799852691590786, -0.0007163113914430141, 0.009627757593989372, -0.00019143005192745477, -0.0010938110062852502, -0.0010445215739309788], [0.00300973211415112, 0.008302217349410057, 0.003315116511657834, -0.0006865029572509229, -0.02012772671878338, -0.0009004513849504292, 0.011820546351373196, -0.0005062824347987771, -0.0012016104301437736, -0.0030250349082052708], [0.008451167494058609, -0.0019253860227763653, 0.015070813708007336, -0.0002946752356365323, -0.016622064635157585, -0.0008784611127339303, 0.0054300264455378056, -0.001135439146310091, -0.001243070000782609, -0.0068529159761965275], [0.0030714855529367924, -0.001240261597558856, 0.0031555278692394495, -0.00022676220396533608, -0.007565261330455542, -0.0005572974332608283, 0.008774088695645332, -0.0005488822353072464, -0.0009025893523357809, -0.003960052505135536], [-0.0010982210515066981, -0.0001255100651178509, -0.004742499440908432, -0.00011779057240346447, -0.0043469443917274475, -0.0006496136193163693, 0.012382839806377888, -9.765216236701235e-05, -0.0005570207140408456, -0.0006475833943113685], [-0.0004948562127538025, -6.713921902701259e-05, -0.0035878228954970837, -5.57443818252068e-05, -0.004702401347458363, -0.0006749607273377478, 0.011068216525018215, -0.00013063983351457864, -0.0006088170921429992, -0.0007458325126208365], [-0.00020283406774979085, -9.924972982844338e-05, -0.001805764390155673, -4.6611923607997596e-05, -0.003582206554710865, -0.0003384508891031146, 0.00697350176051259, -6.891932571306825e-05, -0.0003243252285756171, -0.0005051376647315919], [-8.788453123997897e-05, -0.0002509267069399357, -0.0013881640043109655, -8.684657950652763e-05, -0.005151922348886728, -7.991152961039916e-05, 0.007579343859106302, -7.49358559914981e-06, -0.00036705625825561583, -0.00015913796960376203], [-1.4086920600675512e-05, -2.1824060240760446e-05, -0.0001628878089832142, -7.557172011729563e-06, -0.00622961763292551, -8.180258191714529e-06, 0.006599947344511747, -1.160075407824479e-05, -6.493806722573936e-05, -7.925437239464372e-05], [-3.63456842933374e-06, -1.6705573671060847e-06, -5.993221202515997e-05, -7.827983949937334e-07, -0.0016445437213405967, -7.057188213366317e-06, 0.0018114307895302773, -1.5828230971237645e-05, -2.2763251763535663e-05, -5.5218548368429765e-05], [0.0, 0.0, 0.0, 0.0, 0.0, 0.0, 0.0, 0.0, 0.0, 0.0], [0.0, 0.0, 0.0, 0.0, 0.0, 0.0, 0.0, 0.0, 0.0, 0.0], [0.0, 0.0, 0.0, 0.0, 0.0, 0.0, 0.0, 0.0, 0.0, 0.0], [0.0, 0.0, 0.0, 0.0, 0.0, 0.0, 0.0, 0.0, 0.0, 0.0], [0.0, 0.0, 0.0, 0.0, 0.0, 0.0, 0.0, 0.0, 0.0, 0.0], [0.0, 0.0, 0.0, 0.0, 0.0, 0.0, 0.0, 0.0, 0.0, 0.0], [-3.363176404036494e-08, -4.767960470886123e-10, -2.546009056914045e-07, -3.3785350073145537e-09, -1.8247294519824209e-06, -7.214270567601488e-07, 3.447529252298409e-06, -8.34025643686731e-12, -2.481526735209627e-07, -3.6106607126384915e-07], [0.0004069613933097571, -5.248130818813479e-10, -5.499987310031429e-06, -4.874522687714489e-07, -0.0003812380018644035, -3.448671486694366e-05, 8.010542660485953e-05, -2.2227741283131763e-05, -6.127491815277608e-06, -3.6998939322074875e-05], [0.00016333126404788345, -7.800747425790178e-07, -0.0003119285684078932, -4.2826752633118303e-07, -0.00019224653078708798, -6.253792435018113e-06, 0.0003869122883770615, -8.677959158376325e-06, -1.2243556739122141e-05, -1.7685348211671226e-05], [-7.153151091188192e-05, -1.1918858717763214e-06, -6.796250818297267e-05, -1.1331150744808838e-05, -0.00028392791864462197, -7.606269605275884e-07, 0.00045306680840440094, -1.6584763216087595e-06, -8.88417889655102e-06, -5.818449608341325e-06], [-0.001902383053675294, -1.0705342901928816e-05, -0.0005760318599641323, -9.284014231525362e-05, -0.006557287182658911, -2.3644657630939037e-05, 0.009647656232118607, -0.00028165109688416123, -8.771958528086543e-05, -0.00011539208935573697], [-0.0024373854976147413, -0.0007376676076091826, -0.001140957116149366, -0.0006341775297187269, -0.021212682127952576, -0.00030760333174839616, 0.02797689661383629, -0.0006394656375050545, -0.00040968001121655107, -0.00045727769611403346], [-0.0034062738995999098, -0.004330697003751993, 0.00033423659624531865, -0.00280528306029737, -0.024237941950559616, -0.0009458883432671428, 0.03867717087268829, -0.0012147706001996994, -0.0011692596599459648, -0.0009012703667394817], [-0.008817125111818314, -0.0071541848592460155, 0.010158968158066273, -0.0052448720671236515, -0.027225203812122345, -0.0037084962241351604, 0.05082389712333679, -0.0025401576422154903, -0.004192612133920193, -0.0021002166904509068], [-0.00937616266310215, -0.010853640735149384, 0.007866709493100643, -0.0023417447227984667, -0.056824736297130585, -0.00889650173485279, 0.0973072499036789, -0.005569690838456154, -0.006962776184082031, -0.0043486738577485085], [-0.012953374534845352, -0.011974961496889591, 0.020660139620304108, 0.0025103744119405746, -0.07347466051578522, -0.016281133517622948, 0.12174941599369049, -0.010482179000973701, -0.011818096041679382, -0.007935558445751667], [-0.013654845766723156, 0.0012051347875967622, 0.0173285324126482, -0.00020254294213373214, -0.10565132647752762, -0.019645025953650475, 0.16091333329677582, -0.008751527406275272, -0.01870778016746044, -0.012833843007683754], [-0.018253479152917862, 0.02537669986486435, 0.0077048735693097115, -0.002608752576634288, -0.1016748920083046, -0.023318761959671974, 0.1548088639974594, -0.005383496638387442, -0.022797564044594765, -0.013853289186954498], [-0.026763349771499634, 0.02631690911948681, 0.020254891365766525, 0.003446261864155531, -0.0816689059138298, -0.023841433227062225, 0.12383393943309784, -0.0071668666787445545, -0.02027546800673008, -0.014136063866317272], [-0.03376680240035057, 0.04956582561135292, 0.02886999398469925, -0.0016618683002889156, -0.08035659790039062, -0.0171392522752285, 0.10092972218990326, -0.008961721323430538, -0.022198813036084175, -0.015280395746231079], [-0.03219982236623764, 0.02807595394551754, 0.023522628471255302, -0.0035372984129935503, -0.0748409852385521, -0.006247298326343298, 0.11356360465288162, -0.006828392390161753, -0.023183390498161316, -0.018325023353099823], [-0.028798094019293785, -0.0013118353672325611, -0.00036504867603071034, -0.004758480936288834, -0.044628679752349854, 0.004688784945756197, 0.11029321700334549, -0.004945910070091486, -0.016107803210616112, -0.014066056348383427], [-0.023130737245082855, -0.003328691003844142, -0.015470500104129314, -0.008725793100893497, -0.03142287954688072, 0.008587876334786415, 0.09363796561956406, -0.002840041182935238, -0.008083275519311428, -0.00922402273863554], [-0.018373582512140274, 0.0009823322761803865, -0.03129813075065613, -0.007182636298239231, -0.01437094435095787, 0.004147827159613371, 0.08590039610862732, -0.0018241563811898232, -0.011695419438183308, -0.006285605486482382], [-0.011151168495416641, -0.006007323041558266, -0.020250190049409866, -0.003573932684957981, -0.007429435849189758, -0.008427719585597515, 0.06561635434627533, -0.000831474200822413, -0.0056308270432055, -0.002314263489097357], [-0.006180590484291315, -0.004667710978537798, -0.019488029181957245, -0.0031496924348175526, -0.006155826151371002, -0.009646165184676647, 0.056290529668331146, -0.000394793605664745, -0.005011966452002525, -0.001595782465301454], [-0.0030836581718176603, -0.0018029839266091585, -0.01696980930864811, -0.0022840576712042093, -0.00805631559342146, -0.004792748484760523, 0.04164338856935501, -0.0002889306633733213, -0.0034061153419315815, -0.0009587881504558027], [-0.0014630373334512115, -0.0009199774940498173, -0.005193628370761871, -0.0007777625578455627, -0.005598859861493111, -0.004410218447446823, 0.019733451306819916, -4.77808243886102e-05, -0.0011169398203492165, -0.00020524290448520333], [-0.00038308653165586293, -0.0003117301966995001, 0.00469637056812644, -9.426030737813562e-05, -0.0009142815251834691, -0.0022371772211045027, -0.00015735049964860082, -2.0856114133493975e-05, -0.0005449632299132645, -3.2665870094206184e-05], [-8.132467883115169e-06, -1.1700948562065605e-05, 0.004278337582945824, -8.139706437759742e-07, -0.00016520314966328442, -0.00022537233598995954, -0.003643397707492113, -2.996027959056846e-08, -0.0002222762705059722, -1.4105494301475119e-06], [0.0, 0.0, 0.0, 0.0, 0.0, 0.0, 0.0, 0.0, 0.0, 0.0], [0.0, 0.0, 0.0, 0.0, 0.0, 0.0, 0.0, 0.0, 0.0, 0.0], [0.0, 0.0, 0.0, 0.0, 0.0, 0.0, 0.0, 0.0, 0.0, 0.0], [0.0, 0.0, 0.0, 0.0, 0.0, 0.0, 0.0, 0.0, 0.0, 0.0], [-7.53141478071484e-08, 8.84515029611066e-05, -1.386170151818078e-05, -2.1893565644859336e-06, -4.032297056255629e-06, -2.0642808067350416e-06, -4.8077807150548324e-05, -5.878029174510857e-09, -1.7300420950050466e-05, -8.442069656666717e-07], [0.0006843519513495266, 2.0949539248249494e-05, -5.685001815436408e-05, -1.1411038030928466e-05, -0.0012679252540692687, -0.00011916655785171315, 0.001079278183169663, -6.887603376526386e-05, -0.00012160875485278666, -0.00013874196156393737], [-0.002292480319738388, -3.7587800761684775e-05, -0.0006127519882284105, -0.0005406150594353676, -0.000748348655179143, 0.0019534840248525143, 0.0027006377931684256, -0.00023862555099185556, -8.893311314750463e-05, -9.477906860411167e-05], [-0.006348767317831516, -0.0008228940423578024, 0.0016629976453259587, 0.011478929780423641, -0.002389047294855118, -0.006876690313220024, 0.006688159890472889, -0.0008373479940928519, -0.002147113671526313, -0.00040822706068865955], [-0.008865004405379295, -0.001638508401811123, 0.005469468422234058, 0.007488825358450413, -0.010669396258890629, -0.005634179804474115, 0.020637210458517075, -0.0014373977901414037, -0.004581105429679155, -0.0007699055131524801], [-0.011332152411341667, -0.00611761724576354, 0.01579448953270912, 0.013097521848976612, -0.02374926209449768, -0.009936785325407982, 0.036126501858234406, -0.004066983703523874, -0.0074607450515031815, -0.0023549357429146767], [-0.004865618888288736, -0.018378715962171555, 0.03989844769239426, 0.020274993032217026, -0.04661073163151741, -0.013069908134639263, 0.04680362343788147, -0.008870784193277359, -0.010243773460388184, -0.004937547259032726], [-0.023136699572205544, -0.03032069280743599, 0.11540237814188004, 0.01871480606496334, -0.07638092339038849, -0.028514230623841286, 0.07079054415225983, -0.0145576111972332, -0.021724505349993706, -0.01027294434607029], [-0.031827669590711594, -0.049429573118686676, 0.13677236437797546, 0.04668956995010376, -0.1086185872554779, -0.032814159989356995, 0.11203097552061081, -0.024640195071697235, -0.03180253133177757, -0.01636010780930519], [-0.02566293254494667, -0.06946244090795517, 0.16027620434761047, 0.11432484537363052, -0.13985741138458252, -0.056699275970458984, 0.12900251150131226, -0.034463007003068924, -0.052152346819639206, -0.025306258350610733], [-0.02664036676287651, -0.04171208664774895, 0.18034829199314117, 0.15392044186592102, -0.19646811485290527, -0.06299982964992523, 0.12781395018100739, -0.03301691263914108, -0.06548088043928146, -0.03576454147696495], [-0.01387568935751915, -0.022528035566210747, 0.1827668398618698, 0.1490234136581421, -0.22741205990314484, -0.07179858535528183, 0.16804170608520508, -0.03415582701563835, -0.08210721611976624, -0.047954805195331573], [-0.029328731819987297, -0.02181927300989628, 0.11914830654859543, 0.20413026213645935, -0.1902739554643631, -0.055452946573495865, 0.16191238164901733, -0.035151682794094086, -0.09611314535140991, -0.05705118179321289], [-0.04597362130880356, -0.0007596750510856509, 0.08873003721237183, 0.1788330376148224, -0.1756024956703186, 0.0005628095241263509, 0.1554250419139862, -0.03788863122463226, -0.09660770744085312, -0.06671895831823349], [-0.05265277624130249, 0.0008277423912659287, 0.08717307448387146, 0.1349170058965683, -0.1417182981967926, 0.006661664694547653, 0.15365996956825256, -0.035779353231191635, -0.08903162181377411, -0.0640571191906929], [-0.07589202374219894, -0.036251768469810486, 0.03416353464126587, 0.1020139679312706, -0.11283095926046371, 0.05204934626817703, 0.19183559715747833, -0.0298687145113945, -0.07567674666643143, -0.04954232648015022], [-0.10102161020040512, -0.046721771359443665, -0.04951762408018112, 0.07968641817569733, -0.07939232885837555, 0.0943676009774208, 0.200972780585289, -0.021985728293657303, -0.047053635120391846, -0.0293344147503376], [-0.10382355749607086, -0.0427887961268425, -0.07777471840381622, 0.060548294335603714, -0.02317154034972191, 0.08440502732992172, 0.19826248288154602, -0.01362664345651865, -0.05926528573036194, -0.022765230387449265], [-0.07803890109062195, -0.04627910256385803, -0.08549708127975464, 0.044612810015678406, -0.004729843232780695, 0.07491462677717209, 0.16030022501945496, -0.010233499109745026, -0.038591668009757996, -0.01645757257938385], [-0.06047774851322174, -0.02879316732287407, -0.07292094826698303, -0.016728440299630165, -0.00651070149615407, 0.05145767703652382, 0.16470478475093842, -0.005888320971280336, -0.016322018578648567, -0.008521167561411858], [-0.03956782445311546, -0.01807475835084915, -0.06356093287467957, -0.021024396643042564, -0.003390389494597912, 0.02795369364321232, 0.12490300834178925, -0.002515277825295925, -0.00131243618670851, -0.003410730045288801], [-0.017262324690818787, -0.013552268967032433, -0.04406624287366867, -0.010228927247226238, 0.000536422070581466, -0.009655158035457134, 0.09079330414533615, -0.0008775286260060966, 0.005696965381503105, -0.0013842645566910505], [-0.00805604550987482, -0.010550797916948795, -0.012259319424629211, -0.004475950263440609, -0.002776127075776458, -0.011137404479086399, 0.05047230049967766, -0.0004098055651411414, -0.00040788474143482745, -0.0003989711112808436], [-0.0020099589601159096, -0.0022306060418486595, 0.0026999430265277624, -0.00018056030967272818, -0.00018159020692110062, 0.006117307581007481, -0.003974503837525845, -3.6154958706902107e-06, -0.00020870733715128154, -2.7708241759683006e-05], [-0.0004115332558285445, -0.002732197754085064, -0.0002586972841527313, -1.7410209693480283e-05, -7.827099761925638e-05, 0.0012810034677386284, 0.0033594504930078983, -1.638464794950778e-07, -0.001140235224738717, -1.9448284547252115e-06], [0.0, 0.0, 0.0, 0.0, 0.0, 0.0, 0.0, 0.0, 0.0, 0.0], [0.0, 0.0, 0.0, 0.0, 0.0, 0.0, 0.0, 0.0, 0.0, 0.0], [-1.9875113110856546e-08, -2.086257744338127e-08, -1.6570885463806917e-06, 3.6974747672502417e-06, -1.3904977436141053e-07, -1.5072466794663342e-06, -3.0850387133796175e-08, -5.705605765626842e-09, -3.105917016910098e-07, -6.158294763025651e-09], [-8.831320883473381e-06, 0.00030102560413070023, -0.00022813101531937718, 0.00021824109717272222, -2.656800461409148e-06, -0.0001754590484779328, -0.00020166137255728245, -3.512532842364635e-08, 9.812505595618859e-05, -6.170156439111452e-07], [-0.00016834151756484061, -5.551164940698072e-05, -0.000672025780659169, 0.0033930873032659292, -0.0002540598507039249, -0.0017286103684455156, -0.00018480917788110673, 7.38344679120928e-05, -0.00030518893618136644, -9.837458492256701e-05], [-0.002222052775323391, 0.0006775079527869821, -0.0065247975289821625, 0.01357841957360506, 0.0033421560656279325, -0.009476248174905777, 0.003454833524301648, -0.000671729096211493, -0.0017143264412879944, -0.0004437595489434898], [-0.013930309563875198, 0.004578729160130024, 0.013672267086803913, 0.0515732578933239, 0.005368461366742849, -0.04102804884314537, -0.00025409061345271766, -0.005418140906840563, -0.010994871146976948, -0.0035672513768076897], [-0.01607588864862919, -0.001938185770995915, 0.040582794696092606, 0.07606790214776993, -0.004826663993299007, -0.05997904762625694, -0.0007070864667184651, -0.007149482611566782, -0.019109103828668594, -0.0068652150221168995], [-0.016386166214942932, -0.023999245837330818, 0.06443297117948532, 0.11045565456151962, -0.019670970737934113, -0.06861031800508499, 0.017031898722052574, -0.01744995452463627, -0.03276446834206581, -0.013039398938417435], [-0.022741366177797318, -0.047766704112291336, 0.12143424898386002, 0.1514241099357605, -0.05579448863863945, -0.10962475836277008, 0.04889145493507385, -0.03147932142019272, -0.029745377600193024, -0.024597909301519394], [-0.020407356321811676, -0.05752664431929588, 0.2139408141374588, 0.17178703844547272, -0.0953063815832138, -0.12121216952800751, 0.0349796786904335, -0.0505533404648304, -0.03127109631896019, -0.04443055018782616], [-0.026526259258389473, -0.0495210699737072, 0.22857314348220825, 0.21712033450603485, -0.16206134855747223, -0.09917185455560684, 0.05472032353281975, -0.07667411863803864, -0.028359511867165565, -0.05809996277093887], [-0.016292428597807884, -0.04866120591759682, 0.2602105438709259, 0.2570296823978424, -0.1860121637582779, -0.0768992081284523, 0.0039774104952812195, -0.10264904052019119, -0.0024427275639027357, -0.0882606953382492], [-0.024661671370267868, 0.011042274534702301, 0.2839886248111725, 0.24938935041427612, -0.21939042210578918, -0.11846671253442764, -0.0005315806483849883, -0.12689419090747833, 0.07444032281637192, -0.12891586124897003], [-0.018326159566640854, 0.0867639034986496, 0.23287229239940643, 0.25430575013160706, -0.21004155278205872, -0.16013042628765106, 0.013129349797964096, -0.14490604400634766, 0.09591753780841827, -0.14958417415618896], [-0.031353775411844254, 0.1180192083120346, 0.18306665122509003, 0.22271858155727386, -0.2061360478401184, -0.07941154390573502, -0.009563393890857697, -0.1634432077407837, 0.1593436896800995, -0.19324041903018951], [-0.02516566403210163, 0.09648052603006363, 0.12543384730815887, 0.2029845416545868, -0.2043580412864685, 0.05088910833001137, -0.01809629611670971, -0.1623251736164093, 0.15915079414844513, -0.22499389946460724], [-0.05089394003152847, 0.060636140406131744, 0.13561932742595673, 0.1722179502248764, -0.1523144245147705, 0.08160141855478287, 0.05985397845506668, -0.15375027060508728, 0.08027856051921844, -0.2332492619752884], [-0.040692176669836044, 0.009238208644092083, 0.08396642655134201, 0.10471195727586746, -0.11824863404035568, 0.10695851594209671, 0.15454700589179993, -0.1265513002872467, 0.007027038373053074, -0.1809571087360382], [-0.07209791988134384, 0.010478057898581028, -0.004679390229284763, 0.10624866187572479, -0.07903418689966202, 0.12979267537593842, 0.17841984331607819, -0.099085234105587, -0.03698989376425743, -0.1330530047416687], [-0.07796875387430191, 0.08607181161642075, -0.08029893785715103, 0.03850691765546799, -0.005513546522706747, 0.06056375056505203, 0.20485924184322357, -0.07217079401016235, -0.05071812868118286, -0.10333172976970673], [-0.07278010249137878, 0.10478901118040085, -0.09958448261022568, -0.030057815834879875, 0.032285869121551514, -0.005979797802865505, 0.217085599899292, -0.05553564056754112, -0.018994566053152084, -0.07122843712568283], [-0.07502758502960205, 0.10769270360469818, -0.1270296722650528, -0.07512588053941727, 0.03135497495532036, 0.08943654596805573, 0.21100953221321106, -0.034200519323349, -0.07149717211723328, -0.05661303922533989], [-0.05857153981924057, 0.06422258913516998, -0.1272612065076828, -0.06641136854887009, 0.06003696471452713, 0.08099615573883057, 0.17924202978610992, -0.02456388995051384, -0.07159148901700974, -0.03609825670719147], [-0.056959521025419235, 0.018343381583690643, -0.09664101153612137, -0.07589844614267349, 0.0673985555768013, 0.10815880447626114, 0.11549058556556702, -0.011304187588393688, -0.050763584673404694, -0.017824549227952957], [-0.04587039351463318, -0.023999104276299477, -0.04911007359623909, -0.019667886197566986, 0.03497504070401192, 0.07695972174406052, 0.037970248609781265, -0.0036903938744217157, -0.0012330444296821952, -0.0063340081833302975], [-0.013954483903944492, -0.015148071572184563, -0.007984203286468983, -0.003277742536738515, 0.0030480194836854935, 0.025474321097135544, 0.004530512262135744, -0.0008126039756461978, 0.009465645998716354, -0.0013413854176178575], [-0.0012115641729906201, -0.0015546614304184914, -0.0009473636746406555, -5.4929740144871175e-05, -0.0009788967436179519, 0.0018924997420981526, 0.00039891607593744993, -0.00017814268358051777, 0.0030244416557252407, -0.0003902976168319583], [-2.4128923541866243e-05, -0.00092076335567981, -0.000704305013641715, -1.3886672604712658e-05, -0.0002292006101924926, -0.00032448582351207733, 0.0023636091500520706, -5.907208105782047e-06, -0.00012874638196080923, -1.2185561899968889e-05], [0.0, 0.0, 0.0, 0.0, 0.0, 0.0, 0.0, 0.0, 0.0, 0.0], [0.0, 0.0, 0.0, 0.0, 0.0, 0.0, 0.0, 0.0, 0.0, 0.0], [-6.394110096152872e-05, 2.643496191012673e-05, 3.949672827729955e-05, 0.0009929239749908447, -3.976958760176785e-05, -0.0009238308412022889, 5.842383689014241e-05, -5.646229055855656e-06, -8.187024650396779e-05, -2.2211233954294585e-06], [-0.0013841993641108274, 0.0008167966152541339, 0.0016813970869407058, 0.018820222467184067, 0.0005125513998791575, -0.009504885412752628, -0.005376038141548634, -0.00025467787054367363, -0.004376559052616358, -0.0009346060687676072], [-0.007473890669643879, 0.0012324369745329022, 0.010365432128310204, 0.04986575245857239, 0.005152570083737373, -0.03550056740641594, -0.00037093344144523144, -0.0048143817111849785, -0.013483057729899883, -0.004973351955413818], [-0.022526264190673828, 0.00858251191675663, 0.027557842433452606, 0.11778595298528671, 0.01907460205256939, -0.07774991542100906, -0.031900301575660706, 0.009369857609272003, -0.033730585128068924, -0.016463693231344223], [-0.02974390983581543, -0.017219645902514458, 0.0774848684668541, 0.1650964319705963, 0.022579027339816093, -0.11100307106971741, -0.027816366404294968, 0.004183386452496052, -0.044985461980104446, -0.038575392216444016], [-0.04741998016834259, -0.06963605433702469, 0.1538674235343933, 0.18131938576698303, 0.013905121013522148, -0.09319040179252625, -0.014134733006358147, -0.01222553662955761, -0.050432559102773666, -0.06205252557992935], [-0.05431559309363365, -0.13979114592075348, 0.2364092767238617, 0.160591721534729, -0.0032953701447695494, -0.07674576342105865, 0.033878959715366364, -0.020535511896014214, -0.04681571573019028, -0.08938063681125641], [-0.051373425871133804, -0.14231476187705994, 0.24523025751113892, 0.1710173636674881, -0.013558898121118546, -0.00935952365398407, 0.0074854204431176186, -0.054385680705308914, -0.026313671842217445, -0.1264275759458542], [-0.0076829250901937485, -0.09291370213031769, 0.26839572191238403, 0.1631011962890625, -0.10179273784160614, 0.01923242397606373, 0.0008197348797693849, -0.11117251962423325, -0.037273675203323364, -0.10071370750665665], [0.007585935760289431, -0.05465106666088104, 0.2819071114063263, 0.13519060611724854, -0.13418982923030853, 0.013241184875369072, -0.13183818757534027, -0.1647087186574936, 0.08873020857572556, -0.041267793625593185], [0.035322561860084534, 0.011466127820312977, 0.2503816485404968, 0.10257653892040253, -0.1493268609046936, -0.07017035037279129, -0.11012422293424606, -0.20662014186382294, 0.18368414044380188, -0.047189861536026], [0.12055812776088715, 0.07244136929512024, 0.25292640924453735, 0.08773257583379745, -0.1653926968574524, -0.10744255781173706, -0.15008589625358582, -0.27116844058036804, 0.1800057739019394, -0.019574610516428947], [0.14658670127391815, 0.09830028563737869, 0.23605971038341522, 0.05457303300499916, -0.1055285707116127, -0.10216251760721207, -0.07745770364999771, -0.32144150137901306, 0.18903888761997223, -0.11796893179416656], [0.16354621946811676, 0.08911601454019547, 0.23339833319187164, 0.09630579501390457, -0.07179579138755798, -0.08232036978006363, -0.08900948613882065, -0.3254777193069458, 0.18257807195186615, -0.19634181261062622], [0.1549878567457199, -0.03559231758117676, 0.25830963253974915, 0.13307203352451324, -0.006020574830472469, -0.008095897734165192, -0.05691460892558098, -0.30511605739593506, 0.20249062776565552, -0.33712083101272583], [0.16053397953510284, -0.06640385836362839, 0.20755277574062347, 0.014156335033476353, 0.0042693763971328735, 0.06880781799554825, 0.022285964339971542, -0.28089645504951477, 0.20073261857032776, -0.3310394287109375], [0.12921017408370972, 0.008982588537037373, 0.10521696507930756, 0.008096580393612385, 0.04982151836156845, 0.07163345068693161, 0.1104043573141098, -0.2502312660217285, 0.04060302674770355, -0.27373751997947693], [0.03655211254954338, 0.07823565602302551, 0.00409572571516037, 0.0022725495509803295, 0.08408639580011368, 0.025926638394594193, 0.16834856569766998, -0.220742329955101, 0.053120288997888565, -0.23189625144004822], [-0.01072776410728693, 0.15633927285671234, -0.04501828923821449, -0.0690142810344696, 0.059333279728889465, 0.0892559066414833, 0.143554225564003, -0.17703847587108612, 0.039421722292900085, -0.18610559403896332], [-0.004756713751703501, 0.21413806080818176, -0.0680670365691185, -0.14521105587482452, 0.09486095607280731, 0.10663308948278427, 0.11705422401428223, -0.12163786590099335, -0.024449946358799934, -0.1685638278722763], [-0.042561065405607224, 0.16398940980434418, -0.10454527288675308, -0.1451859176158905, 0.16466432809829712, 0.1920618861913681, 0.08708328008651733, -0.08668695390224457, -0.07769231498241425, -0.15112759172916412], [-0.090874083340168, 0.07774247229099274, -0.11928588151931763, -0.14360924065113068, 0.18951138854026794, 0.22294898331165314, 0.09152603149414062, -0.04976292699575424, -0.07963750511407852, -0.09855929762125015], [-0.08366480469703674, 0.016626939177513123, -0.07810605317354202, -0.05291459709405899, 0.0713568925857544, 0.1804632544517517, 0.03867632523179054, -0.01806725189089775, -0.03145536035299301, -0.042915116995573044], [-0.03194841369986534, -0.025239521637558937, -0.01933506317436695, -0.012280981987714767, 0.001848258194513619, 0.09017278254032135, -0.0016197619261220098, -0.005304547958076, 0.016744885593652725, -0.013037597760558128], [-0.00873862486332655, -0.004318407736718655, -0.004110880196094513, -0.0012200132478028536, -0.004793448373675346, 0.0206062700599432, 0.005265394225716591, -0.0017114648362621665, 0.0010047468822449446, -0.0019835683051496744], [-0.00048073509242385626, -0.001308928243815899, -0.0010422013001516461, -5.0599210226209834e-05, -7.863670180086046e-05, -3.3162476029247046e-05, 0.003499329090118408, -4.496732435654849e-05, -0.0004274515376891941, -3.2647705666022375e-05], [0.0, 0.0, 0.0, 0.0, 0.0, 0.0, 0.0, 0.0, 0.0, 0.0], [-8.402818139074952e-07, -5.088496664029662e-07, -5.440165296022315e-06, 5.864457489224151e-05, -2.5586481910977454e-07, -4.58109434475773e-06, -1.0530769145589147e-07, -1.4292400010162964e-06, -4.5965293793415185e-06, -4.0887276554713026e-05], [-0.0002991750661749393, -0.0009625135571695864, -0.0002722595527302474, 0.0007492306758649647, -0.0014184449100866914, -0.000797549553681165, -0.00024055902031250298, 0.005364393815398216, -0.0007641125121153891, -0.001359010231681168], [-0.001623050426132977, 0.0002772521402221173, 0.008107099682092667, 0.040027715265750885, -0.005446005612611771, -0.03118448704481125, -0.009252575226128101, 0.020192870870232582, -0.012741534039378166, -0.008357279002666473], [-0.012587426230311394, -0.0010203563142567873, 0.03130730614066124, 0.09099981188774109, 0.012007282115519047, -0.07158435881137848, -0.008411860093474388, 0.01424782257527113, -0.026149682700634003, -0.028808480128645897], [-0.025211935862898827, -0.01904243230819702, 0.055664822459220886, 0.16034287214279175, 0.04757381230592728, -0.0930405706167221, -0.04057331383228302, 0.03818385675549507, -0.04571911692619324, -0.0781780481338501], [-0.04150134325027466, -0.052107542753219604, 0.12965688109397888, 0.1895831674337387, 0.051450733095407486, -0.09867042303085327, -0.06417522579431534, 0.0679062083363533, -0.06520876288414001, -0.11693374067544937], [-0.061040353029966354, -0.10889264941215515, 0.17931368947029114, 0.13938921689987183, 0.06154013052582741, -0.04053068906068802, -0.025635607540607452, 0.06161922216415405, -0.038383349776268005, -0.16737985610961914], [-0.08877135813236237, -0.18742960691452026, 0.1874893754720688, 0.15850871801376343, 0.02010350115597248, 0.018446657806634903, -0.016204949468374252, 0.09183281660079956, 0.0008134021773003042, -0.18478891253471375], [-0.09850084036588669, -0.22112002968788147, 0.21033747494220734, 0.18688465654850006, -0.013828713446855545, 0.0473845936357975, -0.056132759898900986, 0.07694317400455475, 0.0018915878608822823, -0.13385936617851257], [-0.0027933784294873476, -0.15144042670726776, 0.15689367055892944, 0.1741664856672287, -0.08935476094484329, 0.04897649958729744, -0.12569758296012878, 0.07375822216272354, -0.004528787452727556, -0.07997991889715195], [0.01512428279966116, -0.06788362562656403, 0.06462770700454712, 0.0962749719619751, -0.15949603915214539, 0.032859716564416885, -0.14205053448677063, 0.05192505568265915, 0.08361657708883286, 0.025001345202326775], [0.02210884913802147, -0.06099501997232437, 0.08016370236873627, 0.08827441185712814, -0.17613324522972107, -0.00673673115670681, -0.11917391419410706, -0.03166513890028, 0.1481204628944397, 0.05603610351681709], [0.10665430873632431, -0.06765609979629517, 0.10803912580013275, 0.15356454253196716, -0.2188233733177185, -0.019078504294157028, -0.17424723505973816, -0.1486489176750183, 0.07205254584550858, 0.18814373016357422], [0.1179993599653244, -0.08463842421770096, 0.10565591603517532, 0.1470593959093094, -0.27750834822654724, 0.019167335703969002, -0.15015794336795807, -0.18437069654464722, 0.06983084976673126, 0.23696155846118927], [0.12698619067668915, -0.153792604804039, 0.06923779845237732, 0.146587073802948, -0.2735702693462372, -0.06110282242298126, -0.10272601991891861, -0.11475298553705215, 0.2087412178516388, 0.15439185500144958], [0.17826832830905914, -0.17890103161334991, 0.07083629816770554, 0.14970819652080536, -0.21018308401107788, -0.061409756541252136, -0.12554007768630981, -0.09440086781978607, 0.16031000018119812, 0.11131144315004349], [0.21147599816322327, -0.18573321402072906, 0.029630837962031364, 0.10819189995527267, -0.14444229006767273, 0.013159910216927528, -0.1165359765291214, -0.09606361389160156, 0.11390085518360138, 0.06641465425491333], [0.21354028582572937, -0.06878123432397842, 0.01038369070738554, 0.11167846620082855, -0.14130878448486328, 0.07120807468891144, -0.09909233450889587, -0.1443483531475067, -0.024720944464206696, 0.0714404359459877], [0.13617727160453796, -0.0006038957508280873, -0.05872387811541557, -0.019908791407942772, -0.0428558811545372, 0.1099972128868103, -0.037877608090639114, -0.1400020271539688, 0.08403780311346054, -0.030240792781114578], [0.07749485224485397, 0.08840721100568771, -0.09147700667381287, 0.019102076068520546, -0.0333390049636364, 0.09007717669010162, -0.020318562164902687, -0.1073165088891983, 0.060062527656555176, -0.08269314467906952], [0.114696204662323, 0.1063065230846405, -0.09312304109334946, -0.04585164785385132, 0.09488385915756226, 0.0777081847190857, -0.026404624804854393, -0.07686115056276321, 0.02036234550178051, -0.17171655595302582], [0.07699059695005417, 0.08014088869094849, -0.11737915873527527, -0.146234929561615, 0.2425314038991928, 0.18694955110549927, -0.03219453990459442, -0.09078856557607651, 0.026868566870689392, -0.22688338160514832], [-0.04967138543725014, 0.02337256446480751, -0.1567828357219696, -0.15364451706409454, 0.2559053897857666, 0.29897332191467285, -0.022823072969913483, -0.08300253003835678, 0.07455606013536453, -0.1868826299905777], [-0.12234258651733398, -0.02261948026716709, -0.08550262451171875, -0.07693969458341599, 0.08627719432115555, 0.35649165511131287, -0.01464554201811552, -0.044855713844299316, 0.026185831055045128, -0.10204924643039703], [-0.07115352153778076, -0.03319881111383438, -0.027767786756157875, -0.022883184254169464, -0.0015868479385972023, 0.18877361714839935, -0.0075282384641468525, -0.019322959706187248, 0.03341546282172203, -0.038747645914554596], [-0.02847273088991642, -0.0029835065361112356, -0.0034426019992679358, -0.002964350860565901, 0.002560172462835908, 0.06027113273739815, -0.009528313763439655, -0.006381247658282518, 9.697418136056513e-05, -0.009155509062111378], [-0.0029584637377411127, -0.0002313559380127117, -0.00026678998256102204, -0.0002964430022984743, -0.00048607515054754913, 0.007149296347051859, -0.0008151461370289326, -0.00047433620784431696, -0.0011744691291823983, -0.00044621649431064725], [0.0, 0.0, 0.0, 0.0, 0.0, 0.0, 0.0, 0.0, 0.0, 0.0], [-0.0001127889336203225, -0.00012760001118294895, -0.0002699526958167553, 0.0017800332279875875, -0.0001768750953488052, -0.0004383737104944885, -3.528521119733341e-05, 0.0015917590353637934, -0.0007531602750532329, -0.0014577556867152452], [-0.0004716136900242418, -0.0009093192056752741, 0.000673529168125242, 0.000507157004904002, -0.0021184927318245173, -0.007373129948973656, -0.0008052571793086827, 0.017320360988378525, -0.0019493339350447059, -0.004873903002589941], [-0.003188012633472681, -0.0029798781033605337, 0.009613297879695892, 0.047635119408369064, -0.0018885787576436996, -0.04618598520755768, -0.01370641216635704, 0.05061845853924751, -0.012907679192721844, -0.027010314166545868], [-0.022612344473600388, -0.005668019875884056, 0.06082490459084511, 0.15922033786773682, 0.018853062763810158, -0.14589768648147583, -0.01677226647734642, 0.044881436973810196, -0.018621869385242462, -0.0742073804140091], [-0.025466948747634888, -0.03630415350198746, 0.07213210314512253, 0.22306324541568756, 0.06402130424976349, -0.15207314491271973, -0.0565166249871254, 0.08210045099258423, -0.017354005947709084, -0.15360209345817566], [-0.044584695249795914, -0.08641724288463593, 0.17330698668956757, 0.16983811557292938, 0.04814773052930832, -0.11110515147447586, -0.09751676023006439, 0.14023137092590332, 0.0007008874672465026, -0.1926010102033615], [-0.0823761522769928, -0.13418839871883392, 0.13610975444316864, 0.10362760722637177, 0.04578324034810066, 0.0065699126571416855, -0.0392608717083931, 0.15366028249263763, 0.03884685039520264, -0.22877193987369537], [-0.11024897545576096, -0.2300722897052765, 0.12200382351875305, 0.08944393694400787, -0.006124997045844793, 0.09237531572580338, -0.03712240979075432, 0.16118139028549194, 0.06921232491731644, -0.15064828097820282], [-0.033318065106868744, -0.2433597445487976, 0.055473681539297104, 0.10747841745615005, -0.05434401333332062, 0.07134608924388885, -0.08974077552556992, 0.21608714759349823, 0.030810965225100517, -0.060433290898799896], [0.013323944061994553, -0.2003355324268341, 0.02309376187622547, 0.09053295850753784, -0.13999702036380768, 0.09529213607311249, -0.14283989369869232, 0.2258370965719223, 0.046033844351768494, -0.01094084046781063], [0.033914964646101, -0.15690092742443085, 0.048694632947444916, 0.08266615867614746, -0.2236359566450119, 0.10104365646839142, -0.136436328291893, 0.19107745587825775, -0.018338557332754135, 0.07791484147310257], [0.05833960324525833, -0.09910088032484055, 0.007013890892267227, 0.1259431093931198, -0.3100493848323822, 0.006549190264195204, -0.15346908569335938, 0.1381904035806656, 0.027058102190494537, 0.19952431321144104], [0.08535343408584595, -0.14101222157478333, 0.05856721103191376, 0.15665829181671143, -0.3151717185974121, -0.06186766177415848, -0.17926771938800812, 0.06895499676465988, 0.001535485964268446, 0.3262496590614319], [0.06743688881397247, -0.1331118792295456, 0.02883591130375862, 0.21493355929851532, -0.40403348207473755, 0.009865652769804, -0.16243384778499603, 0.00034792046062648296, -0.08163201063871384, 0.45979127287864685], [0.0897287055850029, -0.21483100950717926, -0.04529396444559097, 0.19611652195453644, -0.43419256806373596, -0.07379212230443954, -0.12819470465183258, 0.03917047381401062, 0.06423923373222351, 0.5070493221282959], [0.15595538914203644, -0.18367409706115723, -0.06654313951730728, 0.08372139930725098, -0.3780967891216278, 0.02746434696018696, -0.2150437980890274, 0.11083558946847916, 0.04185623675584793, 0.4235246777534485], [0.20691142976284027, -0.16423046588897705, -0.14350388944149017, 0.10395514219999313, -0.2545575499534607, 0.1123724952340126, -0.2469019740819931, 0.15534991025924683, -0.026495497673749924, 0.2570996582508087], [0.19802550971508026, -0.12091898173093796, -0.10830969363451004, 0.05791846662759781, -0.21806621551513672, 0.11306760460138321, -0.2602412700653076, 0.1588645875453949, 0.03742380812764168, 0.14223557710647583], [0.1337667852640152, -0.01957089826464653, -0.0714118704199791, 0.07186457514762878, -0.13413839042186737, 0.1243675947189331, -0.2432885617017746, 0.09839997440576553, -0.03011367656290531, 0.07012379914522171], [0.05823449790477753, 0.012059925124049187, -0.1054949015378952, 0.08830181509256363, -0.10685393959283829, 0.09352605044841766, -0.20802177488803864, 0.08924034237861633, 0.039341703057289124, 0.03966592624783516], [0.07316716760396957, -0.014953686855733395, -0.05718123912811279, -0.012055101804435253, 0.02247626893222332, 0.10472855716943741, -0.18316306173801422, 0.024833280593156815, 0.08787579089403152, -0.04572812840342522], [0.10731340199708939, -0.030464433133602142, -0.05883106216788292, -0.11092112958431244, 0.19227372109889984, 0.16660553216934204, -0.18430280685424805, -0.0016210621688514948, 0.13101308047771454, -0.21106593310832977], [0.03901131451129913, -0.0721580907702446, -0.17951712012290955, -0.16523295640945435, 0.2058725655078888, 0.37237831950187683, -0.13603529334068298, -0.042011555284261703, 0.2083890289068222, -0.23069655895233154], [-0.0852147564291954, -0.10990708321332932, -0.12362739443778992, -0.11200284212827682, 0.05231923609972, 0.4842045307159424, -0.04769948497414589, -0.05414428561925888, 0.14191749691963196, -0.14584487676620483], [-0.09188719838857651, -0.05397151783108711, -0.03439294919371605, -0.030728692188858986, -0.016053581610322, 0.34553614258766174, -0.03294897824525833, -0.0324421226978302, 0.006861390545964241, -0.0599726065993309], [-0.033399637788534164, -0.0035753350239247084, -0.0041289860382676125, -0.0023636578116565943, 0.00271766004152596, 0.08305288851261139, -0.010274828411638737, -0.007042345590889454, -0.011434772051870823, -0.013550983741879463], [-0.0022837063297629356, -0.0012410844210535288, -0.00021033418306615204, -0.00010725524043664336, -0.0005929055623710155, 0.007206498645246029, -0.0017803601222112775, -0.00036867812741547823, -0.0001410934200976044, -0.00048108238843269646], [0.0020587516482919455, -1.281123758190006e-07, -6.159943586681038e-05, -2.265729506234493e-07, -6.269508594414219e-05, -1.6742283150961157e-06, -3.263272901676828e-06, -0.0009392148349434137, -5.952028004685417e-06, -0.00098399817943573], [-0.00022873375564813614, -0.00015356027870438993, 0.00033771625021472573, -0.001788638299331069, -0.002914250595495105, -0.000690401007886976, -0.00010431590635562316, 0.013043449260294437, -0.0009966150391846895, -0.006504650693386793], [-0.0008644829504191875, -0.000511174148414284, -0.0009129270329140127, -0.0026678210124373436, -0.003914914093911648, -0.007635494228452444, -0.0011555708479136229, 0.03665698319673538, -0.0037294586654752493, -0.015265129506587982], [-0.00454597407951951, -0.0018752611940726638, 0.009722333401441574, 0.04711460322141647, -0.008836058899760246, -0.051461245864629745, -0.015459677204489708, 0.08862467110157013, -0.005207370035350323, -0.05807596445083618], [-0.039233263581991196, -0.009731683880090714, 0.05892755091190338, 0.18066012859344482, -0.0033942179288715124, -0.17976966500282288, -0.02928912825882435, 0.126552015542984, 0.007196406833827496, -0.11191802471876144], [-0.0458834171295166, -0.036989182233810425, 0.0748913586139679, 0.19642822444438934, 0.04923807084560394, -0.17390522360801697, -0.08283128589391708, 0.13006258010864258, 0.04170166328549385, -0.1527128368616104], [-0.06635337322950363, -0.0963936597108841, 0.12078051269054413, 0.14955584704875946, 0.010321044363081455, -0.12606504559516907, -0.12299375236034393, 0.15243284404277802, 0.10398916900157928, -0.12527360022068024], [-0.08078495413064957, -0.143263578414917, 0.10841066390275955, 0.07484449446201324, -0.02268463745713234, -0.02661815844476223, -0.08270280808210373, 0.21702896058559418, 0.1259278655052185, -0.1701578050851822], [-0.06314411014318466, -0.2261907458305359, 0.08099354058504105, 0.05085454881191254, -0.08963394910097122, 0.09124159812927246, -0.06273933500051498, 0.17534808814525604, 0.0737452507019043, -0.030474644154310226], [0.016313673928380013, -0.2683911621570587, 0.06952259689569473, 0.03159553185105324, -0.02979739010334015, 0.07823217660188675, -0.1067027896642685, 0.15627451241016388, 0.11920973658561707, -0.0662563368678093], [0.026462791487574577, -0.24408073723316193, 0.14648650586605072, 0.04570743441581726, -0.14170683920383453, 0.11639252305030823, -0.15675568580627441, 0.16054444015026093, 0.08349546790122986, -0.03654605895280838], [0.022000327706336975, -0.17603540420532227, 0.13352236151695251, -0.014711924828588963, -0.17404846847057343, 0.1443767100572586, -0.15658295154571533, 0.2238932102918625, 0.045511774718761444, -0.047926440834999084], [0.07069713622331619, -0.09880213439464569, 0.059199195355176926, 0.027952944859862328, -0.222850039601326, 0.03232532739639282, -0.1619585007429123, 0.2242748737335205, 0.13728083670139313, -0.06811993569135666], [0.04141807183623314, -0.0639100894331932, 0.050800975412130356, 0.09110098332166672, -0.26754459738731384, -0.04932346194982529, -0.2089475393295288, 0.13154521584510803, 0.11952883005142212, 0.1553308665752411], [0.08633916825056076, -0.022892635315656662, 0.09147453308105469, 0.20448341965675354, -0.43370288610458374, -0.08985096216201782, -0.2268993854522705, 0.15879003703594208, -0.0656823143362999, 0.297941118478775], [0.15132972598075867, 0.020482037216424942, 0.09718624502420425, 0.18265631794929504, -0.454818457365036, -0.16686774790287018, -0.25485825538635254, 0.2208385169506073, -0.06389419734477997, 0.26794567704200745], [0.2632661759853363, -0.08252142369747162, -0.0035066138952970505, 0.11714281141757965, -0.34624895453453064, -0.09901051968336105, -0.32052603363990784, 0.26347076892852783, 0.03342195600271225, 0.17451217770576477], [0.2387574464082718, -0.02239886112511158, -0.04719632491469383, 0.11709676682949066, -0.18978387117385864, -0.02364066243171692, -0.38632312417030334, 0.24948760867118835, 0.009140321053564548, 0.05486012622714043], [0.17922261357307434, -0.058428023010492325, -0.06430752575397491, 0.1606225073337555, -0.11490405350923538, -0.011249351315200329, -0.44586846232414246, 0.2419397234916687, 0.04810647293925285, 0.06486611813306808], [0.12649665772914886, -0.07254557311534882, 0.024747589603066444, 0.1412292718887329, -0.10703393071889877, 0.04680381342768669, -0.40028414130210876, 0.16208331286907196, 0.06667745858430862, 0.011825738474726677], [0.0899590328335762, -0.1113700270652771, -0.05178851634263992, 0.16634821891784668, -0.07089012116193771, 0.12642832100391388, -0.3105892241001129, 0.13098232448101044, 0.04132199287414551, -0.010402011685073376], [0.06041860207915306, -0.1440574675798416, -0.062036652117967606, 0.09374400973320007, -0.019780263304710388, 0.14645293354988098, -0.26870790123939514, 0.03929608315229416, 0.11913372576236725, 0.035536736249923706], [0.1566326916217804, -0.17346878349781036, -0.08445151895284653, 0.015908749774098396, 0.04780301824212074, 0.16974657773971558, -0.25842100381851196, 0.04347709193825722, 0.21895574033260345, -0.13618271052837372], [0.16766490042209625, -0.1965235024690628, -0.13363823294639587, -0.19531024992465973, 0.07228529453277588, 0.483394980430603, -0.20700803399085999, -0.01910589449107647, 0.23046906292438507, -0.20222841203212738], [-0.029038984328508377, -0.16044215857982635, -0.14371418952941895, -0.1425013393163681, -0.008800108917057514, 0.6626333594322205, -0.11780031770467758, -0.07610499113798141, 0.15286146104335785, -0.13709263503551483], [-0.0908702164888382, -0.06604845821857452, -0.04754454642534256, -0.04086044430732727, -0.022716695442795753, 0.4417257010936737, -0.05996168032288551, -0.04524790123105049, 0.000451530737336725, -0.06892748922109604], [-0.024925000965595245, -0.0069511341862380505, -0.005444556009024382, -0.0029700135346502066, -0.015880770981311798, 0.09536243975162506, -0.025135958567261696, -0.00899343192577362, 0.00707939313724637, -0.012140939943492413], [-0.0011355449678376317, -0.0009053008980117738, -0.00022453381097875535, -2.6991410777554847e-05, -0.0004214782384224236, 0.004173193126916885, -0.0019130016444250941, -0.0016393373953178525, 0.002579263411462307, -0.0004862694186158478], [-2.09844506571244e-06, -1.7834086065704469e-06, -2.706285158637911e-06, -6.326082802843302e-05, -0.00025805894983932376, -2.6924239136860706e-05, -2.72916395260836e-06, 0.0009083232143893838, -1.5288544091163203e-05, -0.0005354738095775247], [-0.0003403220616746694, -5.1896582590416074e-05, -0.00028187697171233594, -0.0017127689206972718, -0.003831237554550171, -0.0007956381305120885, -6.749406747985631e-05, 0.016986679285764694, -0.0008199299336411059, -0.009085511788725853], [-0.001047280733473599, -0.000640960643067956, 0.0018873983062803745, 0.00293638720177114, -0.008025883696973324, -0.0040631964802742004, -0.001480709295719862, 0.04516681283712387, -0.008651597425341606, -0.02608095481991768], [-0.005218152422457933, -0.002435373142361641, 0.014490275643765926, 0.04481879249215126, -0.03838597983121872, -0.04666520282626152, -0.02186887338757515, 0.133374884724617, -0.007624849211424589, -0.07048553973436356], [-0.036531537771224976, -0.01517719216644764, 0.04474438726902008, 0.17422138154506683, -0.04992315545678139, -0.14997515082359314, -0.03959827497601509, 0.18247942626476288, 0.031266238540410995, -0.14150655269622803], [-0.0467086099088192, -0.05688316747546196, 0.11905793845653534, 0.12435740977525711, -0.019003381952643394, -0.15329958498477936, -0.10572832822799683, 0.14232906699180603, 0.08021172881126404, -0.0843328982591629], [-0.06593961268663406, -0.09975406527519226, 0.08347730338573456, 0.07655274122953415, -0.06613977998495102, -0.07157262414693832, -0.12118691205978394, 0.1101498231291771, 0.13670209050178528, 0.017711205407977104], [-0.06412660330533981, -0.12234100699424744, 0.027976015582680702, 0.035048358142375946, -0.07204803824424744, 0.05411713570356369, -0.044850945472717285, 0.08030036836862564, 0.1282573640346527, -0.022332627326250076], [-0.03982279449701309, -0.17835427820682526, -0.017556695267558098, -0.02413051202893257, -0.05751468613743782, 0.15447139739990234, -0.0334586575627327, 0.03586995229125023, 0.15046457946300507, 0.010031786747276783], [0.01447758823633194, -0.22644031047821045, 0.04412505403161049, -0.10046734660863876, -0.010380077175796032, 0.1515810787677765, -0.09827808290719986, 0.05247917026281357, 0.16880714893341064, 0.0040955087170004845], [0.05344536900520325, -0.20818094909191132, 0.12496864795684814, -0.19781892001628876, -0.09778863191604614, 0.2114029973745346, -0.13432683050632477, 0.050317637622356415, 0.13297748565673828, 0.06500287353992462], [-0.0062598357908427715, -0.12980712950229645, 0.08010560274124146, -0.3014766275882721, -0.07505005598068237, 0.26824355125427246, -0.11807161569595337, 0.10802154242992401, 0.13902053236961365, 0.03527367115020752], [0.013023479841649532, -0.08125073462724686, 0.052029889076948166, -0.2609541714191437, -0.07770490646362305, 0.17049640417099, -0.1583804041147232, 0.18263036012649536, 0.12120254337787628, 0.03890720009803772], [0.0989641323685646, 0.043682362884283066, 0.08333680033683777, -0.07047079503536224, -0.1925942301750183, 0.020520905032753944, -0.213204488158226, 0.16713355481624603, -0.0009888344211503863, 0.06362036615610123], [0.052087947726249695, 0.19999070465564728, 0.13391685485839844, 0.18358130753040314, -0.5081879496574402, -0.1268978714942932, -0.17199011147022247, 0.2559370696544647, -0.18844150006771088, 0.17000307142734528], [0.02999550849199295, 0.3092861473560333, 0.1374996155500412, 0.2752234935760498, -0.4092988967895508, -0.2669929563999176, -0.28079360723495483, 0.3296228051185608, -0.27864107489585876, 0.15409965813159943], [0.1079367846250534, 0.1063585951924324, 0.1692434549331665, 0.21539728343486786, -0.12947587668895721, -0.2828327715396881, -0.4183559715747833, 0.3671284019947052, -0.12598916888237, -0.009410897269845009], [0.1917705237865448, -0.0002061996201518923, 0.04011225700378418, 0.15803079307079315, -0.028783250600099564, -0.19758281111717224, -0.49713847041130066, 0.34768667817115784, 0.0005269723478704691, -0.014416791498661041], [0.21161505579948425, -0.08580119162797928, 0.04726308211684227, 0.12862616777420044, -0.03707081452012062, -0.12346289306879044, -0.485573947429657, 0.24663971364498138, 0.04776466265320778, 0.04999969154596329], [0.1901106983423233, -0.16567522287368774, 0.016619296744465828, 0.17972098290920258, -0.044556278735399246, -0.03917134553194046, -0.42373332381248474, 0.21356423199176788, 0.05438200384378433, 0.01873876340687275], [0.11288591474294662, -0.21579302847385406, -0.04635939374566078, 0.2513221800327301, -0.07012410461902618, 0.055140092968940735, -0.31047719717025757, 0.14312297105789185, 0.061459753662347794, 0.018823014572262764], [0.04512648284435272, -0.24565529823303223, -0.0878317654132843, 0.18423964083194733, -0.058947060257196426, 0.17335858941078186, -0.25397026538848877, 0.14536817371845245, 0.13036200404167175, -0.032050080597400665], [0.13680072128772736, -0.24698178470134735, -0.05228414386510849, 0.047975145280361176, -0.031625472009181976, 0.2660766839981079, -0.27011677622795105, 0.07031400501728058, 0.19333386421203613, -0.11349242925643921], [0.24135752022266388, -0.21897944808006287, -0.12013164907693863, -0.1395857334136963, -0.05882551148533821, 0.5240486264228821, -0.19510914385318756, -0.050986386835575104, 0.19306470453739166, -0.17485229671001434], [0.04671122133731842, -0.14180481433868408, -0.13007131218910217, -0.11968458443880081, -0.1269630640745163, 0.7555161714553833, -0.13877037167549133, -0.07243480533361435, 0.06471089273691177, -0.1372097134590149], [-0.08705499768257141, -0.05823521688580513, -0.0419950932264328, -0.0275727491825819, -0.08695589751005173, 0.512424647808075, -0.1006661131978035, -0.030183857306838036, -0.018940577283501625, -0.06082030385732651], [-0.028746647760272026, -0.007922220975160599, -0.00433092936873436, -0.0032703103497624397, -0.025993691757321358, 0.11469914764165878, -0.03616216033697128, -0.003027999307960272, 0.011134298518300056, -0.016379501670598984], [-0.0007663705036975443, -0.001271839253604412, -0.0005618730210699141, -0.00021730989101342857, -0.0023815673775970936, 0.008366669528186321, -0.002554346574470401, 0.007038193754851818, -0.005899399984627962, -0.0017521583940833807], [-3.403495156817371e-06, -2.1125049443071475e-06, -5.3161847972660325e-06, -9.440503345103934e-05, -0.0003023602766916156, -3.428638956393115e-05, -3.2272550924972165e-06, 0.0012449362548068166, -2.074895382975228e-05, -0.0007790769450366497], [-0.000338889891281724, -2.217269138782285e-05, -0.00011003060353687033, -0.0016593263717368245, -0.0034292591735720634, -0.0007495120516978204, -3.488892616587691e-05, 0.01671939343214035, -0.0004841859336011112, -0.009891130961477757], [0.0005311460117809474, -0.0007449291879311204, 0.0013476493768393993, 0.004765842109918594, -0.014873028732836246, -0.004151375498622656, -0.0033276218455284834, 0.06028192117810249, -0.008319004438817501, -0.03551053628325462], [-0.01298882719129324, -0.008420679718255997, 0.01598147302865982, 0.05968908965587616, -0.044524915516376495, -0.03510472550988197, -0.02115640789270401, 0.14107894897460938, -0.02206146903336048, -0.07249251008033752], [-0.037028517574071884, -0.015201541595160961, -0.010186945088207722, 0.0823727622628212, -0.04902203753590584, -0.07252287864685059, -0.050963688641786575, 0.1884961575269699, 0.06162566691637039, -0.09756895899772644], [-0.04222976788878441, -0.05773230269551277, 0.04945474863052368, 0.014492161571979523, -0.05477841943502426, -0.07045901566743851, -0.09166790544986725, 0.14822445809841156, 0.08800181746482849, 0.01669430360198021], [-0.04428299516439438, -0.105356864631176, 0.040478743612766266, -0.07549946755170822, -0.08762399852275848, 0.02629205211997032, -0.07894466817378998, 0.05817323923110962, 0.15554648637771606, 0.1112174540758133], [-0.04442528262734413, -0.12044410407543182, -0.10414859652519226, -0.13665972650051117, -0.04399969428777695, 0.13075196743011475, 0.006058404687792063, 0.03727198764681816, 0.19784444570541382, 0.07775045186281204], [-0.033510640263557434, -0.1435561329126358, -0.11893503367900848, -0.25191929936408997, 0.010479971766471863, 0.21038667857646942, 0.014790521934628487, -0.039791397750377655, 0.2179267406463623, 0.13412855565547943], [-0.001951074693351984, -0.17915070056915283, -0.13204410672187805, -0.34649115800857544, 0.08764813840389252, 0.2584552764892578, -0.05817708000540733, 0.02888106182217598, 0.2307237684726715, 0.11210605502128601], [-0.01916510798037052, -0.13558290898799896, -0.1041717603802681, -0.4389565885066986, 0.049254246056079865, 0.23597781360149384, -0.03027864545583725, 0.05540580302476883, 0.20937572419643402, 0.17814114689826965], [0.00175393745303154, -0.0857214406132698, -0.1154761016368866, -0.45515522360801697, 0.03677511215209961, 0.26951873302459717, -0.05065112188458443, 0.008339794352650642, 0.1907528191804886, 0.1998632848262787], [0.026189357042312622, -0.017368363216519356, -0.1730128824710846, -0.3590887784957886, 0.11190608143806458, 0.26719754934310913, -0.11569755524396896, 0.009740801528096199, 0.17183318734169006, 0.07829985022544861], [0.05002063140273094, 0.14430038630962372, -0.20200280845165253, -0.002154311165213585, -0.22900313138961792, 0.20037564635276794, -0.07318462431430817, 0.14643114805221558, 0.032698020339012146, -0.0674811452627182], [-0.02359681949019432, 0.41627728939056396, -0.09527794271707535, 0.24295860528945923, -0.5741443037986755, 0.0597257986664772, -0.17257507145404816, 0.2628614902496338, -0.09039813280105591, -0.025830255821347237], [-0.10962879657745361, 0.48971813917160034, -0.09171810001134872, 0.23679907619953156, -0.26622238755226135, -0.06469570100307465, -0.3494841456413269, 0.4019816517829895, -0.1962786316871643, -0.05047066509723663], [-0.07941416651010513, 0.18632125854492188, 0.01792754977941513, 0.2060389667749405, 0.006955539342015982, -0.16508698463439941, -0.4157414436340332, 0.4910125434398651, -0.22789953649044037, -0.020113900303840637], [0.10133958607912064, -0.00803991500288248, 0.021126488223671913, 0.16864818334579468, 0.07614163309335709, -0.2529939115047455, -0.42283138632774353, 0.36965370178222656, -0.09681389480829239, 0.04376897215843201], [0.17748995125293732, -0.1482795774936676, 0.04976843670010567, 0.17482849955558777, -0.04011188820004463, -0.24132949113845825, -0.3737146258354187, 0.2718171179294586, 0.05514227971434593, 0.07439012825489044], [0.15101584792137146, -0.1840447336435318, 0.03217548504471779, 0.23117473721504211, -0.043384186923503876, -0.18818846344947815, -0.3513503074645996, 0.24143394827842712, 0.06532400846481323, 0.04584360867738724], [0.1411130428314209, -0.2602721154689789, -0.04917095601558685, 0.27320387959480286, -0.12429243326187134, -0.08186081796884537, -0.2633807957172394, 0.22466954588890076, 0.061984363943338394, 0.07800654321908951], [0.10729826241731644, -0.24253277480602264, -0.0763828381896019, 0.12298073619604111, -0.10616453737020493, -0.0004467631224542856, -0.1758410930633545, 0.22035761177539825, 0.11719098687171936, 0.0335402749478817], [0.1975707709789276, -0.205341175198555, -0.07142842561006546, -0.018688002601265907, -0.11320345103740692, 0.07610813528299332, -0.14194130897521973, 0.09436118602752686, 0.1935023069381714, -0.010940180160105228], [0.29684844613075256, -0.16669610142707825, -0.10530851781368256, -0.09712443500757217, -0.19462698698043823, 0.3161819279193878, -0.08550957590341568, -0.07016804069280624, 0.1837061643600464, -0.07730347663164139], [0.11081426590681076, -0.11034920811653137, -0.087056465446949, -0.07908763736486435, -0.16876119375228882, 0.5862185955047607, -0.1051551103591919, -0.06555936485528946, 0.04638269916176796, -0.12744642794132233], [-0.07431421428918839, -0.040464356541633606, -0.026489906013011932, -0.0171050988137722, -0.1072436198592186, 0.47931191325187683, -0.10647828876972198, -0.02378084883093834, -0.02534051053225994, -0.058095116168260574], [-0.03292436525225639, -0.01022620964795351, 0.00028529163682833314, -0.0022694915533065796, -0.026425376534461975, 0.1237822026014328, -0.036319248378276825, -0.003886939724907279, 0.006114685907959938, -0.01813051849603653], [-0.0005277938907966018, -0.00011822768283309415, -0.0003056136192753911, -7.60732582421042e-05, -0.0006357231759466231, 0.005272713024169207, -0.005340191535651684, 0.0010317172855138779, 0.003618428949266672, -0.002919236896559596], [-3.381984060979448e-05, -2.6898092073679436e-06, -9.506249625701457e-06, -8.203929610317573e-05, -6.34402604191564e-05, -5.616194903268479e-05, -5.099940153741045e-06, 0.0007565096602775156, -2.8137341359979473e-05, -0.00047561508836224675], [0.0010875019943341613, 0.0001234755909536034, -0.00019229495956096798, -0.0010895200539380312, -0.005275038070976734, -0.0028097033500671387, -7.463603833457455e-05, 0.02282487414777279, -0.0006569370743818581, -0.013937720097601414], [-0.003041173331439495, -0.00033107699709944427, -0.0011913010384887457, 0.0030228900723159313, -0.030050797387957573, -0.006766317877918482, -0.0012066299095749855, 0.09770877659320831, -0.006368357688188553, -0.05177602544426918], [-0.014790108427405357, -0.005462470930069685, -0.009430614300072193, 0.044149208813905716, -0.03990132361650467, -0.03338942676782608, -0.02144228294491768, 0.16491059958934784, -0.015455454587936401, -0.06918798387050629], [-0.0700211375951767, -0.007603474427014589, -0.05195491015911102, 0.025597967207431793, -0.061293262988328934, -0.029480192810297012, -0.04245638847351074, 0.21069930493831635, 0.035556256771087646, -0.00904408935457468], [-0.057926252484321594, -0.03478839620947838, -0.09677398204803467, -0.09161195158958435, -0.06469469517469406, 0.004243000410497189, -0.03878958150744438, 0.1152634397149086, 0.11725509911775589, 0.14782339334487915], [-0.009030374698340893, -0.08521289378404617, -0.19820575416088104, -0.21641859412193298, -0.03072381764650345, 0.12576012313365936, -0.01909332163631916, 0.043502166867256165, 0.1902174949645996, 0.19920460879802704], [0.007889286614954472, -0.11486736685037613, -0.3054262399673462, -0.3357577919960022, 0.030009035021066666, 0.1406129002571106, 0.07035089284181595, 0.06282904744148254, 0.2625954747200012, 0.18176476657390594], [-0.007101967930793762, -0.13587242364883423, -0.33172979950904846, -0.40013760328292847, 0.1147700846195221, 0.17208798229694366, 0.04934820160269737, -0.015522534027695656, 0.2682077884674072, 0.28594979643821716], [-0.037056196480989456, -0.170589417219162, -0.33777257800102234, -0.37251222133636475, 0.18714649975299835, 0.15992297232151031, 0.051846813410520554, 0.08279894292354584, 0.2671307325363159, 0.16908429563045502], [-0.0068761203438043594, -0.17812813818454742, -0.4380985200405121, -0.3007749319076538, 0.2476595938205719, 0.15511147677898407, 0.0464194118976593, 0.09566833823919296, 0.164109006524086, 0.21491017937660217], [-0.011298774741590023, -0.18024782836437225, -0.4507402777671814, -0.1787063479423523, 0.2133171558380127, 0.20950168371200562, -0.005800727754831314, 0.06237861141562462, 0.1276208907365799, 0.2139757126569748], [-0.012088930234313011, -0.07912664860486984, -0.5342128872871399, -0.06077708303928375, 0.21539932489395142, 0.29874294996261597, 0.04251905158162117, -0.01666780188679695, 0.176295205950737, -0.030082810670137405], [-0.040173109620809555, 0.19151750206947327, -0.5559439659118652, 0.18905144929885864, -0.3235478401184082, 0.33420994877815247, 0.04234631359577179, 0.04008658230304718, 0.24293340742588043, -0.12048022449016571], [-0.25889086723327637, 0.5817617774009705, -0.42563939094543457, 0.22980158030986786, -0.5032982230186462, 0.12835076451301575, -0.19218090176582336, 0.19302305579185486, 0.27220550179481506, -0.02513299509882927], [-0.41138601303100586, 0.5570443868637085, -0.30116769671440125, 0.20401616394519806, -0.05931040644645691, -0.03992748633027077, -0.3791842460632324, 0.35343536734580994, -0.010526308789849281, 0.08700660616159439], [-0.37671124935150146, 0.16793717443943024, -0.15933068096637726, 0.11751508712768555, 0.2502792477607727, -0.13260328769683838, -0.2833787202835083, 0.42081812024116516, -0.15460778772830963, 0.15008139610290527], [-0.14373569190502167, -0.059031255543231964, -0.16870296001434326, 0.19011519849300385, 0.13242194056510925, -0.1966514140367508, -0.25544312596321106, 0.3420995771884918, -0.0986485630273819, 0.25757646560668945], [-0.00920774880796671, -0.0960591584444046, -0.04841839149594307, 0.16731436550617218, -0.05317094922065735, -0.22526505589485168, -0.20639891922473907, 0.3059499263763428, -0.06993100792169571, 0.2351863533258438], [0.09553426504135132, -0.1782679557800293, 0.0753340870141983, 0.18297834694385529, -0.07674036920070648, -0.3478843569755554, -0.1945108026266098, 0.17768101394176483, 0.017915302887558937, 0.24796058237552643], [0.1289772242307663, -0.18227733671665192, -0.03108513355255127, 0.1539446860551834, -0.1369931548833847, -0.42846810817718506, -0.12293463200330734, 0.1940590888261795, 0.0808267891407013, 0.3439502418041229], [0.1726801097393036, -0.1510690450668335, -0.06507110595703125, -0.05276020988821983, -0.10933607071638107, -0.38647353649139404, -0.005495408084243536, 0.18579290807247162, 0.18680772185325623, 0.22492454946041107], [0.2531430125236511, -0.10577646642923355, -0.1025536060333252, -0.10649032145738602, -0.14075061678886414, -0.33189669251441956, 0.06837894022464752, 0.07875973731279373, 0.24591557681560516, 0.1412700116634369], [0.3004991412162781, -0.07676909118890762, -0.09669496864080429, -0.10262761265039444, -0.17416881024837494, -0.1150791272521019, 0.11559314280748367, -0.06123066693544388, 0.2302459329366684, -0.019768446683883667], [0.1607530415058136, -0.05271032452583313, -0.04280703887343407, -0.0598839670419693, -0.13005384802818298, 0.11126348376274109, 0.00020095135550945997, -0.05317480489611626, 0.15338267385959625, -0.0869697704911232], [-0.03339383006095886, -0.025526614859700203, 0.010038798674941063, -0.007208602037280798, -0.06332356482744217, 0.20647352933883667, -0.06862134486436844, -0.023034855723381042, 0.0460178442299366, -0.04142129048705101], [-0.01757233403623104, -0.007218010723590851, 0.002909355331212282, -0.001219754689373076, -0.010497585870325565, 0.06289836764335632, -0.0381401851773262, -0.0066647958010435104, 0.029025573283433914, -0.013520630076527596], [-0.00032953335903584957, 0.0007331639062613249, -6.766776641597971e-05, -1.7067297449102625e-05, -0.0003755597281269729, 0.0032526352442801, -0.0029724666383117437, -0.0005650378880091012, 0.0019036347512155771, -0.001562101417221129], [-5.95318795149069e-07, -1.8109604482674513e-08, -1.5385007827717345e-06, -7.418673249048879e-06, -9.602669024388888e-07, -1.9395824892853852e-06, -1.369162472286689e-08, 0.0004456863971427083, -6.933795702934731e-06, -0.0004262680886313319], [-6.726540595991537e-05, -3.483598993625492e-05, -1.4626500160375144e-05, -0.0016243687132373452, -0.007467984221875668, -0.0033706931862980127, -0.0001196454104501754, 0.02362757921218872, -0.0004773024411406368, -0.01045085210353136], [-0.003256872296333313, -0.0005241141770966351, -0.0006201663636602461, -0.005250124726444483, -0.03237578272819519, -0.00591929629445076, -0.0011618805583566427, 0.09664741903543472, -0.004056693986058235, -0.04348250851035118], [-0.01689331792294979, -0.00046513311099261045, -0.03037414140999317, -0.006533804349601269, -0.0593695342540741, -0.01204707846045494, -0.016345787793397903, 0.17271146178245544, 0.004082500468939543, -0.03476497158408165], [-0.06897535175085068, 0.0009585815132595599, -0.08190065622329712, -0.03436123952269554, -0.08685942739248276, 0.0011812563752755523, -0.04971417784690857, 0.21428795158863068, 0.004785691853612661, 0.10059738904237747], [-0.028280483558773994, -0.02560345269739628, -0.2548693120479584, -0.14158229529857635, -0.041227787733078, 0.048063863068819046, -0.023887399584054947, 0.13699400424957275, 0.1005394235253334, 0.22985389828681946], [0.07874863594770432, -0.05121617019176483, -0.4380859434604645, -0.267231822013855, 0.07372730225324631, 0.1486758142709732, 0.058237962424755096, 0.029964787885546684, 0.1128346398472786, 0.25434455275535583], [0.057591672986745834, -0.07433722168207169, -0.5301473140716553, -0.33161503076553345, 0.17914007604122162, 0.14003968238830566, 0.12761849164962769, 0.10970296710729599, 0.15159256756305695, 0.17041349411010742], [0.005357346031814814, -0.11432400345802307, -0.45188453793525696, -0.328192800283432, 0.2623547613620758, 0.11240062117576599, 0.10930628329515457, 0.11188565194606781, 0.10597484558820724, 0.18712177872657776], [0.007609670981764793, -0.1511649340391159, -0.4577391445636749, -0.17112350463867188, 0.23955221474170685, 0.017709549516439438, 0.1270233392715454, 0.003202050691470504, 0.1342707723379135, 0.25065964460372925], [0.061791229993104935, -0.2523316740989685, -0.48631343245506287, -0.03382677957415581, 0.3899543583393097, 0.16293972730636597, 0.06294538825750351, -0.05448320880532265, -0.030200915411114693, 0.17952482402324677], [0.03726358339190483, -0.30970528721809387, -0.4670298099517822, -0.03160515055060387, 0.45220261812210083, 0.29408204555511475, 0.14466357231140137, -0.14733879268169403, -0.026837656274437904, 0.05430402606725693], [0.06951207667589188, -0.10051298886537552, -0.49308088421821594, 0.05991080030798912, 0.36827659606933594, 0.30620983242988586, 0.15350237488746643, -0.35139793157577515, 0.15083687007427216, -0.1632561832666397], [-0.12151924520730972, 0.2011851817369461, -0.4522034525871277, 0.17638243734836578, -0.11572259664535522, 0.2506833076477051, 0.07031799852848053, -0.4103144109249115, 0.4049137532711029, -0.0037229510489851236], [-0.4502830505371094, 0.6933567523956299, -0.4027494192123413, 0.30008479952812195, -0.30319955945014954, 0.01684136874973774, -0.1677888184785843, -0.14150641858577728, 0.2557610273361206, 0.1994837075471878], [-0.5768235921859741, 0.4939700663089752, -0.36617159843444824, 0.17439937591552734, 0.0923064723610878, -0.12084150314331055, -0.19844676554203033, 0.19270460307598114, 0.08109677582979202, 0.22780610620975494], [-0.5114667415618896, 0.12229707092046738, -0.267240971326828, 0.09118369221687317, 0.3261960446834564, -0.2839379608631134, -0.07841025292873383, 0.3351612687110901, 0.0057111261412501335, 0.2605065107345581], [-0.24529826641082764, -0.013066899962723255, -0.22678689658641815, 0.10520537942647934, 0.1448872983455658, -0.2590262293815613, -0.08894864469766617, 0.2878653109073639, -0.013785077258944511, 0.3089543581008911], [-0.05884012207388878, -0.0950387492775917, -0.08458459377288818, 0.10598581284284592, 0.013781470246613026, -0.21966487169265747, -0.13251690566539764, 0.2248050421476364, -0.057982590049505234, 0.3040553331375122], [0.025322325527668, -0.1541844606399536, 0.06152104213833809, 0.0039427014999091625, 0.016185130923986435, -0.27975818514823914, -0.14812777936458588, 0.059267375618219376, 0.05193949490785599, 0.363892525434494], [0.026683034375309944, -0.12142224609851837, -0.020204363390803337, -0.07755935937166214, -0.011144472286105156, -0.40609851479530334, -0.05744318291544914, 0.09696323424577713, 0.1920868307352066, 0.37813901901245117], [0.12526798248291016, -0.08071357011795044, -0.07320015877485275, -0.2086946666240692, 0.012879515998065472, -0.5115591883659363, 0.09886406362056732, 0.06583740562200546, 0.2737501561641693, 0.29756787419319153], [0.28825461864471436, -0.05726045370101929, -0.1293874830007553, -0.17112989723682404, -0.033035680651664734, -0.5265465378761292, 0.2154669165611267, 0.007802336476743221, 0.23477059602737427, 0.17106570303440094], [0.3331296741962433, -0.034564126282930374, -0.1678454428911209, -0.10700968652963638, -0.09414125233888626, -0.40605708956718445, 0.2811325788497925, -0.050830740481615067, 0.20905840396881104, 0.0371272936463356], [0.21356360614299774, -0.023312322795391083, -0.0027088657952845097, -0.04414200410246849, -0.04999661073088646, -0.2432945966720581, 0.10944100469350815, -0.033917736262083054, 0.14871527254581451, -0.07434777915477753], [-0.0007949477294459939, -0.010659132152795792, 0.04941549897193909, -0.0008304289658553898, -0.012756752781569958, -0.0022321802098304033, -0.039039306342601776, 0.0019367218483239412, 0.047649409621953964, -0.03268881514668465], [-0.00762514304369688, -0.004484586417675018, 0.027209477499127388, -0.0002516689710319042, -0.005082083400338888, 0.019315240904688835, -0.03557347506284714, 0.00422336719930172, 0.012327435426414013, -0.010058566927909851], [-3.536623626132496e-05, 0.0005389449070207775, 0.0026576616801321507, -1.9680463083204813e-05, -0.0018153106793761253, -0.00032563545391894877, -0.0017622828017920256, 0.0025670365430414677, -0.0012935228878632188, -0.0005118451663292944], [-6.001903862795643e-09, 1.8622169591253623e-05, -2.1233213374216575e-06, -4.907303264189977e-06, -1.041202821738807e-07, -7.97160907950456e-07, -9.266409506381024e-07, -2.564097030699486e-06, -2.653739556990331e-06, -4.5397782741929404e-06], [0.00025608547730371356, -8.293130122183356e-06, -1.5061006706673652e-05, -0.0012185471132397652, -0.006241904105991125, -0.0007312994566746056, -0.00013571568706538528, 0.013035654090344906, -0.0001270526845473796, -0.004813865292817354], [-0.0013595542404800653, -0.00023332404089160264, -0.00032960830139927566, -0.0036407916340976954, -0.01909954845905304, -0.0020956567022949457, -0.00041878162301145494, 0.05758410692214966, -0.0012155743315815926, -0.0291912741959095], [-0.014804976060986519, 0.0013691690983250737, -0.03392421454191208, -0.008875757455825806, -0.04953918606042862, -8.41874280013144e-05, -0.013101696968078613, 0.12214948236942291, 0.0026525596622377634, -0.005841085221618414], [-0.038371529430150986, 0.00045631363173015416, -0.13786862790584564, -0.060718804597854614, -0.039070021361112595, 0.019796164706349373, -0.050071727484464645, 0.13809841871261597, -0.024894583970308304, 0.19264444708824158], [0.0299863051623106, -0.023454420268535614, -0.34850090742111206, -0.13977143168449402, 0.07746156305074692, 0.07449612766504288, 0.008645284920930862, 0.07995882630348206, -0.018656792119145393, 0.25983554124832153], [0.16037403047084808, -0.04729121923446655, -0.506695568561554, -0.25039494037628174, 0.24446000158786774, 0.06979330629110336, 0.13226981461048126, 0.02682243473827839, -0.029231533408164978, 0.1998937577009201], [0.15945012867450714, -0.07323607057332993, -0.5003350377082825, -0.28903499245643616, 0.3035776913166046, 0.12729524075984955, 0.117377370595932, 0.047061849385499954, -0.0420464426279068, 0.14989039301872253], [0.08684326708316803, -0.09254370629787445, -0.3711948096752167, -0.21613024175167084, 0.30072036385536194, 0.0755215585231781, 0.1382160186767578, -0.007211190648376942, -0.07506737112998962, 0.16084527969360352], [0.0850057527422905, -0.18152740597724915, -0.29258257150650024, -0.08335781842470169, 0.24831360578536987, 0.09227073192596436, 0.1420934498310089, -0.1107921153306961, -0.01969192363321781, 0.12026812136173248], [0.12630876898765564, -0.3607816994190216, -0.19172289967536926, -0.1168023869395256, 0.4262995421886444, 0.2249966859817505, 0.13701583445072174, -0.18099460005760193, -0.12853142619132996, 0.06421209871768951], [0.08885765820741653, -0.40543073415756226, -0.12072723358869553, -0.10340850055217743, 0.5414392948150635, 0.26577869057655334, 0.17002250254154205, -0.417127788066864, 0.03216242045164108, -0.05156523734331131], [0.027916839346289635, -0.17854708433151245, -0.14533142745494843, 0.10983965545892715, 0.3195207118988037, 0.26918017864227295, 0.14472569525241852, -0.6545152068138123, 0.23005226254463196, -0.12284152954816818], [-0.3033515214920044, 0.2759861350059509, -0.07016709446907043, 0.24998416006565094, -0.0504753477871418, 0.14466112852096558, -0.012158543802797794, -0.6601589918136597, 0.34414491057395935, 0.08153550326824188], [-0.5215676426887512, 0.6415385603904724, -0.1242651492357254, 0.20858503878116608, -0.11088164150714874, -0.045822322368621826, -0.10934518277645111, -0.2980649769306183, 0.11417201906442642, 0.2456509917974472], [-0.606342613697052, 0.41754046082496643, -0.2445431351661682, 0.005809195339679718, 0.16075672209262848, -0.2510588765144348, 0.029511690139770508, 0.0404166616499424, 0.1981133371591568, 0.24979639053344727], [-0.5104721188545227, 0.10358807444572449, -0.27227964997291565, 0.07025650888681412, 0.2760501205921173, -0.35293734073638916, 0.0498305968940258, 0.1630968600511551, 0.10229548811912537, 0.3705720901489258], [-0.2727757692337036, -0.030616942793130875, -0.13441403210163116, 0.08996042609214783, 0.25965210795402527, -0.21972885727882385, -0.08536502718925476, 0.12711681425571442, -0.03858290985226631, 0.3047531545162201], [-0.10885261744260788, -0.18851321935653687, -0.08747567981481552, 0.09335258603096008, 0.16530048847198486, -0.14899729192256927, -0.13362567126750946, 0.14092367887496948, 0.0015840341802686453, 0.266303688287735], [-0.07258927822113037, -0.18366527557373047, -0.055203720927238464, -0.061515480279922485, 0.13957221806049347, -0.12936031818389893, -0.058710601180791855, 0.07955970615148544, 0.026538021862506866, 0.3153746724128723], [-0.08970118314027786, -0.12886863946914673, -0.05403367429971695, -0.21620607376098633, 0.15840353071689606, -0.1465405374765396, -0.023349976167082787, 0.10878165811300278, 0.09781479835510254, 0.29369989037513733], [0.07854720205068588, -0.08596692234277725, -0.07722021639347076, -0.19975417852401733, 0.11828087270259857, -0.2861548960208893, 0.15454347431659698, 0.051142677664756775, 0.03175601363182068, 0.21482615172863007], [0.26837071776390076, -0.0633651465177536, -0.13077571988105774, -0.18226167559623718, 0.05139075219631195, -0.3363752067089081, 0.2947951853275299, 0.005662634968757629, 0.039797112345695496, 0.05276099964976311], [0.3219834268093109, -0.04870525747537613, -0.1182444840669632, -0.1065625324845314, -0.027454813942313194, -0.339356929063797, 0.3532627820968628, -0.0012218855554237962, 0.04054844006896019, -0.07424887269735336], [0.19714272022247314, -0.03390412777662277, 0.052071813493967056, -0.04189441353082657, -0.048950303345918655, -0.2147185057401657, 0.16410240530967712, 0.003959404304623604, 0.02932310849428177, -0.10713192820549011], [0.011476199142634869, -0.015946511179208755, 0.10734757035970688, -0.0046549574472010136, 0.0001791477989172563, -0.03576359525322914, -0.03633911907672882, 0.009366908110678196, 0.010044642724096775, -0.045710239559412], [-0.002473731292411685, -0.00661426642909646, 0.059232447296381, -0.00043353810906410217, -0.004129962995648384, -0.0007528421119786799, -0.03269770368933678, 0.0017623296007514, -0.0026771463453769684, -0.011215592734515667], [-0.00020298047456890345, -0.00011860776430694386, 0.014353277161717415, -0.0002822006063070148, -0.0050567020662128925, -0.002138025825843215, -0.00488142017275095, -0.0005269642570056021, -0.0007580782985314727, -0.0003882979799527675], [-2.2716165403835475e-05, -5.389067041505768e-07, -4.361789251561277e-06, -0.0004662122228182852, -1.4745830412721261e-05, 0.0015198024921119213, -3.639211718109436e-05, -1.20205904750037e-05, -8.300111221615225e-05, -0.0008798134513199329], [-3.973568163928576e-05, -4.3253971853118856e-06, -0.002977115800604224, 0.0030028976034373045, -0.003499415470287204, -0.00040104027721099555, -1.0732416740211193e-05, 0.006326346658170223, -0.0003370685444679111, -0.0020598096307367086], [-0.0004243411822244525, 0.00017198962450493127, -0.0020780814811587334, 0.000810342316981405, -0.00827981997281313, -0.0008033345802687109, -3.663061943370849e-05, 0.02719908207654953, -0.000524322793353349, -0.016034886240959167], [-0.021903514862060547, 0.0029161544516682625, -0.028140416368842125, 0.0011418948415666819, -0.013403510674834251, 0.0014580490533262491, -0.007039705291390419, 0.05683673545718193, -0.006856151390820742, 0.014990502037107944], [-0.03084302879869938, 0.0005344448145478964, -0.10452588647603989, -0.028942730277776718, 0.07322090864181519, 0.009663769975304604, -0.07296913117170334, 0.057536810636520386, -0.04968864470720291, 0.1460137516260147], [0.11030884832143784, -0.029301900416612625, -0.2912521958351135, -0.11671873182058334, 0.20311830937862396, 0.0069376141764223576, -0.002910893876105547, 0.0556078739464283, -0.08169697225093842, 0.14590837061405182], [0.17203478515148163, -0.054109979420900345, -0.3185064494609833, -0.22083401679992676, 0.3063192367553711, -0.004184451885521412, 0.12455276399850845, -0.0012799701653420925, -0.16986846923828125, 0.16587592661380768], [0.2235059291124344, -0.08382750302553177, -0.19984158873558044, -0.25105932354927063, 0.3536113500595093, -0.01598009653389454, 0.12728913128376007, -0.027905574068427086, -0.23840785026550293, 0.11261487007141113], [0.15778645873069763, -0.1060636043548584, -0.11210674047470093, -0.19755688309669495, 0.31026434898376465, 0.05747922509908676, 0.1586184799671173, -0.11165585368871689, -0.23543500900268555, 0.07866966724395752], [0.16237126290798187, -0.21915122866630554, -0.05103291571140289, -0.11927316337823868, 0.2440803050994873, 0.188823863863945, 0.1713993102312088, -0.21521402895450592, -0.19688314199447632, 0.03487912937998772], [0.147282674908638, -0.3944072127342224, 0.024373602122068405, -0.16186833381652832, 0.3224165439605713, 0.2381550818681717, 0.20375564694404602, -0.3284319043159485, -0.04534916952252388, -0.0059274169616401196], [0.12391141802072525, -0.4001738727092743, 0.07975181937217712, -0.135743647813797, 0.3541526198387146, 0.11897382885217667, 0.2778579890727997, -0.5219343900680542, 0.1611277014017105, -0.05792473629117012], [-0.04147921875119209, -0.09144515544176102, 0.06589888036251068, 0.07712870091199875, 0.20772968232631683, 0.1096658930182457, 0.1290992945432663, -0.6615138053894043, 0.2696516513824463, -0.06473696231842041], [-0.3531300723552704, 0.34956851601600647, 0.16908177733421326, 0.11268601566553116, -0.05463021621108055, 0.02841644361615181, -0.04454673454165459, -0.564242959022522, 0.3450535535812378, 0.01174268126487732], [-0.5446035861968994, 0.5605244636535645, 0.0625934973359108, 0.08304321765899658, -0.07450059056282043, -0.09535960108041763, -0.02916959673166275, -0.2430664747953415, 0.2183709591627121, 0.06216881796717644], [-0.5715134143829346, 0.36080917716026306, -0.09812957793474197, 0.022897792980074883, 0.11835107952356339, -0.18540555238723755, 0.07338321954011917, -0.0155176455155015, 0.14904333651065826, 0.1460811346769333], [-0.5067999362945557, 0.06497102975845337, -0.08840955793857574, -0.00983055867254734, 0.34298092126846313, -0.26708582043647766, 0.06503286212682724, 0.043202124536037445, 0.03159795701503754, 0.32434046268463135], [-0.2375544160604477, -0.23951204121112823, -0.12262029945850372, 0.04669427499175072, 0.4229040741920471, -0.21999399363994598, -0.12757608294487, 0.18495893478393555, 0.028377823531627655, 0.2643209397792816], [-0.0953570157289505, -0.3016340434551239, -0.07231797277927399, 0.0251407939940691, 0.2679772675037384, -0.12008646130561829, -0.1281607449054718, 0.31933698058128357, -0.027074674144387245, 0.132176011800766], [-0.06353568285703659, -0.23200282454490662, -0.09175743907690048, -0.02450517565011978, 0.2673914134502411, -0.12529221177101135, -0.047429803758859634, 0.3340938985347748, -0.10294164717197418, 0.08597871661186218], [-0.013842507265508175, -0.15549814701080322, -0.053448911756277084, -0.09321831166744232, 0.17167651653289795, -0.057875484228134155, 0.032725509256124496, 0.2214711308479309, -0.150987446308136, 0.09899736940860748], [0.10144341737031937, -0.10007788240909576, -0.08754348754882812, -0.038253720849752426, 0.08601102232933044, -0.11582134664058685, 0.15170080959796906, 0.14299583435058594, -0.1541462540626526, 0.013691353611648083], [0.21317104995250702, -0.06690847128629684, -0.1011461615562439, -0.09881827980279922, 0.042911678552627563, -0.13118331134319305, 0.2691768705844879, 0.13547442853450775, -0.1650717556476593, -0.09760633856058121], [0.286713182926178, -0.0459219329059124, -0.03387400135397911, -0.08138545602560043, -0.00982628297060728, -0.17361943423748016, 0.28021562099456787, 0.07883446663618088, -0.13773106038570404, -0.16340482234954834], [0.19109778106212616, -0.02325616218149662, 0.08415575325489044, -0.03243586793541908, -0.051757942885160446, -0.12330124527215958, 0.13075149059295654, 0.013650443404912949, -0.06402565538883209, -0.12487854063510895], [0.004542472306638956, -0.01184812467545271, 0.14077576994895935, -0.010699387639760971, -0.02335384301841259, -0.04132845252752304, -0.024933557957410812, 0.005625997204333544, -0.00478837825357914, -0.033992376178503036], [-0.0014833624009042978, -0.002339474856853485, 0.07415180653333664, -0.002490290906280279, -0.014032581821084023, -0.0047193123027682304, -0.04002433642745018, -0.0006919552106410265, -0.004025242291390896, -0.004345221444964409], [-1.359501311526401e-05, -8.326611350639723e-06, 0.001698663691058755, -0.0002377551281824708, -0.0005538879195228219, -8.959122351370752e-05, -0.0006328521994873881, -6.704533461743267e-06, -0.00014213107351679355, -1.3820040294376668e-05], [-8.885072020348161e-06, -2.410443471489998e-07, -1.4611616734327981e-06, -0.0001540741795906797, -9.460473847866524e-06, 0.00048281511408276856, -1.2304647498240229e-05, 2.6609421183820814e-05, -2.948316432593856e-05, -0.0002935146912932396], [-4.556617932394147e-05, -6.4467221818631515e-06, -0.006436057388782501, 0.0077147167176008224, -2.4441997084068134e-05, -0.0004353985714260489, -6.465439582825638e-06, -4.979945151717402e-05, -0.0006899076979607344, -2.0632594896596856e-05], [-0.0006871582008898258, 0.0012031089281663299, -0.004433023277670145, 0.008222652599215508, 0.0008978197001852095, -0.0013173010665923357, -0.00012672808952629566, 0.007671768311411142, -0.0010299102868884802, -0.010401228442788124], [-0.02948457933962345, 0.001123566646128893, 0.010146207176148891, 0.011132931336760521, 0.008841535076498985, -0.006612078286707401, -0.021938981488347054, 0.02518378384411335, -0.010288849472999573, 0.011896459385752678], [-0.004777177702635527, -0.005933703389018774, -0.0004628090828191489, 0.02017492800951004, 0.07625632733106613, -0.022754685953259468, -0.10777511447668076, 0.01606912538409233, -0.052482277154922485, 0.08168558031320572], [0.1629752218723297, -0.045988284051418304, -0.035323627293109894, -0.025747988373041153, 0.17443953454494476, -0.10141316801309586, -0.026648076251149178, -0.03686053678393364, -0.131719708442688, 0.06628630310297012], [0.15166673064231873, -0.0888672024011612, -0.02821999602019787, -0.10981927067041397, 0.23650294542312622, -0.09782177954912186, 0.11968041956424713, -0.0341443233191967, -0.2108287215232849, 0.06185098737478256], [0.20993095636367798, -0.10716923326253891, -0.014960142783820629, -0.1853303611278534, 0.31184491515159607, -0.13186486065387726, 0.17150801420211792, -0.0903301015496254, -0.2259351760149002, 0.062305547297000885], [0.1748303472995758, -0.13454237580299377, -0.003946192096918821, -0.2011938989162445, 0.33294543623924255, -0.05714847519993782, 0.17525042593479156, -0.20554189383983612, -0.156518816947937, 0.07586551457643509], [0.21394802629947662, -0.2495795488357544, 0.01816430501639843, -0.1851194053888321, 0.3066255450248718, 0.08410374075174332, 0.17525002360343933, -0.2584071457386017, -0.0801604613661766, -0.0248256828635931], [0.23603245615959167, -0.337198942899704, 0.03676163777709007, -0.16336305439472198, 0.2102457880973816, 0.10464602708816528, 0.2817085087299347, -0.3289516866207123, -0.04508290812373161, 0.005201989784836769], [0.062366727739572525, -0.21220912039279938, 0.0008407022105529904, -0.0822860449552536, 0.22217130661010742, 0.08120982348918915, 0.3202555179595947, -0.44391965866088867, 0.04397434741258621, 0.007596610113978386], [-0.19474706053733826, 0.0286792553961277, 0.06874960660934448, 0.07332352548837662, 0.10185950994491577, 0.08856230229139328, 0.1350208967924118, -0.4954572021961212, 0.2377713918685913, -0.043762337416410446], [-0.48077136278152466, 0.38666805624961853, 0.17574097216129303, 0.1521645337343216, -0.04827994853258133, -0.05916237458586693, 0.032801952213048935, -0.36516639590263367, 0.3365481495857239, -0.13054496049880981], [-0.5925935506820679, 0.5517083406448364, 0.1002957820892334, 0.12065095454454422, 0.017955001443624496, -0.2262684404850006, 0.11691944301128387, -0.16719269752502441, 0.24106788635253906, -0.16254380345344543], [-0.5568858981132507, 0.2158275991678238, 0.013983958400785923, 0.03966289758682251, 0.2406250536441803, -0.23251022398471832, 0.08600996434688568, 0.009087648242712021, 0.08950977772474289, 0.09468945860862732], [-0.4102334678173065, -0.07566364854574203, 0.018417082726955414, -0.07177025824785233, 0.42588916420936584, -0.20909735560417175, -0.015437145717442036, 0.026772351935505867, 0.0018961369059979916, 0.30922743678092957], [-0.19764843583106995, -0.3682844340801239, -0.046365100890398026, -0.04630180075764656, 0.4009944796562195, -0.16879557073116302, -0.08164630085229874, 0.33501365780830383, -0.09189372509717941, 0.264927476644516], [-0.042489320039749146, -0.31841567158699036, -0.12366299331188202, -0.010491606779396534, 0.2316463589668274, 0.023204972967505455, -0.060356684029102325, 0.3980502188205719, -0.1384512335062027, 0.04096590727567673], [-0.009095296263694763, -0.24244150519371033, -0.08760302513837814, 0.10772157460451126, 0.17956647276878357, -0.05203448608517647, 0.015111454762518406, 0.3279578983783722, -0.21255911886692047, -0.026624515652656555], [0.06432892382144928, -0.16781064867973328, -0.14570553600788116, 0.16826701164245605, 0.04627833142876625, -0.08771517872810364, 0.09486580640077591, 0.3178871273994446, -0.26517507433891296, -0.025220805779099464], [0.09131285548210144, -0.10887859761714935, -0.09851545840501785, 0.13174130022525787, 0.000993514433503151, -0.05923209339380264, 0.13684383034706116, 0.2689450979232788, -0.23879405856132507, -0.12441720813512802], [0.18622733652591705, -0.07641319930553436, -0.10588150471448898, 0.0850486010313034, 0.0019828651566058397, -0.05810629948973656, 0.13394524157047272, 0.2195882648229599, -0.18485744297504425, -0.20153367519378662], [0.24728141725063324, -0.05132180079817772, -0.013815274462103844, 0.014793726615607738, -0.03607950359582901, -0.04838239401578903, 0.16136175394058228, 0.07876607030630112, -0.15849679708480835, -0.19410750269889832], [0.14850421249866486, -0.03053146041929722, 0.1730835735797882, -0.005896335002034903, -0.09234616160392761, -0.047272924333810806, 0.08433540910482407, -0.00027140812017023563, -0.10226799547672272, -0.1273367553949356], [-0.002637875732034445, -0.012206727638840675, 0.2164756804704666, -0.016948789358139038, -0.04665783792734146, -0.0303669311106205, -0.03631230443716049, -0.011657940223813057, -0.02170267514884472, -0.03798453509807587], [-0.0029640737920999527, -0.004310889635235071, 0.09001356363296509, -0.0049006822519004345, 0.0038261818699538708, -0.00960415881127119, -0.0491754449903965, -0.0017887107096612453, -0.009399344213306904, -0.011696457862854004], [-0.0005506966263055801, -0.0003554141439963132, 0.009500192478299141, -0.00030480357236228883, -0.0003520501486491412, -0.003070587059482932, -0.003000331576913595, -0.00013779157598037273, -0.0011170045472681522, -0.000611513270996511], [-8.268782039522193e-06, -3.6907516687278985e-07, -1.883728657503525e-07, -8.117896868498065e-06, -2.6469679141882807e-05, -8.468177838949487e-05, -2.220826672783005e-06, 0.00017454492626711726, -1.3176057109376416e-05, -3.1052444683155045e-05], [-6.37629782431759e-05, -2.174356995965354e-05, -0.003434324637055397, 0.005489223171025515, -1.6790932932053693e-05, -0.00026489829178899527, -3.2479958463227376e-05, -0.0006244363030418754, -0.00042654707795009017, -0.0006042387103661895], [-0.0021394258365035057, 0.0009341383120045066, -0.008854683488607407, 0.028422607108950615, -0.0025678779929876328, -0.004220522940158844, -0.001250558765605092, 0.0004210431652609259, -0.0029644398018717766, -0.007780284155160189], [-0.03299303352832794, -0.0017787565011531115, 0.05923307687044144, 0.05465979129076004, -0.023126959800720215, -0.001339903799816966, -0.038401972502470016, 0.0005411318852566183, -0.014200271107256413, -0.0025930986739695072], [0.014531600289046764, -0.011332357302308083, 0.11561740189790726, 0.09446026384830475, -0.013620877638459206, -0.02926834672689438, -0.13014446198940277, -0.0010953419841825962, -0.07297913730144501, 0.0338311642408371], [0.19712364673614502, -0.06845224648714066, 0.12102211266756058, 0.03918292373418808, 0.06648457050323486, -0.09514454007148743, -0.05379253998398781, -0.058749500662088394, -0.14966200292110443, 0.001987362978979945], [0.19604212045669556, -0.1441032886505127, 0.13699392974376678, -0.071604885160923, 0.16138853132724762, -0.12827682495117188, 0.10367071628570557, -0.04300253838300705, -0.1665377914905548, -0.04456998035311699], [0.15590420365333557, -0.1718013435602188, 0.0597548633813858, -0.1329973340034485, 0.26694023609161377, -0.25098615884780884, 0.19674251973628998, -0.061546750366687775, -0.08686533570289612, 0.02485421858727932], [0.19045570492744446, -0.19098444283008575, -0.008792130276560783, -0.2125977873802185, 0.34023740887641907, -0.2766738533973694, 0.17459575831890106, -0.1858258843421936, 0.06435622274875641, 0.1052289828658104], [0.2311546355485916, -0.20521053671836853, 0.061005979776382446, -0.1852501928806305, 0.23004969954490662, -0.21235960721969604, 0.22634218633174896, -0.20752747356891632, 0.07207895070314407, -0.010283539071679115], [0.227340430021286, -0.16607047617435455, 0.10264617204666138, -0.23389510810375214, 0.05592560023069382, -0.11637002229690552, 0.3503238558769226, -0.3027733564376831, 0.047253116965293884, 0.035620447248220444], [0.013609535060822964, -0.0958084762096405, 0.1778963804244995, -0.1239837259054184, 0.008224060758948326, -0.09828813374042511, 0.37611323595046997, -0.3833863139152527, 0.06042754277586937, 0.06519527733325958], [-0.2965300977230072, 0.00043302238918840885, 0.28335505723953247, -0.0006018043495714664, 0.055716875940561295, -0.06101467087864876, 0.06688975542783737, -0.2824488878250122, 0.2802393436431885, -0.04604005441069603], [-0.5309593081474304, 0.37361153960227966, 0.27475377917289734, 0.09104380011558533, 0.06458476930856705, -0.16216149926185608, 0.05042291432619095, -0.17301422357559204, 0.1993904858827591, -0.1876724511384964], [-0.5623455047607422, 0.5178369283676147, 0.11710717529058456, -0.026948049664497375, 0.22688455879688263, -0.2557191252708435, 0.13898125290870667, -0.09450573474168777, 0.0738002136349678, -0.13509219884872437], [-0.4507548213005066, 0.07332073152065277, 0.019398197531700134, -0.12774093449115753, 0.40274539589881897, -0.17781206965446472, 0.06586842983961105, 0.06929019838571548, 0.051925960928201675, 0.07375878840684891], [-0.2881481945514679, -0.19612188637256622, 0.12411137670278549, -0.1400052309036255, 0.40930283069610596, -0.1357390433549881, -0.07843048125505447, 0.09244687110185623, 0.016173332929611206, 0.1964101493358612], [-0.07621417194604874, -0.415091335773468, 0.09559810906648636, -0.026092693209648132, 0.2796984910964966, -0.07821795344352722, -0.12226471304893494, 0.24118168652057648, -0.08035546541213989, 0.18175798654556274], [0.013208647258579731, -0.3230225443840027, -0.009726612828671932, 0.12996169924736023, 0.1716991364955902, 0.0003458745777606964, 0.02282366342842579, 0.2154705822467804, -0.2309037297964096, 0.01014284510165453], [0.04950215667486191, -0.2314538210630417, -0.04872521385550499, 0.2084147036075592, 0.07643193006515503, 0.012737943790853024, 0.08493112772703171, 0.24836108088493347, -0.27061718702316284, -0.12958315014839172], [0.09752783179283142, -0.16266925632953644, -0.0523548424243927, 0.18878787755966187, 0.07540328055620193, 0.004927788395434618, 0.03817169368267059, 0.20477443933486938, -0.26497769355773926, -0.12959182262420654], [0.11540037393569946, -0.10606543719768524, 0.07358086854219437, 0.18566757440567017, 0.016563383862376213, -0.03450453281402588, 0.042849041521549225, 0.1799813210964203, -0.2527063190937042, -0.22076652944087982], [0.15625505149364471, -0.07943606376647949, 0.09106697142124176, 0.17002715170383453, -0.08576177060604095, 0.015104529447853565, 0.04045220836997032, 0.07417085021734238, -0.18936960399150848, -0.1925097554922104], [0.15876619517803192, -0.061130959540605545, 0.1428021937608719, 0.0888679251074791, -0.09292850643396378, 0.024008572101593018, 0.06541252136230469, -0.0077257296070456505, -0.10749457031488419, -0.2105780839920044], [0.05789965018630028, -0.04147517308592796, 0.26307642459869385, 0.024744264781475067, -0.08466929942369461, -0.00949406810104847, 0.032324254512786865, -0.016139136627316475, -0.09733369201421738, -0.1289333552122116], [-0.020518695935606956, -0.02513299696147442, 0.31322604417800903, -0.026350632309913635, -0.04426932334899902, -0.03212033957242966, -0.05986762046813965, -0.016648221760988235, -0.049747541546821594, -0.038570620119571686], [-0.010168367065489292, -0.0101402522996068, 0.12969595193862915, -0.006547791417688131, -0.01666787452995777, -0.015408763661980629, -0.04493711143732071, -0.001588895684108138, -0.015202165581285954, -0.009034727700054646], [-0.0008854414918459952, -0.00021160210599191487, 0.016897955909371376, -0.00030948760104365647, -0.0009039961150847375, -0.006423026788979769, -0.006902479566633701, -0.00011188243661308661, -0.0010078424820676446, -0.0001421959896106273], [0.0, 0.0, 0.0, 0.0, 0.0, 0.0, 0.0, 0.0, 0.0, 0.0], [-8.473330672131851e-05, 0.00016313484229613096, -0.0013031668495386839, 0.0022111504804342985, -1.3584306543634739e-05, -0.000308592920191586, -2.7685751774697565e-05, -6.611946446355432e-05, -0.0004702148144133389, -0.00010018770262831822], [-0.0033280067145824432, -0.00033394774072803557, -0.008586718700826168, 0.03888032212853432, -0.001410811673849821, -0.006668298039585352, -0.0023652026429772377, -0.0012862104922533035, -0.0037313606590032578, -0.011169764213263988], [-0.03656453639268875, -0.004311250522732735, 0.08662278950214386, 0.12086378037929535, -0.06030401587486267, 0.002889215713366866, -0.04690137878060341, -0.006984021048992872, -0.02331392653286457, -0.03199654817581177], [0.009578097611665726, -0.020163899287581444, 0.21306808292865753, 0.1568090170621872, -0.04483918845653534, -0.0006999142351560295, -0.15712261199951172, -0.009268945083022118, -0.09127821028232574, -0.056082528084516525], [0.16667082905769348, -0.1095527932047844, 0.23648349940776825, 0.07614129781723022, -0.015878945589065552, 0.03541310131549835, -0.09794146567583084, -0.06337984651327133, -0.13665184378623962, -0.09130396693944931], [0.1994195133447647, -0.20357131958007812, 0.16464044153690338, -0.04255981743335724, 0.03863157331943512, 0.12003810703754425, 0.03746422007679939, -0.11157301068305969, -0.11095749586820602, 